<?xml version="1.0"?>
<opencv_storage>
<myfacedetector type_id="opencv-haar-classifier">
  <size>
    24 24</size>
  <stages>
    <_>
      <trees>
        <_>
          <_>
            <feature>
              <rects>
                <_>
                  6 8 3 4 -1.</_>
                <_>
                  6 10 3 2 2.</_></rects>
              <tilted>0</tilted></feature>
            <threshold>6.1254720203578472e-003</threshold>
            <left_val>-0.8661608099937439</left_val>
            <right_val>0.8015806078910828</right_val></_></_>
        <_>
          <_>
            <feature>
              <rects>
                <_>
                  8 0 10 9 -1.</_>
                <_>
                  8 3 10 3 3.</_></rects>
              <tilted>0</tilted></feature>
            <threshold>0.0346024595201015</threshold>
            <left_val>-0.6703181266784668</left_val>
            <right_val>0.6112728118896484</right_val></_></_>
        <_>
          <_>
            <feature>
              <rects>
                <_>
                  7 7 9 2 -1.</_>
                <_>
                  10 7 3 2 3.</_></rects>
              <tilted>0</tilted></feature>
            <threshold>5.9026950038969517e-003</threshold>
            <left_val>-0.7305731773376465</left_val>
            <right_val>0.5965132117271423</right_val></_></_>
        <_>
          <_>
            <feature>
              <rects>
                <_>
                  13 7 5 3 -1.</_>
                <_>
                  13 8 5 1 3.</_></rects>
              <tilted>0</tilted></feature>
            <threshold>-1.1091839987784624e-003</threshold>
            <left_val>0.2038124054670334</left_val>
            <right_val>-0.5122303962707520</right_val></_></_>
        <_>
          <_>
            <feature>
              <rects>
                <_>
                  5 12 6 4 -1.</_>
                <_>
                  5 14 6 2 2.</_></rects>
              <tilted>0</tilted></feature>
            <threshold>-1.7874420154839754e-004</threshold>
            <left_val>0.5312771797180176</left_val>
            <right_val>-0.6631050705909729</right_val></_></_>
        <_>
          <_>
            <feature>
              <rects>
                <_>
                  8 7 12 2 -1.</_>
                <_>
                  8 7 6 2 2.</_></rects>
              <tilted>0</tilted></feature>
            <threshold>-3.9455089718103409e-003</threshold>
            <left_val>0.2650625109672546</left_val>
            <right_val>-0.2117961943149567</right_val></_></_>
        <_>
          <_>
            <feature>
              <rects>
                <_>
                  1 5 10 3 -1.</_>
                <_>
                  6 5 5 3 2.</_></rects>
              <tilted>0</tilted></feature>
            <threshold>8.2886302843689919e-003</threshold>
            <left_val>-0.4450848102569580</left_val>
            <right_val>0.5507258772850037</right_val></_></_></trees>
      <stage_threshold>-1.9546689987182617</stage_threshold>
      <parent>-1</parent>
      <next>-1</next></_>
    <_>
      <trees>
        <_>
          <_>
            <feature>
              <rects>
                <_>
                  5 8 3 4 -1.</_>
                <_>
                  5 10 3 2 2.</_></rects>
              <tilted>0</tilted></feature>
            <threshold>7.4287662282586098e-003</threshold>
            <left_val>-0.7908748984336853</left_val>
            <right_val>0.6582460999488831</right_val></_></_>
        <_>
          <_>
            <feature>
              <rects>
                <_>
                  2 3 21 4 -1.</_>
                <_>
                  9 3 7 4 3.</_></rects>
              <tilted>0</tilted></feature>
            <threshold>0.0548080503940582</threshold>
            <left_val>-0.6520295143127441</left_val>
            <right_val>0.6107215881347656</right_val></_></_>
        <_>
          <_>
            <feature>
              <rects>
                <_>
                  7 8 5 4 -1.</_>
                <_>
                  7 10 5 2 2.</_></rects>
              <tilted>0</tilted></feature>
            <threshold>2.3992919886950403e-004</threshold>
            <left_val>-0.9374052882194519</left_val>
            <right_val>0.3327969908714294</right_val></_></_>
        <_>
          <_>
            <feature>
              <rects>
                <_>
                  6 5 12 6 -1.</_>
                <_>
                  10 5 4 6 3.</_></rects>
              <tilted>0</tilted></feature>
            <threshold>3.3138128928840160e-003</threshold>
            <left_val>-0.9294471144676209</left_val>
            <right_val>0.2683336138725281</right_val></_></_>
        <_>
          <_>
            <feature>
              <rects>
                <_>
                  5 0 5 9 -1.</_>
                <_>
                  5 3 5 3 3.</_></rects>
              <tilted>0</tilted></feature>
            <threshold>7.2851120494306087e-003</threshold>
            <left_val>-0.8754212260246277</left_val>
            <right_val>0.3908602893352509</right_val></_></_>
        <_>
          <_>
            <feature>
              <rects>
                <_>
                  2 5 22 15 -1.</_>
                <_>
                  2 10 22 5 3.</_></rects>
              <tilted>0</tilted></feature>
            <threshold>5.8173048309981823e-003</threshold>
            <left_val>-0.9427211880683899</left_val>
            <right_val>0.2276646941900253</right_val></_></_>
        <_>
          <_>
            <feature>
              <rects>
                <_>
                  6 6 3 6 -1.</_>
                <_>
                  6 8 3 2 3.</_></rects>
              <tilted>0</tilted></feature>
            <threshold>-1.8553839254309423e-005</threshold>
            <left_val>0.2411383986473084</left_val>
            <right_val>-0.9784464836120606</right_val></_></_>
        <_>
          <_>
            <feature>
              <rects>
                <_>
                  8 12 13 6 -1.</_>
                <_>
                  8 14 13 2 3.</_></rects>
              <tilted>0</tilted></feature>
            <threshold>-1.7530510376673192e-004</threshold>
            <left_val>0.2174466997385025</left_val>
            <right_val>-0.7911161780357361</right_val></_></_>
        <_>
          <_>
            <feature>
              <rects>
                <_>
                  7 6 4 3 -1.</_>
                <_>
                  9 6 2 3 2.</_></rects>
              <tilted>0</tilted></feature>
            <threshold>1.5210250239761081e-005</threshold>
            <left_val>-0.7667303085327148</left_val>
            <right_val>0.3724037110805512</right_val></_></_>
        <_>
          <_>
            <feature>
              <rects>
                <_>
                  8 17 16 4 -1.</_>
                <_>
                  16 17 8 2 2.</_>
                <_>
                  8 19 8 2 2.</_></rects>
              <tilted>0</tilted></feature>
            <threshold>-2.8913349378854036e-003</threshold>
            <left_val>0.3097432851791382</left_val>
            <right_val>-0.6981565952301025</right_val></_></_>
        <_>
          <_>
            <feature>
              <rects>
                <_>
                  5 9 3 6 -1.</_>
                <_>
                  5 11 3 2 3.</_></rects>
              <tilted>0</tilted></feature>
            <threshold>1.8557100702309981e-005</threshold>
            <left_val>-0.7171168923377991</left_val>
            <right_val>0.3183534145355225</right_val></_></_></trees>
      <stage_threshold>-2.2894210815429687</stage_threshold>
      <parent>0</parent>
      <next>-1</next></_>
    <_>
      <trees>
        <_>
          <_>
            <feature>
              <rects>
                <_>
                  0 3 24 4 -1.</_>
                <_>
                  8 3 8 4 3.</_></rects>
              <tilted>0</tilted></feature>
            <threshold>0.1089788973331451</threshold>
            <left_val>-0.4704928994178772</left_val>
            <right_val>0.7556415796279907</right_val></_></_>
        <_>
          <_>
            <feature>
              <rects>
                <_>
                  15 8 3 2 -1.</_>
                <_>
                  15 9 3 1 2.</_></rects>
              <tilted>0</tilted></feature>
            <threshold>1.8804479623213410e-003</threshold>
            <left_val>-0.3074803054332733</left_val>
            <right_val>0.4674814045429230</right_val></_></_>
        <_>
          <_>
            <feature>
              <rects>
                <_>
                  6 8 4 2 -1.</_>
                <_>
                  6 9 4 1 2.</_></rects>
              <tilted>0</tilted></feature>
            <threshold>1.9220690010115504e-003</threshold>
            <left_val>-0.6970369815826416</left_val>
            <right_val>0.4468165040016174</right_val></_></_>
        <_>
          <_>
            <feature>
              <rects>
                <_>
                  8 6 9 4 -1.</_>
                <_>
                  11 6 3 4 3.</_></rects>
              <tilted>0</tilted></feature>
            <threshold>0.0134899001568556</threshold>
            <left_val>-0.5581200718879700</left_val>
            <right_val>0.3977777063846588</right_val></_></_>
        <_>
          <_>
            <feature>
              <rects>
                <_>
                  3 9 10 2 -1.</_>
                <_>
                  3 10 10 1 2.</_></rects>
              <tilted>0</tilted></feature>
            <threshold>1.3573589967563748e-003</threshold>
            <left_val>-0.8764712810516357</left_val>
            <right_val>0.2380377948284149</right_val></_></_>
        <_>
          <_>
            <feature>
              <rects>
                <_>
                  13 5 4 6 -1.</_>
                <_>
                  13 5 2 6 2.</_></rects>
              <tilted>0</tilted></feature>
            <threshold>1.5404140867758542e-005</threshold>
            <left_val>-0.5445718169212341</left_val>
            <right_val>0.0584914796054363</right_val></_></_>
        <_>
          <_>
            <feature>
              <rects>
                <_>
                  7 5 4 6 -1.</_>
                <_>
                  9 5 2 6 2.</_></rects>
              <tilted>0</tilted></feature>
            <threshold>2.4568429216742516e-004</threshold>
            <left_val>-0.8734893798828125</left_val>
            <right_val>0.4003109931945801</right_val></_></_>
        <_>
          <_>
            <feature>
              <rects>
                <_>
                  16 5 1 9 -1.</_>
                <_>
                  16 8 1 3 3.</_></rects>
              <tilted>0</tilted></feature>
            <threshold>-6.3342587964143604e-005</threshold>
            <left_val>0.0750019997358322</left_val>
            <right_val>-0.6334850192070007</right_val></_></_>
        <_>
          <_>
            <feature>
              <rects>
                <_>
                  7 5 1 9 -1.</_>
                <_>
                  7 8 1 3 3.</_></rects>
              <tilted>0</tilted></feature>
            <threshold>-5.8708427241072059e-004</threshold>
            <left_val>0.4482432007789612</left_val>
            <right_val>-0.7588031291961670</right_val></_></_>
        <_>
          <_>
            <feature>
              <rects>
                <_>
                  12 0 5 4 -1.</_>
                <_>
                  12 2 5 2 2.</_></rects>
              <tilted>0</tilted></feature>
            <threshold>5.2207178669050336e-004</threshold>
            <left_val>-0.4724476039409638</left_val>
            <right_val>0.3026289045810700</right_val></_></_>
        <_>
          <_>
            <feature>
              <rects>
                <_>
                  5 11 14 4 -1.</_>
                <_>
                  5 13 14 2 2.</_></rects>
              <tilted>0</tilted></feature>
            <threshold>-3.7102898932062089e-004</threshold>
            <left_val>0.3038895130157471</left_val>
            <right_val>-0.6716107130050659</right_val></_></_>
        <_>
          <_>
            <feature>
              <rects>
                <_>
                  6 16 12 6 -1.</_>
                <_>
                  6 19 12 3 2.</_></rects>
              <tilted>0</tilted></feature>
            <threshold>-0.0214641597121954</threshold>
            <left_val>0.4247331023216248</left_val>
            <right_val>-0.3868562877178192</right_val></_></_>
        <_>
          <_>
            <feature>
              <rects>
                <_>
                  7 5 1 6 -1.</_>
                <_>
                  7 7 1 2 3.</_></rects>
              <tilted>0</tilted></feature>
            <threshold>-1.4103829926170874e-005</threshold>
            <left_val>0.1929215043783188</left_val>
            <right_val>-0.6827281117439270</right_val></_></_>
        <_>
          <_>
            <feature>
              <rects>
                <_>
                  9 6 6 12 -1.</_>
                <_>
                  12 6 3 6 2.</_>
                <_>
                  9 12 3 6 2.</_></rects>
              <tilted>0</tilted></feature>
            <threshold>-2.2944998927414417e-003</threshold>
            <left_val>0.3048210144042969</left_val>
            <right_val>-0.3612323105335236</right_val></_></_>
        <_>
          <_>
            <feature>
              <rects>
                <_>
                  7 1 3 6 -1.</_>
                <_>
                  8 1 1 6 3.</_></rects>
              <tilted>0</tilted></feature>
            <threshold>-3.1512470450252295e-003</threshold>
            <left_val>-0.8116844892501831</left_val>
            <right_val>0.1516049057245255</right_val></_></_>
        <_>
          <_>
            <feature>
              <rects>
                <_>
                  14 1 3 6 -1.</_>
                <_>
                  15 1 1 6 3.</_></rects>
              <tilted>0</tilted></feature>
            <threshold>5.6337881833314896e-003</threshold>
            <left_val>0.0427005589008331</left_val>
            <right_val>-0.7048196196556091</right_val></_></_>
        <_>
          <_>
            <feature>
              <rects>
                <_>
                  7 1 3 6 -1.</_>
                <_>
                  8 1 1 6 3.</_></rects>
              <tilted>0</tilted></feature>
            <threshold>2.7354310732334852e-003</threshold>
            <left_val>0.1763349026441574</left_val>
            <right_val>-0.7097843289375305</right_val></_></_></trees>
      <stage_threshold>-2.0786399841308594</stage_threshold>
      <parent>1</parent>
      <next>-1</next></_>
    <_>
      <trees>
        <_>
          <_>
            <feature>
              <rects>
                <_>
                  7 7 1 3 -1.</_>
                <_>
                  7 8 1 1 3.</_></rects>
              <tilted>0</tilted></feature>
            <threshold>-1.5724370023235679e-003</threshold>
            <left_val>0.5127344131469727</left_val>
            <right_val>-0.6749119162559509</right_val></_></_>
        <_>
          <_>
            <feature>
              <rects>
                <_>
                  6 0 12 9 -1.</_>
                <_>
                  6 3 12 3 3.</_></rects>
              <tilted>0</tilted></feature>
            <threshold>0.0678556188941002</threshold>
            <left_val>-0.4791182875633240</left_val>
            <right_val>0.5416802763938904</right_val></_></_>
        <_>
          <_>
            <feature>
              <rects>
                <_>
                  0 3 24 18 -1.</_>
                <_>
                  8 3 8 18 3.</_></rects>
              <tilted>0</tilted></feature>
            <threshold>0.3045327067375183</threshold>
            <left_val>-0.3296675980091095</left_val>
            <right_val>0.6235817074775696</right_val></_></_>
        <_>
          <_>
            <feature>
              <rects>
                <_>
                  3 7 19 9 -1.</_>
                <_>
                  3 10 19 3 3.</_></rects>
              <tilted>0</tilted></feature>
            <threshold>0.0277814604341984</threshold>
            <left_val>-0.6526222825050354</left_val>
            <right_val>0.2486142963171005</right_val></_></_>
        <_>
          <_>
            <feature>
              <rects>
                <_>
                  8 7 4 2 -1.</_>
                <_>
                  10 7 2 2 2.</_></rects>
              <tilted>0</tilted></feature>
            <threshold>2.3115628864616156e-003</threshold>
            <left_val>-0.5824908018112183</left_val>
            <right_val>0.2723484933376312</right_val></_></_>
        <_>
          <_>
            <feature>
              <rects>
                <_>
                  13 12 5 4 -1.</_>
                <_>
                  13 14 5 2 2.</_></rects>
              <tilted>0</tilted></feature>
            <threshold>-4.5271681301528588e-005</threshold>
            <left_val>0.0526876114308834</left_val>
            <right_val>-0.3910993933677673</right_val></_></_>
        <_>
          <_>
            <feature>
              <rects>
                <_>
                  10 1 3 3 -1.</_>
                <_>
                  11 1 1 3 3.</_></rects>
              <tilted>0</tilted></feature>
            <threshold>-2.0277239382266998e-003</threshold>
            <left_val>-0.7985520958900452</left_val>
            <right_val>0.1333276033401489</right_val></_></_>
        <_>
          <_>
            <feature>
              <rects>
                <_>
                  11 0 3 6 -1.</_>
                <_>
                  12 0 1 6 3.</_></rects>
              <tilted>0</tilted></feature>
            <threshold>-3.7601098883897066e-003</threshold>
            <left_val>-0.7662320733070374</left_val>
            <right_val>0.0961181521415710</right_val></_></_>
        <_>
          <_>
            <feature>
              <rects>
                <_>
                  2 6 6 4 -1.</_>
                <_>
                  2 6 3 2 2.</_>
                <_>
                  5 8 3 2 2.</_></rects>
              <tilted>0</tilted></feature>
            <threshold>-1.6316369874402881e-003</threshold>
            <left_val>0.2758595943450928</left_val>
            <right_val>-0.4157497882843018</right_val></_></_>
        <_>
          <_>
            <feature>
              <rects>
                <_>
                  13 12 5 4 -1.</_>
                <_>
                  13 14 5 2 2.</_></rects>
              <tilted>0</tilted></feature>
            <threshold>-0.0166852995753288</threshold>
            <left_val>-0.5905727148056030</left_val>
            <right_val>0.0526354908943176</right_val></_></_>
        <_>
          <_>
            <feature>
              <rects>
                <_>
                  6 12 5 4 -1.</_>
                <_>
                  6 14 5 2 2.</_></rects>
              <tilted>0</tilted></feature>
            <threshold>-2.3318959574680775e-004</threshold>
            <left_val>0.1829627007246018</left_val>
            <right_val>-0.5845475792884827</right_val></_></_>
        <_>
          <_>
            <feature>
              <rects>
                <_>
                  9 0 6 5 -1.</_>
                <_>
                  11 0 2 5 3.</_></rects>
              <tilted>0</tilted></feature>
            <threshold>0.0136936102062464</threshold>
            <left_val>0.1000111028552055</left_val>
            <right_val>-0.8288658261299133</right_val></_></_>
        <_>
          <_>
            <feature>
              <rects>
                <_>
                  7 17 10 6 -1.</_>
                <_>
                  7 19 10 2 3.</_></rects>
              <tilted>0</tilted></feature>
            <threshold>-0.0175157804042101</threshold>
            <left_val>0.4378451108932495</left_val>
            <right_val>-0.2173096984624863</right_val></_></_>
        <_>
          <_>
            <feature>
              <rects>
                <_>
                  12 2 3 1 -1.</_>
                <_>
                  13 2 1 1 3.</_></rects>
              <tilted>0</tilted></feature>
            <threshold>-1.1975700035691261e-003</threshold>
            <left_val>-0.6217570900917053</left_val>
            <right_val>0.0651210695505142</right_val></_></_>
        <_>
          <_>
            <feature>
              <rects>
                <_>
                  6 7 1 8 -1.</_>
                <_>
                  6 11 1 4 2.</_></rects>
              <tilted>0</tilted></feature>
            <threshold>4.4998049270361662e-004</threshold>
            <left_val>-0.5566552877426148</left_val>
            <right_val>0.1434751003980637</right_val></_></_>
        <_>
          <_>
            <feature>
              <rects>
                <_>
                  13 11 6 2 -1.</_>
                <_>
                  13 12 6 1 2.</_></rects>
              <tilted>0</tilted></feature>
            <threshold>-4.2429458699189126e-004</threshold>
            <left_val>0.1104336008429527</left_val>
            <right_val>-0.1377999037504196</right_val></_></_></trees>
      <stage_threshold>-1.7706160545349121</stage_threshold>
      <parent>2</parent>
      <next>-1</next></_>
    <_>
      <trees>
        <_>
          <_>
            <feature>
              <rects>
                <_>
                  5 0 14 4 -1.</_>
                <_>
                  5 2 14 2 2.</_></rects>
              <tilted>0</tilted></feature>
            <threshold>0.0227894503623247</threshold>
            <left_val>-0.5077072978019714</left_val>
            <right_val>0.5323901772499085</right_val></_></_>
        <_>
          <_>
            <feature>
              <rects>
                <_>
                  8 6 9 4 -1.</_>
                <_>
                  11 6 3 4 3.</_></rects>
              <tilted>0</tilted></feature>
            <threshold>0.0194956902414560</threshold>
            <left_val>-0.3825950920581818</left_val>
            <right_val>0.4422836005687714</right_val></_></_>
        <_>
          <_>
            <feature>
              <rects>
                <_>
                  2 8 6 4 -1.</_>
                <_>
                  2 8 3 2 2.</_>
                <_>
                  5 10 3 2 2.</_></rects>
              <tilted>0</tilted></feature>
            <threshold>4.3586022220551968e-003</threshold>
            <left_val>-0.6108605265617371</left_val>
            <right_val>0.3679071962833405</right_val></_></_>
        <_>
          <_>
            <feature>
              <rects>
                <_>
                  12 7 9 3 -1.</_>
                <_>
                  12 8 9 1 3.</_></rects>
              <tilted>0</tilted></feature>
            <threshold>-4.7483989037573338e-003</threshold>
            <left_val>0.2776682078838348</left_val>
            <right_val>-0.2113730013370514</right_val></_></_>
        <_>
          <_>
            <feature>
              <rects>
                <_>
                  4 4 12 3 -1.</_>
                <_>
                  8 4 4 3 3.</_></rects>
              <tilted>0</tilted></feature>
            <threshold>2.6113321073353291e-003</threshold>
            <left_val>-0.6122791767120361</left_val>
            <right_val>0.2931880056858063</right_val></_></_>
        <_>
          <_>
            <feature>
              <rects>
                <_>
                  13 7 8 3 -1.</_>
                <_>
                  13 8 8 1 3.</_></rects>
              <tilted>0</tilted></feature>
            <threshold>1.2790340406354517e-005</threshold>
            <left_val>-0.2537320852279663</left_val>
            <right_val>0.1032070964574814</right_val></_></_>
        <_>
          <_>
            <feature>
              <rects>
                <_>
                  1 8 12 2 -1.</_>
                <_>
                  1 9 12 1 2.</_></rects>
              <tilted>0</tilted></feature>
            <threshold>7.1284337900578976e-004</threshold>
            <left_val>-0.7126119136810303</left_val>
            <right_val>0.2929961085319519</right_val></_></_>
        <_>
          <_>
            <feature>
              <rects>
                <_>
                  15 7 3 4 -1.</_>
                <_>
                  16 7 1 4 3.</_></rects>
              <tilted>0</tilted></feature>
            <threshold>-3.1341158319264650e-005</threshold>
            <left_val>0.0886957198381424</left_val>
            <right_val>-0.3843992948532105</right_val></_></_>
        <_>
          <_>
            <feature>
              <rects>
                <_>
                  6 7 3 4 -1.</_>
                <_>
                  7 7 1 4 3.</_></rects>
              <tilted>0</tilted></feature>
            <threshold>-1.7370839486829937e-005</threshold>
            <left_val>0.3249014914035797</left_val>
            <right_val>-0.5105111002922058</right_val></_></_>
        <_>
          <_>
            <feature>
              <rects>
                <_>
                  18 5 6 8 -1.</_>
                <_>
                  18 5 3 8 2.</_></rects>
              <tilted>0</tilted></feature>
            <threshold>0.0202950499951839</threshold>
            <left_val>-0.2500754892826080</left_val>
            <right_val>0.4984611868858337</right_val></_></_>
        <_>
          <_>
            <feature>
              <rects>
                <_>
                  3 6 8 6 -1.</_>
                <_>
                  3 8 8 2 3.</_></rects>
              <tilted>0</tilted></feature>
            <threshold>-4.8420219682157040e-003</threshold>
            <left_val>0.1816951036453247</left_val>
            <right_val>-0.7125133275985718</right_val></_></_>
        <_>
          <_>
            <feature>
              <rects>
                <_>
                  8 7 9 2 -1.</_>
                <_>
                  11 7 3 2 3.</_></rects>
              <tilted>0</tilted></feature>
            <threshold>1.2491990346461535e-003</threshold>
            <left_val>-0.3613873124122620</left_val>
            <right_val>0.0816859975457191</right_val></_></_>
        <_>
          <_>
            <feature>
              <rects>
                <_>
                  10 7 4 2 -1.</_>
                <_>
                  12 7 2 2 2.</_></rects>
              <tilted>0</tilted></feature>
            <threshold>-1.4071289915591478e-003</threshold>
            <left_val>0.4414511024951935</left_val>
            <right_val>-0.2886259853839874</right_val></_></_>
        <_>
          <_>
            <feature>
              <rects>
                <_>
                  7 16 10 6 -1.</_>
                <_>
                  7 19 10 3 2.</_></rects>
              <tilted>0</tilted></feature>
            <threshold>-0.0247374996542931</threshold>
            <left_val>0.4299581944942474</left_val>
            <right_val>-0.2439254969358444</right_val></_></_>
        <_>
          <_>
            <feature>
              <rects>
                <_>
                  0 5 6 8 -1.</_>
                <_>
                  3 5 3 8 2.</_></rects>
              <tilted>0</tilted></feature>
            <threshold>0.0212628692388535</threshold>
            <left_val>-0.1920070946216583</left_val>
            <right_val>0.5094407796859741</right_val></_></_>
        <_>
          <_>
            <feature>
              <rects>
                <_>
                  12 12 8 6 -1.</_>
                <_>
                  12 14 8 2 3.</_></rects>
              <tilted>0</tilted></feature>
            <threshold>-3.3286190591752529e-003</threshold>
            <left_val>0.1768655925989151</left_val>
            <right_val>-0.2324580997228622</right_val></_></_>
        <_>
          <_>
            <feature>
              <rects>
                <_>
                  2 10 14 3 -1.</_>
                <_>
                  2 11 14 1 3.</_></rects>
              <tilted>0</tilted></feature>
            <threshold>3.4924471401609480e-004</threshold>
            <left_val>-0.4772261977195740</left_val>
            <right_val>0.2160231024026871</right_val></_></_>
        <_>
          <_>
            <feature>
              <rects>
                <_>
                  7 15 10 1 -1.</_>
                <_>
                  7 15 5 1 2.</_></rects>
              <tilted>0</tilted></feature>
            <threshold>-3.9367898716591299e-004</threshold>
            <left_val>0.2526364922523499</left_val>
            <right_val>-0.3763368129730225</right_val></_></_>
        <_>
          <_>
            <feature>
              <rects>
                <_>
                  6 7 12 12 -1.</_>
                <_>
                  6 11 12 4 3.</_></rects>
              <tilted>0</tilted></feature>
            <threshold>3.0952651286497712e-004</threshold>
            <left_val>-0.6127585172653198</left_val>
            <right_val>0.1474633067846298</right_val></_></_>
        <_>
          <_>
            <feature>
              <rects>
                <_>
                  12 3 4 12 -1.</_>
                <_>
                  12 9 4 6 2.</_></rects>
              <tilted>0</tilted></feature>
            <threshold>-2.6401039212942123e-003</threshold>
            <left_val>0.1492805927991867</left_val>
            <right_val>-0.1746336966753006</right_val></_></_>
        <_>
          <_>
            <feature>
              <rects>
                <_>
                  5 8 8 6 -1.</_>
                <_>
                  5 8 4 3 2.</_>
                <_>
                  9 11 4 3 2.</_></rects>
              <tilted>0</tilted></feature>
            <threshold>-4.6588880650233477e-005</threshold>
            <left_val>0.1563792973756790</left_val>
            <right_val>-0.4700649082660675</right_val></_></_>
        <_>
          <_>
            <feature>
              <rects>
                <_>
                  13 0 3 7 -1.</_>
                <_>
                  14 0 1 7 3.</_></rects>
              <tilted>0</tilted></feature>
            <threshold>3.6543810274451971e-003</threshold>
            <left_val>0.0735477730631828</left_val>
            <right_val>-0.6832311749458313</right_val></_></_>
        <_>
          <_>
            <feature>
              <rects>
                <_>
                  0 9 6 4 -1.</_>
                <_>
                  0 11 6 2 2.</_></rects>
              <tilted>0</tilted></feature>
            <threshold>0.0114169800654054</threshold>
            <left_val>0.1759863048791885</left_val>
            <right_val>-0.4972616136074066</right_val></_></_>
        <_>
          <_>
            <feature>
              <rects>
                <_>
                  13 0 3 7 -1.</_>
                <_>
                  14 0 1 7 3.</_></rects>
              <tilted>0</tilted></feature>
            <threshold>-2.2585489787161350e-003</threshold>
            <left_val>-0.4998764991760254</left_val>
            <right_val>0.1078118011355400</right_val></_></_></trees>
      <stage_threshold>-1.8393579721450806</stage_threshold>
      <parent>3</parent>
      <next>-1</next></_>
    <_>
      <trees>
        <_>
          <_>
            <feature>
              <rects>
                <_>
                  0 5 10 1 -1.</_>
                <_>
                  5 5 5 1 2.</_></rects>
              <tilted>0</tilted></feature>
            <threshold>7.1902167983353138e-003</threshold>
            <left_val>-0.4809922873973846</left_val>
            <right_val>0.5215011835098267</right_val></_></_>
        <_>
          <_>
            <feature>
              <rects>
                <_>
                  9 7 6 2 -1.</_>
                <_>
                  11 7 2 2 3.</_></rects>
              <tilted>0</tilted></feature>
            <threshold>3.7699339445680380e-003</threshold>
            <left_val>-0.5546681284904480</left_val>
            <right_val>0.3862256109714508</right_val></_></_>
        <_>
          <_>
            <feature>
              <rects>
                <_>
                  7 7 1 3 -1.</_>
                <_>
                  7 8 1 1 3.</_></rects>
              <tilted>0</tilted></feature>
            <threshold>-1.2586279772222042e-003</threshold>
            <left_val>0.2773204147815704</left_val>
            <right_val>-0.6513921022415161</right_val></_></_>
        <_>
          <_>
            <feature>
              <rects>
                <_>
                  13 14 3 3 -1.</_>
                <_>
                  13 15 3 1 3.</_></rects>
              <tilted>0</tilted></feature>
            <threshold>-1.0809090454131365e-003</threshold>
            <left_val>0.3070656061172485</left_val>
            <right_val>-0.2364875972270966</right_val></_></_>
        <_>
          <_>
            <feature>
              <rects>
                <_>
                  9 0 6 4 -1.</_>
                <_>
                  9 2 6 2 2.</_></rects>
              <tilted>0</tilted></feature>
            <threshold>9.9516417831182480e-003</threshold>
            <left_val>-0.3753175139427185</left_val>
            <right_val>0.3825596868991852</right_val></_></_>
        <_>
          <_>
            <feature>
              <rects>
                <_>
                  16 9 2 6 -1.</_>
                <_>
                  16 11 2 2 3.</_></rects>
              <tilted>0</tilted></feature>
            <threshold>7.2966667357832193e-004</threshold>
            <left_val>-0.3319522142410278</left_val>
            <right_val>0.0992186665534973</right_val></_></_>
        <_>
          <_>
            <feature>
              <rects>
                <_>
                  2 9 6 2 -1.</_>
                <_>
                  2 10 6 1 2.</_></rects>
              <tilted>0</tilted></feature>
            <threshold>2.8707180172204971e-004</threshold>
            <left_val>-0.7672060132026672</left_val>
            <right_val>0.1696483045816422</right_val></_></_>
        <_>
          <_>
            <feature>
              <rects>
                <_>
                  13 12 5 4 -1.</_>
                <_>
                  13 14 5 2 2.</_></rects>
              <tilted>0</tilted></feature>
            <threshold>-1.1591710062930360e-004</threshold>
            <left_val>0.0522010698914528</left_val>
            <right_val>-0.3594687879085541</right_val></_></_>
        <_>
          <_>
            <feature>
              <rects>
                <_>
                  7 4 4 6 -1.</_>
                <_>
                  9 4 2 6 2.</_></rects>
              <tilted>0</tilted></feature>
            <threshold>3.1003970652818680e-003</threshold>
            <left_val>-0.5400454998016357</left_val>
            <right_val>0.2184213995933533</right_val></_></_>
        <_>
          <_>
            <feature>
              <rects>
                <_>
                  14 8 10 4 -1.</_>
                <_>
                  19 8 5 2 2.</_>
                <_>
                  14 10 5 2 2.</_></rects>
              <tilted>0</tilted></feature>
            <threshold>3.6098300479352474e-003</threshold>
            <left_val>-0.2353871017694473</left_val>
            <right_val>0.1572476029396057</right_val></_></_>
        <_>
          <_>
            <feature>
              <rects>
                <_>
                  6 11 5 6 -1.</_>
                <_>
                  6 14 5 3 2.</_></rects>
              <tilted>0</tilted></feature>
            <threshold>-1.4202770544216037e-003</threshold>
            <left_val>0.2016316950321198</left_val>
            <right_val>-0.6058428883552551</right_val></_></_>
        <_>
          <_>
            <feature>
              <rects>
                <_>
                  4 12 16 9 -1.</_>
                <_>
                  4 15 16 3 3.</_></rects>
              <tilted>0</tilted></feature>
            <threshold>1.9926640670746565e-003</threshold>
            <left_val>-0.3312383890151978</left_val>
            <right_val>0.3517321050167084</right_val></_></_>
        <_>
          <_>
            <feature>
              <rects>
                <_>
                  0 9 10 2 -1.</_>
                <_>
                  0 9 5 1 2.</_>
                <_>
                  5 10 5 1 2.</_></rects>
              <tilted>0</tilted></feature>
            <threshold>1.9661530386656523e-003</threshold>
            <left_val>-0.4578227102756500</left_val>
            <right_val>0.2356916069984436</right_val></_></_>
        <_>
          <_>
            <feature>
              <rects>
                <_>
                  10 8 7 4 -1.</_>
                <_>
                  10 10 7 2 2.</_></rects>
              <tilted>0</tilted></feature>
            <threshold>8.0060557229444385e-004</threshold>
            <left_val>-0.3486452996730804</left_val>
            <right_val>0.0776057615876198</right_val></_></_>
        <_>
          <_>
            <feature>
              <rects>
                <_>
                  0 2 24 6 -1.</_>
                <_>
                  12 2 12 6 2.</_></rects>
              <tilted>0</tilted></feature>
            <threshold>-0.0293920300900936</threshold>
            <left_val>0.3635523915290833</left_val>
            <right_val>-0.2688036859035492</right_val></_></_>
        <_>
          <_>
            <feature>
              <rects>
                <_>
                  12 5 6 6 -1.</_>
                <_>
                  12 5 3 6 2.</_></rects>
              <tilted>0</tilted></feature>
            <threshold>0.0480744689702988</threshold>
            <left_val>0.0228488706052303</left_val>
            <right_val>-0.6517937779426575</right_val></_></_>
        <_>
          <_>
            <feature>
              <rects>
                <_>
                  10 0 3 6 -1.</_>
                <_>
                  11 0 1 6 3.</_></rects>
              <tilted>0</tilted></feature>
            <threshold>3.4141889773309231e-003</threshold>
            <left_val>0.1434981971979141</left_val>
            <right_val>-0.8047894835472107</right_val></_></_>
        <_>
          <_>
            <feature>
              <rects>
                <_>
                  18 2 6 3 -1.</_>
                <_>
                  18 3 6 1 3.</_></rects>
              <tilted>0</tilted></feature>
            <threshold>4.7269188798964024e-003</threshold>
            <left_val>0.1040778979659081</left_val>
            <right_val>-0.5828375220298767</right_val></_></_>
        <_>
          <_>
            <feature>
              <rects>
                <_>
                  0 17 24 2 -1.</_>
                <_>
                  8 17 8 2 3.</_></rects>
              <tilted>0</tilted></feature>
            <threshold>0.0475285984575748</threshold>
            <left_val>-0.1605602949857712</left_val>
            <right_val>0.4973416924476624</right_val></_></_>
        <_>
          <_>
            <feature>
              <rects>
                <_>
                  0 19 24 3 -1.</_>
                <_>
                  8 19 8 3 3.</_></rects>
              <tilted>0</tilted></feature>
            <threshold>-0.0542629994452000</threshold>
            <left_val>0.5720685720443726</left_val>
            <right_val>-0.1670823991298676</right_val></_></_>
        <_>
          <_>
            <feature>
              <rects>
                <_>
                  10 4 2 1 -1.</_>
                <_>
                  11 4 1 1 2.</_></rects>
              <tilted>0</tilted></feature>
            <threshold>-4.5642821351066232e-004</threshold>
            <left_val>-0.6123961806297302</left_val>
            <right_val>0.1456567943096161</right_val></_></_>
        <_>
          <_>
            <feature>
              <rects>
                <_>
                  22 7 2 3 -1.</_>
                <_>
                  22 8 2 1 3.</_></rects>
              <tilted>0</tilted></feature>
            <threshold>-1.3905649539083242e-003</threshold>
            <left_val>-0.3019792139530182</left_val>
            <right_val>0.0543351396918297</right_val></_></_>
        <_>
          <_>
            <feature>
              <rects>
                <_>
                  1 4 4 3 -1.</_>
                <_>
                  1 5 4 1 3.</_></rects>
              <tilted>0</tilted></feature>
            <threshold>-3.3849820028990507e-003</threshold>
            <left_val>-0.6638206839561462</left_val>
            <right_val>0.1045359000563622</right_val></_></_>
        <_>
          <_>
            <feature>
              <rects>
                <_>
                  14 11 4 2 -1.</_>
                <_>
                  14 11 2 2 2.</_></rects>
              <tilted>0</tilted></feature>
            <threshold>-1.1891130125150084e-003</threshold>
            <left_val>0.1951685994863510</left_val>
            <right_val>-0.1019031032919884</right_val></_></_>
        <_>
          <_>
            <feature>
              <rects>
                <_>
                  6 11 4 2 -1.</_>
                <_>
                  8 11 2 2 2.</_></rects>
              <tilted>0</tilted></feature>
            <threshold>-4.8703150241635740e-004</threshold>
            <left_val>0.2915751039981842</left_val>
            <right_val>-0.2519814968109131</right_val></_></_>
        <_>
          <_>
            <feature>
              <rects>
                <_>
                  3 14 20 9 -1.</_>
                <_>
                  3 14 10 9 2.</_></rects>
              <tilted>0</tilted></feature>
            <threshold>-0.0763227865099907</threshold>
            <left_val>0.3416348993778229</left_val>
            <right_val>-0.1450098007917404</right_val></_></_>
        <_>
          <_>
            <feature>
              <rects>
                <_>
                  2 18 18 5 -1.</_>
                <_>
                  11 18 9 5 2.</_></rects>
              <tilted>0</tilted></feature>
            <threshold>-0.0590454004704952</threshold>
            <left_val>0.5172566771507263</left_val>
            <right_val>-0.1392541974782944</right_val></_></_>
        <_>
          <_>
            <feature>
              <rects>
                <_>
                  22 7 2 3 -1.</_>
                <_>
                  22 8 2 1 3.</_></rects>
              <tilted>0</tilted></feature>
            <threshold>2.1701739169657230e-003</threshold>
            <left_val>0.0758610516786575</left_val>
            <right_val>-0.4228821098804474</right_val></_></_></trees>
      <stage_threshold>-1.7594740390777588</stage_threshold>
      <parent>4</parent>
      <next>-1</next></_>
    <_>
      <trees>
        <_>
          <_>
            <feature>
              <rects>
                <_>
                  0 3 24 4 -1.</_>
                <_>
                  8 3 8 4 3.</_></rects>
              <tilted>0</tilted></feature>
            <threshold>0.1223794966936112</threshold>
            <left_val>-0.3989996016025543</left_val>
            <right_val>0.5959982275962830</right_val></_></_>
        <_>
          <_>
            <feature>
              <rects>
                <_>
                  16 7 1 3 -1.</_>
                <_>
                  16 8 1 1 3.</_></rects>
              <tilted>0</tilted></feature>
            <threshold>-1.5603200299665332e-003</threshold>
            <left_val>0.3683963119983673</left_val>
            <right_val>-0.1527816951274872</right_val></_></_>
        <_>
          <_>
            <feature>
              <rects>
                <_>
                  6 8 3 2 -1.</_>
                <_>
                  6 9 3 1 2.</_></rects>
              <tilted>0</tilted></feature>
            <threshold>2.6085020508617163e-003</threshold>
            <left_val>-0.4757837057113648</left_val>
            <right_val>0.2782495021820068</right_val></_></_>
        <_>
          <_>
            <feature>
              <rects>
                <_>
                  9 7 6 3 -1.</_>
                <_>
                  11 7 2 3 3.</_></rects>
              <tilted>0</tilted></feature>
            <threshold>8.1670340150594711e-003</threshold>
            <left_val>-0.3452934026718140</left_val>
            <right_val>0.3246499896049500</right_val></_></_>
        <_>
          <_>
            <feature>
              <rects>
                <_>
                  4 1 7 9 -1.</_>
                <_>
                  4 4 7 3 3.</_></rects>
              <tilted>0</tilted></feature>
            <threshold>0.0129804098978639</threshold>
            <left_val>-0.4562255144119263</left_val>
            <right_val>0.1931938976049423</right_val></_></_>
        <_>
          <_>
            <feature>
              <rects>
                <_>
                  16 12 3 2 -1.</_>
                <_>
                  16 13 3 1 2.</_></rects>
              <tilted>0</tilted></feature>
            <threshold>-2.9354949219850823e-005</threshold>
            <left_val>0.1511705964803696</left_val>
            <right_val>-0.2580325901508331</right_val></_></_>
        <_>
          <_>
            <feature>
              <rects>
                <_>
                  1 18 21 1 -1.</_>
                <_>
                  8 18 7 1 3.</_></rects>
              <tilted>0</tilted></feature>
            <threshold>0.0206147897988558</threshold>
            <left_val>-0.1816958039999008</left_val>
            <right_val>0.4870096147060394</right_val></_></_>
        <_>
          <_>
            <feature>
              <rects>
                <_>
                  16 12 2 2 -1.</_>
                <_>
                  16 13 2 1 2.</_></rects>
              <tilted>0</tilted></feature>
            <threshold>-4.6508330851793289e-003</threshold>
            <left_val>-0.7949119806289673</left_val>
            <right_val>3.7489859387278557e-003</right_val></_></_>
        <_>
          <_>
            <feature>
              <rects>
                <_>
                  6 12 2 2 -1.</_>
                <_>
                  6 13 2 1 2.</_></rects>
              <tilted>0</tilted></feature>
            <threshold>-1.3092149856674951e-005</threshold>
            <left_val>0.1893254965543747</left_val>
            <right_val>-0.4290004074573517</right_val></_></_>
        <_>
          <_>
            <feature>
              <rects>
                <_>
                  19 5 4 6 -1.</_>
                <_>
                  19 7 4 2 3.</_></rects>
              <tilted>0</tilted></feature>
            <threshold>-0.0158148892223835</threshold>
            <left_val>-0.3953846096992493</left_val>
            <right_val>0.0635230615735054</right_val></_></_>
        <_>
          <_>
            <feature>
              <rects>
                <_>
                  6 15 4 3 -1.</_>
                <_>
                  6 16 4 1 3.</_></rects>
              <tilted>0</tilted></feature>
            <threshold>2.1881909924559295e-004</threshold>
            <left_val>-0.2994143068790436</left_val>
            <right_val>0.2421191036701202</right_val></_></_>
        <_>
          <_>
            <feature>
              <rects>
                <_>
                  14 4 3 4 -1.</_>
                <_>
                  15 4 1 4 3.</_></rects>
              <tilted>0</tilted></feature>
            <threshold>1.4017929788678885e-003</threshold>
            <left_val>0.1023278012871742</left_val>
            <right_val>-0.4460915923118591</right_val></_></_>
        <_>
          <_>
            <feature>
              <rects>
                <_>
                  3 9 11 2 -1.</_>
                <_>
                  3 10 11 1 2.</_></rects>
              <tilted>0</tilted></feature>
            <threshold>2.7054469101130962e-003</threshold>
            <left_val>-0.5345891118049622</left_val>
            <right_val>0.1214402019977570</right_val></_></_>
        <_>
          <_>
            <feature>
              <rects>
                <_>
                  19 5 5 6 -1.</_>
                <_>
                  19 7 5 2 3.</_></rects>
              <tilted>0</tilted></feature>
            <threshold>0.0225070901215076</threshold>
            <left_val>0.0163604505360127</left_val>
            <right_val>-0.6330317854881287</right_val></_></_>
        <_>
          <_>
            <feature>
              <rects>
                <_>
                  0 5 5 6 -1.</_>
                <_>
                  0 7 5 2 3.</_></rects>
              <tilted>0</tilted></feature>
            <threshold>-0.0173626299947500</threshold>
            <left_val>-0.5676776766777039</left_val>
            <right_val>0.1347970068454742</right_val></_></_>
        <_>
          <_>
            <feature>
              <rects>
                <_>
                  13 0 3 7 -1.</_>
                <_>
                  14 0 1 7 3.</_></rects>
              <tilted>0</tilted></feature>
            <threshold>3.5795250441879034e-003</threshold>
            <left_val>0.0521190688014030</left_val>
            <right_val>-0.5711824297904968</right_val></_></_>
        <_>
          <_>
            <feature>
              <rects>
                <_>
                  7 5 3 1 -1.</_>
                <_>
                  8 5 1 1 3.</_></rects>
              <tilted>0</tilted></feature>
            <threshold>-7.0243672234937549e-004</threshold>
            <left_val>-0.6046385169029236</left_val>
            <right_val>0.1011655032634735</right_val></_></_>
        <_>
          <_>
            <feature>
              <rects>
                <_>
                  6 13 18 10 -1.</_>
                <_>
                  12 13 6 10 3.</_></rects>
              <tilted>0</tilted></feature>
            <threshold>0.0510900989174843</threshold>
            <left_val>-0.1196492984890938</left_val>
            <right_val>0.1550610959529877</right_val></_></_>
        <_>
          <_>
            <feature>
              <rects>
                <_>
                  1 18 21 5 -1.</_>
                <_>
                  8 18 7 5 3.</_></rects>
              <tilted>0</tilted></feature>
            <threshold>-0.0555069185793400</threshold>
            <left_val>0.4209127128124237</left_val>
            <right_val>-0.1541458070278168</right_val></_></_>
        <_>
          <_>
            <feature>
              <rects>
                <_>
                  14 4 3 4 -1.</_>
                <_>
                  15 4 1 4 3.</_></rects>
              <tilted>0</tilted></feature>
            <threshold>-3.3995369449257851e-003</threshold>
            <left_val>-0.5300242900848389</left_val>
            <right_val>0.0796945095062256</right_val></_></_>
        <_>
          <_>
            <feature>
              <rects>
                <_>
                  5 7 8 8 -1.</_>
                <_>
                  5 7 4 4 2.</_>
                <_>
                  9 11 4 4 2.</_></rects>
              <tilted>0</tilted></feature>
            <threshold>-4.2074858210980892e-003</threshold>
            <left_val>0.1368072926998138</left_val>
            <right_val>-0.4392180144786835</right_val></_></_>
        <_>
          <_>
            <feature>
              <rects>
                <_>
                  5 5 14 12 -1.</_>
                <_>
                  12 5 7 6 2.</_>
                <_>
                  5 11 7 6 2.</_></rects>
              <tilted>0</tilted></feature>
            <threshold>0.0491221882402897</threshold>
            <left_val>0.1190882027149200</left_val>
            <right_val>-0.5538042187690735</right_val></_></_>
        <_>
          <_>
            <feature>
              <rects>
                <_>
                  1 8 6 4 -1.</_>
                <_>
                  3 8 2 4 3.</_></rects>
              <tilted>0</tilted></feature>
            <threshold>6.2593151815235615e-003</threshold>
            <left_val>-0.1985926926136017</left_val>
            <right_val>0.3280360996723175</right_val></_></_>
        <_>
          <_>
            <feature>
              <rects>
                <_>
                  14 5 3 2 -1.</_>
                <_>
                  15 5 1 2 3.</_></rects>
              <tilted>0</tilted></feature>
            <threshold>2.2453849669545889e-003</threshold>
            <left_val>0.0356257781386375</left_val>
            <right_val>-0.3946931064128876</right_val></_></_>
        <_>
          <_>
            <feature>
              <rects>
                <_>
                  6 1 3 18 -1.</_>
                <_>
                  7 1 1 18 3.</_></rects>
              <tilted>0</tilted></feature>
            <threshold>-0.0103187998756766</threshold>
            <left_val>-0.6921455264091492</left_val>
            <right_val>0.0904485210776329</right_val></_></_>
        <_>
          <_>
            <feature>
              <rects>
                <_>
                  15 8 3 3 -1.</_>
                <_>
                  16 8 1 3 3.</_></rects>
              <tilted>0</tilted></feature>
            <threshold>-4.5571802183985710e-003</threshold>
            <left_val>-0.4125657975673676</left_val>
            <right_val>6.7460001446306705e-003</right_val></_></_>
        <_>
          <_>
            <feature>
              <rects>
                <_>
                  6 8 3 2 -1.</_>
                <_>
                  7 8 1 2 3.</_></rects>
              <tilted>0</tilted></feature>
            <threshold>-9.7241607727482915e-004</threshold>
            <left_val>0.2509525120258331</left_val>
            <right_val>-0.2526082098484039</right_val></_></_>
        <_>
          <_>
            <feature>
              <rects>
                <_>
                  20 9 3 3 -1.</_>
                <_>
                  20 10 3 1 3.</_></rects>
              <tilted>0</tilted></feature>
            <threshold>-3.3800180535763502e-003</threshold>
            <left_val>-0.6211113929748535</left_val>
            <right_val>0.0522988289594650</right_val></_></_></trees>
      <stage_threshold>-1.5814750194549561</stage_threshold>
      <parent>5</parent>
      <next>-1</next></_>
    <_>
      <trees>
        <_>
          <_>
            <feature>
              <rects>
                <_>
                  7 0 10 9 -1.</_>
                <_>
                  7 3 10 3 3.</_></rects>
              <tilted>0</tilted></feature>
            <threshold>0.0442488603293896</threshold>
            <left_val>-0.5532094240188599</left_val>
            <right_val>0.3583421111106873</right_val></_></_>
        <_>
          <_>
            <feature>
              <rects>
                <_>
                  13 14 3 3 -1.</_>
                <_>
                  13 15 3 1 3.</_></rects>
              <tilted>0</tilted></feature>
            <threshold>-2.3578079417347908e-003</threshold>
            <left_val>0.2877373099327087</left_val>
            <right_val>-0.1851996034383774</right_val></_></_>
        <_>
          <_>
            <feature>
              <rects>
                <_>
                  0 1 24 19 -1.</_>
                <_>
                  8 1 8 19 3.</_></rects>
              <tilted>0</tilted></feature>
            <threshold>0.3544563055038452</threshold>
            <left_val>-0.3180441856384277</left_val>
            <right_val>0.4465860128402710</right_val></_></_>
        <_>
          <_>
            <feature>
              <rects>
                <_>
                  13 6 2 3 -1.</_>
                <_>
                  13 6 1 3 2.</_></rects>
              <tilted>0</tilted></feature>
            <threshold>3.2677300623618066e-004</threshold>
            <left_val>-0.3432301878929138</left_val>
            <right_val>0.1898286938667297</right_val></_></_>
        <_>
          <_>
            <feature>
              <rects>
                <_>
                  7 8 1 4 -1.</_>
                <_>
                  7 10 1 2 2.</_></rects>
              <tilted>0</tilted></feature>
            <threshold>3.4124581143260002e-003</threshold>
            <left_val>-0.5048192143440247</left_val>
            <right_val>0.2676362991333008</right_val></_></_>
        <_>
          <_>
            <feature>
              <rects>
                <_>
                  13 6 2 3 -1.</_>
                <_>
                  13 6 1 3 2.</_></rects>
              <tilted>0</tilted></feature>
            <threshold>5.2822548896074295e-003</threshold>
            <left_val>-0.0362164899706841</left_val>
            <right_val>-0.7464988231658936</right_val></_></_>
        <_>
          <_>
            <feature>
              <rects>
                <_>
                  9 6 2 3 -1.</_>
                <_>
                  10 6 1 3 2.</_></rects>
              <tilted>0</tilted></feature>
            <threshold>7.7501678606495261e-004</threshold>
            <left_val>-0.4515320062637329</left_val>
            <right_val>0.2166693061590195</right_val></_></_>
        <_>
          <_>
            <feature>
              <rects>
                <_>
                  13 4 3 3 -1.</_>
                <_>
                  14 4 1 3 3.</_></rects>
              <tilted>0</tilted></feature>
            <threshold>-2.6627629995346069e-003</threshold>
            <left_val>-0.6042981147766113</left_val>
            <right_val>0.0668449997901917</right_val></_></_>
        <_>
          <_>
            <feature>
              <rects>
                <_>
                  4 15 8 4 -1.</_>
                <_>
                  4 15 4 2 2.</_>
                <_>
                  8 17 4 2 2.</_></rects>
              <tilted>0</tilted></feature>
            <threshold>4.7815139405429363e-003</threshold>
            <left_val>-0.2366109043359757</left_val>
            <right_val>0.3721581101417542</right_val></_></_>
        <_>
          <_>
            <feature>
              <rects>
                <_>
                  13 4 3 3 -1.</_>
                <_>
                  14 4 1 3 3.</_></rects>
              <tilted>0</tilted></feature>
            <threshold>1.4868349535390735e-003</threshold>
            <left_val>0.0919928997755051</left_val>
            <right_val>-0.4237636029720306</right_val></_></_>
        <_>
          <_>
            <feature>
              <rects>
                <_>
                  8 4 3 3 -1.</_>
                <_>
                  9 4 1 3 3.</_></rects>
              <tilted>0</tilted></feature>
            <threshold>-1.1743409559130669e-003</threshold>
            <left_val>-0.5986977219581604</left_val>
            <right_val>0.1092706993222237</right_val></_></_>
        <_>
          <_>
            <feature>
              <rects>
                <_>
                  18 9 4 3 -1.</_>
                <_>
                  18 10 4 1 3.</_></rects>
              <tilted>0</tilted></feature>
            <threshold>-1.9771049264818430e-003</threshold>
            <left_val>-0.3815070092678070</left_val>
            <right_val>0.0493088215589523</right_val></_></_>
        <_>
          <_>
            <feature>
              <rects>
                <_>
                  2 9 4 3 -1.</_>
                <_>
                  2 10 4 1 3.</_></rects>
              <tilted>0</tilted></feature>
            <threshold>1.3119600225763861e-005</threshold>
            <left_val>-0.4123781025409699</left_val>
            <right_val>0.1819570064544678</right_val></_></_>
        <_>
          <_>
            <feature>
              <rects>
                <_>
                  14 12 4 4 -1.</_>
                <_>
                  14 14 4 2 2.</_></rects>
              <tilted>0</tilted></feature>
            <threshold>-8.7412731954827905e-004</threshold>
            <left_val>0.1123785004019737</left_val>
            <right_val>-0.2284290045499802</right_val></_></_>
        <_>
          <_>
            <feature>
              <rects>
                <_>
                  0 7 5 3 -1.</_>
                <_>
                  0 8 5 1 3.</_></rects>
              <tilted>0</tilted></feature>
            <threshold>-6.3626891933381557e-003</threshold>
            <left_val>-0.6226739287376404</left_val>
            <right_val>0.0924425572156906</right_val></_></_>
        <_>
          <_>
            <feature>
              <rects>
                <_>
                  16 7 1 2 -1.</_>
                <_>
                  16 8 1 1 2.</_></rects>
              <tilted>0</tilted></feature>
            <threshold>7.2796829044818878e-004</threshold>
            <left_val>-0.0952999219298363</left_val>
            <right_val>0.2618399858474731</right_val></_></_>
        <_>
          <_>
            <feature>
              <rects>
                <_>
                  7 7 1 2 -1.</_>
                <_>
                  7 8 1 1 2.</_></rects>
              <tilted>0</tilted></feature>
            <threshold>-1.5376860392279923e-004</threshold>
            <left_val>0.1634770035743713</left_val>
            <right_val>-0.4031965136528015</right_val></_></_>
        <_>
          <_>
            <feature>
              <rects>
                <_>
                  16 4 2 2 -1.</_>
                <_>
                  16 5 2 1 2.</_></rects>
              <tilted>0</tilted></feature>
            <threshold>1.5406620514113456e-004</threshold>
            <left_val>-0.0962592884898186</left_val>
            <right_val>0.1240454018115997</right_val></_></_>
        <_>
          <_>
            <feature>
              <rects>
                <_>
                  6 4 2 2 -1.</_>
                <_>
                  6 5 2 1 2.</_></rects>
              <tilted>0</tilted></feature>
            <threshold>-6.8866478977724910e-004</threshold>
            <left_val>-0.4517219066619873</left_val>
            <right_val>0.1399805992841721</right_val></_></_>
        <_>
          <_>
            <feature>
              <rects>
                <_>
                  7 4 10 12 -1.</_>
                <_>
                  7 10 10 6 2.</_></rects>
              <tilted>0</tilted></feature>
            <threshold>-0.0579187311232090</threshold>
            <left_val>-0.7412062287330627</left_val>
            <right_val>0.0770902410149574</right_val></_></_>
        <_>
          <_>
            <feature>
              <rects>
                <_>
                  5 12 6 4 -1.</_>
                <_>
                  5 14 6 2 2.</_></rects>
              <tilted>0</tilted></feature>
            <threshold>-4.4701690785586834e-004</threshold>
            <left_val>0.1096502989530563</left_val>
            <right_val>-0.5111213922500610</right_val></_></_>
        <_>
          <_>
            <feature>
              <rects>
                <_>
                  16 0 3 11 -1.</_>
                <_>
                  17 0 1 11 3.</_></rects>
              <tilted>0</tilted></feature>
            <threshold>5.9333820827305317e-003</threshold>
            <left_val>0.0452759899199009</left_val>
            <right_val>-0.5482401847839356</right_val></_></_>
        <_>
          <_>
            <feature>
              <rects>
                <_>
                  5 0 3 11 -1.</_>
                <_>
                  6 0 1 11 3.</_></rects>
              <tilted>0</tilted></feature>
            <threshold>-6.6436529159545898e-003</threshold>
            <left_val>-0.6981778740882874</left_val>
            <right_val>0.0824385881423950</right_val></_></_>
        <_>
          <_>
            <feature>
              <rects>
                <_>
                  12 6 5 8 -1.</_>
                <_>
                  12 10 5 4 2.</_></rects>
              <tilted>0</tilted></feature>
            <threshold>0.0440113209187984</threshold>
            <left_val>0.0259051192551851</left_val>
            <right_val>-0.2606270015239716</right_val></_></_>
        <_>
          <_>
            <feature>
              <rects>
                <_>
                  11 4 2 7 -1.</_>
                <_>
                  12 4 1 7 2.</_></rects>
              <tilted>0</tilted></feature>
            <threshold>-1.7382589867338538e-003</threshold>
            <left_val>0.3339231908321381</left_val>
            <right_val>-0.1946412026882172</right_val></_></_>
        <_>
          <_>
            <feature>
              <rects>
                <_>
                  11 7 6 6 -1.</_>
                <_>
                  13 7 2 6 3.</_></rects>
              <tilted>0</tilted></feature>
            <threshold>-3.0268090777099133e-003</threshold>
            <left_val>0.1815399974584580</left_val>
            <right_val>-0.1359037011861801</right_val></_></_>
        <_>
          <_>
            <feature>
              <rects>
                <_>
                  7 7 6 6 -1.</_>
                <_>
                  9 7 2 6 3.</_></rects>
              <tilted>0</tilted></feature>
            <threshold>-3.6138130817562342e-003</threshold>
            <left_val>0.3390978872776032</left_val>
            <right_val>-0.2189515978097916</right_val></_></_>
        <_>
          <_>
            <feature>
              <rects>
                <_>
                  13 0 3 3 -1.</_>
                <_>
                  14 0 1 3 3.</_></rects>
              <tilted>0</tilted></feature>
            <threshold>-1.9578910432755947e-003</threshold>
            <left_val>-0.4955308139324188</left_val>
            <right_val>0.0679205730557442</right_val></_></_>
        <_>
          <_>
            <feature>
              <rects>
                <_>
                  6 5 6 7 -1.</_>
                <_>
                  9 5 3 7 2.</_></rects>
              <tilted>0</tilted></feature>
            <threshold>2.1144528873264790e-003</threshold>
            <left_val>-0.5165749788284302</left_val>
            <right_val>0.1176592037081718</right_val></_></_>
        <_>
          <_>
            <feature>
              <rects>
                <_>
                  18 10 3 3 -1.</_>
                <_>
                  18 11 3 1 3.</_></rects>
              <tilted>0</tilted></feature>
            <threshold>-2.1556690335273743e-003</threshold>
            <left_val>-0.4786691069602966</left_val>
            <right_val>0.0639130473136902</right_val></_></_>
        <_>
          <_>
            <feature>
              <rects>
                <_>
                  3 18 18 6 -1.</_>
                <_>
                  3 20 18 2 3.</_></rects>
              <tilted>0</tilted></feature>
            <threshold>-0.0225073508918285</threshold>
            <left_val>0.3296513855457306</left_val>
            <right_val>-0.1882651001214981</right_val></_></_>
        <_>
          <_>
            <feature>
              <rects>
                <_>
                  15 11 5 2 -1.</_>
                <_>
                  15 12 5 1 2.</_></rects>
              <tilted>0</tilted></feature>
            <threshold>-3.4436921123415232e-004</threshold>
            <left_val>0.0914547815918922</left_val>
            <right_val>-0.0931427925825119</right_val></_></_>
        <_>
          <_>
            <feature>
              <rects>
                <_>
                  8 0 3 4 -1.</_>
                <_>
                  9 0 1 4 3.</_></rects>
              <tilted>0</tilted></feature>
            <threshold>-2.5165979750454426e-003</threshold>
            <left_val>-0.6870130896568298</left_val>
            <right_val>0.0829051211476326</right_val></_></_></trees>
      <stage_threshold>-1.5900410413742065</stage_threshold>
      <parent>6</parent>
      <next>-1</next></_>
    <_>
      <trees>
        <_>
          <_>
            <feature>
              <rects>
                <_>
                  0 2 24 5 -1.</_>
                <_>
                  8 2 8 5 3.</_></rects>
              <tilted>0</tilted></feature>
            <threshold>0.1807236969470978</threshold>
            <left_val>-0.2955285906791687</left_val>
            <right_val>0.5794680118560791</right_val></_></_>
        <_>
          <_>
            <feature>
              <rects>
                <_>
                  16 7 1 3 -1.</_>
                <_>
                  16 8 1 1 3.</_></rects>
              <tilted>0</tilted></feature>
            <threshold>-1.5366449952125549e-003</threshold>
            <left_val>0.3775745928287506</left_val>
            <right_val>-0.1660611033439636</right_val></_></_>
        <_>
          <_>
            <feature>
              <rects>
                <_>
                  7 7 1 3 -1.</_>
                <_>
                  7 8 1 1 3.</_></rects>
              <tilted>0</tilted></feature>
            <threshold>-2.1942760795354843e-003</threshold>
            <left_val>0.3357776105403900</left_val>
            <right_val>-0.4346576035022736</right_val></_></_>
        <_>
          <_>
            <feature>
              <rects>
                <_>
                  13 14 3 3 -1.</_>
                <_>
                  13 15 3 1 3.</_></rects>
              <tilted>0</tilted></feature>
            <threshold>-1.8468180205672979e-003</threshold>
            <left_val>0.0954446867108345</left_val>
            <right_val>-0.1389054954051971</right_val></_></_>
        <_>
          <_>
            <feature>
              <rects>
                <_>
                  7 6 9 4 -1.</_>
                <_>
                  10 6 3 4 3.</_></rects>
              <tilted>0</tilted></feature>
            <threshold>0.0125584695488214</threshold>
            <left_val>-0.4912745058536530</left_val>
            <right_val>0.1984328031539917</right_val></_></_>
        <_>
          <_>
            <feature>
              <rects>
                <_>
                  18 12 1 2 -1.</_>
                <_>
                  18 13 1 1 2.</_></rects>
              <tilted>0</tilted></feature>
            <threshold>-2.8496140657807700e-005</threshold>
            <left_val>0.1523808985948563</left_val>
            <right_val>-0.2085556983947754</right_val></_></_>
        <_>
          <_>
            <feature>
              <rects>
                <_>
                  5 12 1 2 -1.</_>
                <_>
                  5 13 1 1 2.</_></rects>
              <tilted>0</tilted></feature>
            <threshold>-1.2790340406354517e-005</threshold>
            <left_val>0.2109313011169434</left_val>
            <right_val>-0.3962168991565704</right_val></_></_>
        <_>
          <_>
            <feature>
              <rects>
                <_>
                  13 15 8 2 -1.</_>
                <_>
                  17 15 4 1 2.</_>
                <_>
                  13 16 4 1 2.</_></rects>
              <tilted>0</tilted></feature>
            <threshold>1.3596649514511228e-003</threshold>
            <left_val>-0.1320381015539169</left_val>
            <right_val>0.1472875028848648</right_val></_></_>
        <_>
          <_>
            <feature>
              <rects>
                <_>
                  1 9 3 3 -1.</_>
                <_>
                  1 10 3 1 3.</_></rects>
              <tilted>0</tilted></feature>
            <threshold>3.0230940319597721e-003</threshold>
            <left_val>0.1198161989450455</left_val>
            <right_val>-0.6533985137939453</right_val></_></_>
        <_>
          <_>
            <feature>
              <rects>
                <_>
                  4 0 16 6 -1.</_>
                <_>
                  4 3 16 3 2.</_></rects>
              <tilted>0</tilted></feature>
            <threshold>0.0536008588969707</threshold>
            <left_val>-0.2321251034736633</left_val>
            <right_val>0.3181116878986359</right_val></_></_>
        <_>
          <_>
            <feature>
              <rects>
                <_>
                  3 15 8 2 -1.</_>
                <_>
                  3 15 4 1 2.</_>
                <_>
                  7 16 4 1 2.</_></rects>
              <tilted>0</tilted></feature>
            <threshold>1.4631339581683278e-003</threshold>
            <left_val>-0.2468892931938171</left_val>
            <right_val>0.2848486900329590</right_val></_></_>
        <_>
          <_>
            <feature>
              <rects>
                <_>
                  19 7 4 6 -1.</_>
                <_>
                  19 9 4 2 3.</_></rects>
              <tilted>0</tilted></feature>
            <threshold>0.0224047508090734</threshold>
            <left_val>0.0325452797114849</left_val>
            <right_val>-0.5525401234626770</right_val></_></_>
        <_>
          <_>
            <feature>
              <rects>
                <_>
                  1 7 4 6 -1.</_>
                <_>
                  1 9 4 2 3.</_></rects>
              <tilted>0</tilted></feature>
            <threshold>-0.0106984302401543</threshold>
            <left_val>-0.6695448756217957</left_val>
            <right_val>0.0951446592807770</right_val></_></_>
        <_>
          <_>
            <feature>
              <rects>
                <_>
                  6 6 12 15 -1.</_>
                <_>
                  6 11 12 5 3.</_></rects>
              <tilted>0</tilted></feature>
            <threshold>9.5282774418592453e-003</threshold>
            <left_val>-0.4685826897621155</left_val>
            <right_val>0.1335286051034927</right_val></_></_>
        <_>
          <_>
            <feature>
              <rects>
                <_>
                  4 11 7 2 -1.</_>
                <_>
                  4 12 7 1 2.</_></rects>
              <tilted>0</tilted></feature>
            <threshold>-1.0293650120729581e-004</threshold>
            <left_val>0.1943825036287308</left_val>
            <right_val>-0.3591491878032684</right_val></_></_>
        <_>
          <_>
            <feature>
              <rects>
                <_>
                  13 2 3 3 -1.</_>
                <_>
                  14 2 1 3 3.</_></rects>
              <tilted>0</tilted></feature>
            <threshold>-1.0873270221054554e-003</threshold>
            <left_val>-0.3501439988613129</left_val>
            <right_val>0.0591469109058380</right_val></_></_>
        <_>
          <_>
            <feature>
              <rects>
                <_>
                  8 2 3 3 -1.</_>
                <_>
                  9 2 1 3 3.</_></rects>
              <tilted>0</tilted></feature>
            <threshold>2.0324890501797199e-003</threshold>
            <left_val>0.0981861874461174</left_val>
            <right_val>-0.6464694142341614</right_val></_></_>
        <_>
          <_>
            <feature>
              <rects>
                <_>
                  16 7 2 8 -1.</_>
                <_>
                  16 11 2 4 2.</_></rects>
              <tilted>0</tilted></feature>
            <threshold>2.6498429942876101e-003</threshold>
            <left_val>-0.1149317994713783</left_val>
            <right_val>0.0629422366619110</right_val></_></_>
        <_>
          <_>
            <feature>
              <rects>
                <_>
                  8 6 2 2 -1.</_>
                <_>
                  8 7 2 1 2.</_></rects>
              <tilted>0</tilted></feature>
            <threshold>-6.4648437546566129e-004</threshold>
            <left_val>0.1861930042505264</left_val>
            <right_val>-0.3394148945808411</right_val></_></_>
        <_>
          <_>
            <feature>
              <rects>
                <_>
                  15 9 2 2 -1.</_>
                <_>
                  15 9 1 2 2.</_></rects>
              <tilted>0</tilted></feature>
            <threshold>-2.4590030079707503e-005</threshold>
            <left_val>0.1024138033390045</left_val>
            <right_val>-0.1010510995984078</right_val></_></_>
        <_>
          <_>
            <feature>
              <rects>
                <_>
                  7 9 2 2 -1.</_>
                <_>
                  8 9 1 2 2.</_></rects>
              <tilted>0</tilted></feature>
            <threshold>-1.1490579927340150e-003</threshold>
            <left_val>-0.6667817831039429</left_val>
            <right_val>0.0942663624882698</right_val></_></_>
        <_>
          <_>
            <feature>
              <rects>
                <_>
                  12 7 3 5 -1.</_>
                <_>
                  13 7 1 5 3.</_></rects>
              <tilted>0</tilted></feature>
            <threshold>-1.4048280427232385e-003</threshold>
            <left_val>0.2205743044614792</left_val>
            <right_val>-0.1375444978475571</right_val></_></_>
        <_>
          <_>
            <feature>
              <rects>
                <_>
                  6 7 3 8 -1.</_>
                <_>
                  6 11 3 4 2.</_></rects>
              <tilted>0</tilted></feature>
            <threshold>3.8564701098948717e-003</threshold>
            <left_val>-0.4961296916007996</left_val>
            <right_val>0.1164939031004906</right_val></_></_>
        <_>
          <_>
            <feature>
              <rects>
                <_>
                  10 7 14 6 -1.</_>
                <_>
                  10 10 14 3 2.</_></rects>
              <tilted>0</tilted></feature>
            <threshold>0.0860717669129372</threshold>
            <left_val>0.0661670267581940</left_val>
            <right_val>-0.6426020860671997</right_val></_></_>
        <_>
          <_>
            <feature>
              <rects>
                <_>
                  9 7 3 5 -1.</_>
                <_>
                  10 7 1 5 3.</_></rects>
              <tilted>0</tilted></feature>
            <threshold>-1.4343439834192395e-003</threshold>
            <left_val>0.3467977046966553</left_val>
            <right_val>-0.1690919995307922</right_val></_></_>
        <_>
          <_>
            <feature>
              <rects>
                <_>
                  14 14 10 7 -1.</_>
                <_>
                  14 14 5 7 2.</_></rects>
              <tilted>0</tilted></feature>
            <threshold>0.0418960116803646</threshold>
            <left_val>-0.1031052023172379</left_val>
            <right_val>0.2884027957916260</right_val></_></_>
        <_>
          <_>
            <feature>
              <rects>
                <_>
                  0 14 10 7 -1.</_>
                <_>
                  5 14 5 7 2.</_></rects>
              <tilted>0</tilted></feature>
            <threshold>-0.0696365088224411</threshold>
            <left_val>0.7255960106849670</left_val>
            <right_val>-0.0890462920069695</right_val></_></_>
        <_>
          <_>
            <feature>
              <rects>
                <_>
                  16 14 8 3 -1.</_>
                <_>
                  16 15 8 1 3.</_></rects>
              <tilted>0</tilted></feature>
            <threshold>-0.0107506103813648</threshold>
            <left_val>-0.6295822858810425</left_val>
            <right_val>0.0567499399185181</right_val></_></_>
        <_>
          <_>
            <feature>
              <rects>
                <_>
                  0 14 8 3 -1.</_>
                <_>
                  0 15 8 1 3.</_></rects>
              <tilted>0</tilted></feature>
            <threshold>5.7252109982073307e-003</threshold>
            <left_val>0.0710340514779091</left_val>
            <right_val>-0.7091590166091919</right_val></_></_>
        <_>
          <_>
            <feature>
              <rects>
                <_>
                  14 14 6 2 -1.</_>
                <_>
                  17 14 3 1 2.</_>
                <_>
                  14 15 3 1 2.</_></rects>
              <tilted>0</tilted></feature>
            <threshold>1.2158439494669437e-003</threshold>
            <left_val>-0.1129504963755608</left_val>
            <right_val>0.2602739036083221</right_val></_></_>
        <_>
          <_>
            <feature>
              <rects>
                <_>
                  3 14 8 2 -1.</_>
                <_>
                  3 14 4 1 2.</_>
                <_>
                  7 15 4 1 2.</_></rects>
              <tilted>0</tilted></feature>
            <threshold>-4.6850778744556010e-004</threshold>
            <left_val>0.2401293069124222</left_val>
            <right_val>-0.2373569011688232</right_val></_></_>
        <_>
          <_>
            <feature>
              <rects>
                <_>
                  21 2 2 3 -1.</_>
                <_>
                  21 3 2 1 3.</_></rects>
              <tilted>0</tilted></feature>
            <threshold>3.4550291020423174e-003</threshold>
            <left_val>0.0344224907457829</left_val>
            <right_val>-0.6053113937377930</right_val></_></_>
        <_>
          <_>
            <feature>
              <rects>
                <_>
                  9 18 5 6 -1.</_>
                <_>
                  9 20 5 2 3.</_></rects>
              <tilted>0</tilted></feature>
            <threshold>-6.8295937962830067e-003</threshold>
            <left_val>0.2548524141311646</left_val>
            <right_val>-0.1934856027364731</right_val></_></_></trees>
      <stage_threshold>-1.5425180196762085</stage_threshold>
      <parent>7</parent>
      <next>-1</next></_>
    <_>
      <trees>
        <_>
          <_>
            <feature>
              <rects>
                <_>
                  1 1 6 13 -1.</_>
                <_>
                  4 1 3 13 2.</_></rects>
              <tilted>0</tilted></feature>
            <threshold>0.0395693294703960</threshold>
            <left_val>-0.3278363049030304</left_val>
            <right_val>0.4926108121871948</right_val></_></_>
        <_>
          <_>
            <feature>
              <rects>
                <_>
                  13 7 11 3 -1.</_>
                <_>
                  13 8 11 1 3.</_></rects>
              <tilted>0</tilted></feature>
            <threshold>-5.7789250276982784e-003</threshold>
            <left_val>0.2333405017852783</left_val>
            <right_val>-0.1626390963792801</right_val></_></_>
        <_>
          <_>
            <feature>
              <rects>
                <_>
                  4 8 2 4 -1.</_>
                <_>
                  4 8 1 2 2.</_>
                <_>
                  5 10 1 2 2.</_></rects>
              <tilted>0</tilted></feature>
            <threshold>1.1767209507524967e-003</threshold>
            <left_val>-0.3850759863853455</left_val>
            <right_val>0.3221473991870880</right_val></_></_>
        <_>
          <_>
            <feature>
              <rects>
                <_>
                  6 0 12 4 -1.</_>
                <_>
                  6 2 12 2 2.</_></rects>
              <tilted>0</tilted></feature>
            <threshold>0.0271842908114195</threshold>
            <left_val>-0.3122650980949402</left_val>
            <right_val>0.3514359891414642</right_val></_></_>
        <_>
          <_>
            <feature>
              <rects>
                <_>
                  8 14 3 3 -1.</_>
                <_>
                  8 15 3 1 3.</_></rects>
              <tilted>0</tilted></feature>
            <threshold>-2.8950739651918411e-003</threshold>
            <left_val>0.3436127007007599</left_val>
            <right_val>-0.2853353917598724</right_val></_></_>
        <_>
          <_>
            <feature>
              <rects>
                <_>
                  12 5 4 5 -1.</_>
                <_>
                  12 5 2 5 2.</_></rects>
              <tilted>0</tilted></feature>
            <threshold>2.4704190436750650e-003</threshold>
            <left_val>-0.3409593999385834</left_val>
            <right_val>0.2310664057731628</right_val></_></_>
        <_>
          <_>
            <feature>
              <rects>
                <_>
                  0 7 11 3 -1.</_>
                <_>
                  0 8 11 1 3.</_></rects>
              <tilted>0</tilted></feature>
            <threshold>-5.0908620469272137e-003</threshold>
            <left_val>0.1435994058847427</left_val>
            <right_val>-0.4255447089672089</right_val></_></_>
        <_>
          <_>
            <feature>
              <rects>
                <_>
                  12 6 6 4 -1.</_>
                <_>
                  12 6 3 4 2.</_></rects>
              <tilted>0</tilted></feature>
            <threshold>0.0405149497091770</threshold>
            <left_val>0.0255935899913311</left_val>
            <right_val>-0.8442038297653198</right_val></_></_>
        <_>
          <_>
            <feature>
              <rects>
                <_>
                  6 6 6 4 -1.</_>
                <_>
                  9 6 3 4 2.</_></rects>
              <tilted>0</tilted></feature>
            <threshold>5.4105347953736782e-003</threshold>
            <left_val>-0.5112379193305969</left_val>
            <right_val>0.1268422007560730</right_val></_></_>
        <_>
          <_>
            <feature>
              <rects>
                <_>
                  11 9 3 2 -1.</_>
                <_>
                  11 10 3 1 2.</_></rects>
              <tilted>0</tilted></feature>
            <threshold>-1.2508260551840067e-003</threshold>
            <left_val>-0.5682173967361450</left_val>
            <right_val>0.0554913990199566</right_val></_></_>
        <_>
          <_>
            <feature>
              <rects>
                <_>
                  0 11 22 9 -1.</_>
                <_>
                  0 14 22 3 3.</_></rects>
              <tilted>0</tilted></feature>
            <threshold>-0.1086374968290329</threshold>
            <left_val>-0.7037323713302612</left_val>
            <right_val>0.0825043469667435</right_val></_></_>
        <_>
          <_>
            <feature>
              <rects>
                <_>
                  12 8 1 12 -1.</_>
                <_>
                  12 12 1 4 3.</_></rects>
              <tilted>0</tilted></feature>
            <threshold>3.7797319237142801e-003</threshold>
            <left_val>0.1319932043552399</left_val>
            <right_val>-0.3506717085838318</right_val></_></_>
        <_>
          <_>
            <feature>
              <rects>
                <_>
                  1 3 4 3 -1.</_>
                <_>
                  1 4 4 1 3.</_></rects>
              <tilted>0</tilted></feature>
            <threshold>2.5188201107084751e-003</threshold>
            <left_val>0.1040897965431213</left_val>
            <right_val>-0.5262454152107239</right_val></_></_>
        <_>
          <_>
            <feature>
              <rects>
                <_>
                  19 3 3 3 -1.</_>
                <_>
                  19 4 3 1 3.</_></rects>
              <tilted>0</tilted></feature>
            <threshold>3.4637521021068096e-003</threshold>
            <left_val>0.0465788990259171</left_val>
            <right_val>-0.4945169091224670</right_val></_></_>
        <_>
          <_>
            <feature>
              <rects>
                <_>
                  1 8 18 5 -1.</_>
                <_>
                  7 8 6 5 3.</_></rects>
              <tilted>0</tilted></feature>
            <threshold>0.1065549999475479</threshold>
            <left_val>0.0794674232602119</left_val>
            <right_val>-0.7102360129356384</right_val></_></_>
        <_>
          <_>
            <feature>
              <rects>
                <_>
                  19 3 3 3 -1.</_>
                <_>
                  19 4 3 1 3.</_></rects>
              <tilted>0</tilted></feature>
            <threshold>-1.8145310459658504e-003</threshold>
            <left_val>-0.3463079929351807</left_val>
            <right_val>0.0599975511431694</right_val></_></_>
        <_>
          <_>
            <feature>
              <rects>
                <_>
                  7 7 2 2 -1.</_>
                <_>
                  7 7 1 1 2.</_>
                <_>
                  8 8 1 1 2.</_></rects>
              <tilted>0</tilted></feature>
            <threshold>5.7186052436009049e-004</threshold>
            <left_val>-0.2067072987556458</left_val>
            <right_val>0.2976605892181397</right_val></_></_>
        <_>
          <_>
            <feature>
              <rects>
                <_>
                  19 3 3 3 -1.</_>
                <_>
                  19 4 3 1 3.</_></rects>
              <tilted>0</tilted></feature>
            <threshold>-9.6818637102842331e-003</threshold>
            <left_val>-0.6339002847671509</left_val>
            <right_val>8.1302784383296967e-003</right_val></_></_>
        <_>
          <_>
            <feature>
              <rects>
                <_>
                  2 3 3 3 -1.</_>
                <_>
                  2 4 3 1 3.</_></rects>
              <tilted>0</tilted></feature>
            <threshold>-2.8827979695051908e-003</threshold>
            <left_val>-0.6762176156044006</left_val>
            <right_val>0.0938901975750923</right_val></_></_>
        <_>
          <_>
            <feature>
              <rects>
                <_>
                  17 12 1 2 -1.</_>
                <_>
                  17 13 1 1 2.</_></rects>
              <tilted>0</tilted></feature>
            <threshold>-2.7020969355362467e-005</threshold>
            <left_val>0.0931106135249138</left_val>
            <right_val>-0.1883295029401779</right_val></_></_>
        <_>
          <_>
            <feature>
              <rects>
                <_>
                  6 12 1 2 -1.</_>
                <_>
                  6 13 1 1 2.</_></rects>
              <tilted>0</tilted></feature>
            <threshold>-1.2563939890242182e-005</threshold>
            <left_val>0.1373164057731628</left_val>
            <right_val>-0.3744879961013794</right_val></_></_>
        <_>
          <_>
            <feature>
              <rects>
                <_>
                  4 5 20 15 -1.</_>
                <_>
                  4 10 20 5 3.</_></rects>
              <tilted>0</tilted></feature>
            <threshold>-0.0263514202088118</threshold>
            <left_val>-0.6001188158988953</left_val>
            <right_val>0.0570783391594887</right_val></_></_>
        <_>
          <_>
            <feature>
              <rects>
                <_>
                  7 0 3 8 -1.</_>
                <_>
                  8 0 1 8 3.</_></rects>
              <tilted>0</tilted></feature>
            <threshold>-5.8981361798942089e-003</threshold>
            <left_val>-0.8508365750312805</left_val>
            <right_val>0.0506424717605114</right_val></_></_>
        <_>
          <_>
            <feature>
              <rects>
                <_>
                  18 5 6 6 -1.</_>
                <_>
                  18 7 6 2 3.</_></rects>
              <tilted>0</tilted></feature>
            <threshold>-0.0160786993801594</threshold>
            <left_val>-0.3596079945564270</left_val>
            <right_val>0.0670130327343941</right_val></_></_>
        <_>
          <_>
            <feature>
              <rects>
                <_>
                  0 0 10 2 -1.</_>
                <_>
                  5 0 5 2 2.</_></rects>
              <tilted>0</tilted></feature>
            <threshold>-0.0185880493372679</threshold>
            <left_val>0.5337107777595520</left_val>
            <right_val>-0.0875340476632118</right_val></_></_>
        <_>
          <_>
            <feature>
              <rects>
                <_>
                  16 5 6 6 -1.</_>
                <_>
                  19 5 3 3 2.</_>
                <_>
                  16 8 3 3 2.</_></rects>
              <tilted>0</tilted></feature>
            <threshold>-8.5334777832031250e-003</threshold>
            <left_val>0.2590092122554779</left_val>
            <right_val>-0.0723296776413918</right_val></_></_>
        <_>
          <_>
            <feature>
              <rects>
                <_>
                  2 5 6 6 -1.</_>
                <_>
                  2 5 3 3 2.</_>
                <_>
                  5 8 3 3 2.</_></rects>
              <tilted>0</tilted></feature>
            <threshold>-1.4194609830155969e-003</threshold>
            <left_val>0.1500121057033539</left_val>
            <right_val>-0.3052838146686554</right_val></_></_>
        <_>
          <_>
            <feature>
              <rects>
                <_>
                  12 8 5 2 -1.</_>
                <_>
                  12 9 5 1 2.</_></rects>
              <tilted>0</tilted></feature>
            <threshold>1.0859520407393575e-003</threshold>
            <left_val>-0.1591127961874008</left_val>
            <right_val>0.1138977035880089</right_val></_></_>
        <_>
          <_>
            <feature>
              <rects>
                <_>
                  0 5 6 6 -1.</_>
                <_>
                  0 7 6 2 3.</_></rects>
              <tilted>0</tilted></feature>
            <threshold>-0.0348183512687683</threshold>
            <left_val>-0.6542394757270813</left_val>
            <right_val>0.0681603774428368</right_val></_></_>
        <_>
          <_>
            <feature>
              <rects>
                <_>
                  8 15 11 6 -1.</_>
                <_>
                  8 17 11 2 3.</_></rects>
              <tilted>0</tilted></feature>
            <threshold>7.1220737881958485e-003</threshold>
            <left_val>-0.1740393042564392</left_val>
            <right_val>0.1388303935527802</right_val></_></_>
        <_>
          <_>
            <feature>
              <rects>
                <_>
                  9 2 3 4 -1.</_>
                <_>
                  10 2 1 4 3.</_></rects>
              <tilted>0</tilted></feature>
            <threshold>-6.6018261713907123e-004</threshold>
            <left_val>-0.4089953005313873</left_val>
            <right_val>0.1147454008460045</right_val></_></_>
        <_>
          <_>
            <feature>
              <rects>
                <_>
                  19 10 3 3 -1.</_>
                <_>
                  19 11 3 1 3.</_></rects>
              <tilted>0</tilted></feature>
            <threshold>1.9280490232631564e-003</threshold>
            <left_val>0.0612961687147617</left_val>
            <right_val>-0.2590560019016266</right_val></_></_>
        <_>
          <_>
            <feature>
              <rects>
                <_>
                  8 5 2 3 -1.</_>
                <_>
                  8 6 2 1 3.</_></rects>
              <tilted>0</tilted></feature>
            <threshold>1.0291399667039514e-003</threshold>
            <left_val>-0.2211101949214935</left_val>
            <right_val>0.2014973014593124</right_val></_></_>
        <_>
          <_>
            <feature>
              <rects>
                <_>
                  19 10 5 3 -1.</_>
                <_>
                  19 11 5 1 3.</_></rects>
              <tilted>0</tilted></feature>
            <threshold>-2.1151560358703136e-003</threshold>
            <left_val>-0.3362753093242645</left_val>
            <right_val>0.0598789788782597</right_val></_></_>
        <_>
          <_>
            <feature>
              <rects>
                <_>
                  9 0 3 5 -1.</_>
                <_>
                  10 0 1 5 3.</_></rects>
              <tilted>0</tilted></feature>
            <threshold>2.5140850339084864e-003</threshold>
            <left_val>0.0790720880031586</left_val>
            <right_val>-0.5490037798881531</right_val></_></_>
        <_>
          <_>
            <feature>
              <rects>
                <_>
                  12 8 5 2 -1.</_>
                <_>
                  12 9 5 1 2.</_></rects>
              <tilted>0</tilted></feature>
            <threshold>-3.8051980081945658e-003</threshold>
            <left_val>0.3638308942317963</left_val>
            <right_val>-0.0545357316732407</right_val></_></_>
        <_>
          <_>
            <feature>
              <rects>
                <_>
                  7 8 5 2 -1.</_>
                <_>
                  7 9 5 1 2.</_></rects>
              <tilted>0</tilted></feature>
            <threshold>3.4179600334027782e-005</threshold>
            <left_val>-0.4667819142341614</left_val>
            <right_val>0.1123664006590843</right_val></_></_>
        <_>
          <_>
            <feature>
              <rects>
                <_>
                  12 7 3 3 -1.</_>
                <_>
                  12 8 3 1 3.</_></rects>
              <tilted>0</tilted></feature>
            <threshold>-9.3923462554812431e-003</threshold>
