<?xml version="1.0"?>
<opencv_storage>
<myfacedetector type_id="opencv-haar-classifier">
  <size>
    24 24</size>
  <stages>
    <_>
      <trees>
        <_>
          <_>
            <feature>
              <rects>
                <_>
                  6 8 3 4 -1.</_>
                <_>
                  6 10 3 2 2.</_></rects>
              <tilted>0</tilted></feature>
            <threshold>6.1254720203578472e-003</threshold>
            <left_val>-0.8661608099937439</left_val>
            <right_val>0.8015806078910828</right_val></_></_>
        <_>
          <_>
            <feature>
              <rects>
                <_>
                  13 5 4 1 -1.</_>
                <_>
                  13 5 2 1 2.</_></rects>
              <tilted>1</tilted></feature>
            <threshold>2.1975398994982243e-003</threshold>
            <left_val>-0.5671768188476563</left_val>
            <right_val>0.4040735065937042</right_val></_></_>
        <_>
          <_>
            <feature>
              <rects>
                <_>
                  6 6 6 4 -1.</_>
                <_>
                  9 6 3 4 2.</_></rects>
              <tilted>0</tilted></feature>
            <threshold>5.3074848838150501e-003</threshold>
            <left_val>-0.7763981819152832</left_val>
            <right_val>0.5170248150825501</right_val></_></_>
        <_>
          <_>
            <feature>
              <rects>
                <_>
                  5 12 16 4 -1.</_>
                <_>
                  5 14 16 2 2.</_></rects>
              <tilted>0</tilted></feature>
            <threshold>-3.3709420822560787e-003</threshold>
            <left_val>0.4643768072128296</left_val>
            <right_val>-0.7324457764625549</right_val></_></_>
        <_>
          <_>
            <feature>
              <rects>
                <_>
                  7 7 3 3 -1.</_>
                <_>
                  7 8 3 1 3.</_></rects>
              <tilted>0</tilted></feature>
            <threshold>-1.3936769682914019e-003</threshold>
            <left_val>0.4387016892433167</left_val>
            <right_val>-0.6600831151008606</right_val></_></_></trees>
      <stage_threshold>-2.3088419437408447</stage_threshold>
      <parent>-1</parent>
      <next>-1</next></_>
    <_>
      <trees>
        <_>
          <_>
            <feature>
              <rects>
                <_>
                  5 8 3 4 -1.</_>
                <_>
                  5 10 3 2 2.</_></rects>
              <tilted>0</tilted></feature>
            <threshold>7.4287662282586098e-003</threshold>
            <left_val>-0.7903255820274353</left_val>
            <right_val>0.6630883216857910</right_val></_></_>
        <_>
          <_>
            <feature>
              <rects>
                <_>
                  0 0 24 9 -1.</_>
                <_>
                  8 3 8 3 9.</_></rects>
              <tilted>0</tilted></feature>
            <threshold>0.2411012947559357</threshold>
            <left_val>-0.6632680892944336</left_val>
            <right_val>0.7427427172660828</right_val></_></_>
        <_>
          <_>
            <feature>
              <rects>
                <_>
                  7 7 6 2 -1.</_>
                <_>
                  10 7 3 2 2.</_></rects>
              <tilted>0</tilted></feature>
            <threshold>2.5493649300187826e-003</threshold>
            <left_val>-0.8811790943145752</left_val>
            <right_val>0.4348303079605103</right_val></_></_>
        <_>
          <_>
            <feature>
              <rects>
                <_>
                  8 8 9 8 -1.</_>
                <_>
                  8 10 9 4 2.</_></rects>
              <tilted>0</tilted></feature>
            <threshold>9.7776809707283974e-004</threshold>
            <left_val>-0.9419205188751221</left_val>
            <right_val>0.3637165129184723</right_val></_></_>
        <_>
          <_>
            <feature>
              <rects>
                <_>
                  7 7 2 4 -1.</_>
                <_>
                  7 8 2 2 2.</_></rects>
              <tilted>0</tilted></feature>
            <threshold>-1.2293649888306390e-005</threshold>
            <left_val>0.1022076010704041</left_val>
            <right_val>-0.9637740850448608</right_val></_></_>
        <_>
          <_>
            <feature>
              <rects>
                <_>
                  7 6 12 5 -1.</_>
                <_>
                  10 6 6 5 2.</_></rects>
              <tilted>0</tilted></feature>
            <threshold>1.8564169295132160e-005</threshold>
            <left_val>-0.7480046749114990</left_val>
            <right_val>0.1646533012390137</right_val></_></_>
        <_>
          <_>
            <feature>
              <rects>
                <_>
                  9 5 2 4 -1.</_>
                <_>
                  8 6 2 2 2.</_></rects>
              <tilted>1</tilted></feature>
            <threshold>-1.5608780813636258e-005</threshold>
            <left_val>0.2376416027545929</left_val>
            <right_val>-0.9200447797775269</right_val></_></_>
        <_>
          <_>
            <feature>
              <rects>
                <_>
                  9 5 6 5 -1.</_>
                <_>
                  9 5 3 5 2.</_></rects>
              <tilted>0</tilted></feature>
            <threshold>2.2173009347170591e-003</threshold>
            <left_val>-0.5579994916915894</left_val>
            <right_val>0.5013449192047119</right_val></_></_>
        <_>
          <_>
            <feature>
              <rects>
                <_>
                  3 8 10 4 -1.</_>
                <_>
                  3 10 10 2 2.</_></rects>
              <tilted>0</tilted></feature>
            <threshold>3.0339420845848508e-005</threshold>
            <left_val>-0.8564785122871399</left_val>
            <right_val>0.3046698868274689</right_val></_></_>
        <_>
          <_>
            <feature>
              <rects>
                <_>
                  12 11 2 9 -1.</_>
                <_>
                  9 14 2 3 3.</_></rects>
              <tilted>1</tilted></feature>
            <threshold>6.8357231793925166e-004</threshold>
            <left_val>-0.6363850235939026</left_val>
            <right_val>0.0954834967851639</right_val></_></_>
        <_>
          <_>
            <feature>
              <rects>
                <_>
                  5 12 5 4 -1.</_>
                <_>
                  5 14 5 2 2.</_></rects>
              <tilted>0</tilted></feature>
            <threshold>-1.2234339919814374e-005</threshold>
            <left_val>0.5265597105026245</left_val>
            <right_val>-0.7620915770530701</right_val></_></_>
        <_>
          <_>
            <feature>
              <rects>
                <_>
                  18 7 2 10 -1.</_>
                <_>
                  18 7 2 5 2.</_></rects>
              <tilted>1</tilted></feature>
            <threshold>1.0599510278552771e-003</threshold>
            <left_val>-0.3909485936164856</left_val>
            <right_val>0.2968798875808716</right_val></_></_>
        <_>
          <_>
            <feature>
              <rects>
                <_>
                  9 7 12 2 -1.</_>
                <_>
                  12 10 6 2 2.</_></rects>
              <tilted>1</tilted></feature>
            <threshold>1.3922569632995874e-004</threshold>
            <left_val>-0.7987908124923706</left_val>
            <right_val>0.3774482011795044</right_val></_></_>
        <_>
          <_>
            <feature>
              <rects>
                <_>
                  15 2 8 4 -1.</_>
                <_>
                  17 4 4 4 2.</_></rects>
              <tilted>1</tilted></feature>
            <threshold>-3.2917800126597285e-005</threshold>
            <left_val>0.1076273024082184</left_val>
            <right_val>-0.6379585266113281</right_val></_></_>
        <_>
          <_>
            <feature>
              <rects>
                <_>
                  12 1 12 1 -1.</_>
                <_>
                  16 5 4 1 3.</_></rects>
              <tilted>1</tilted></feature>
            <threshold>1.5796739899087697e-004</threshold>
            <left_val>-0.5018243193626404</left_val>
            <right_val>0.5977259874343872</right_val></_></_>
        <_>
          <_>
            <feature>
              <rects>
                <_>
                  14 4 5 9 -1.</_>
                <_>
                  14 7 5 3 3.</_></rects>
              <tilted>0</tilted></feature>
            <threshold>5.0136941717937589e-004</threshold>
            <left_val>-0.5199099183082581</left_val>
            <right_val>0.4204297959804535</right_val></_></_></trees>
      <stage_threshold>-2.9015700817108154</stage_threshold>
      <parent>0</parent>
      <next>-1</next></_>
    <_>
      <trees>
        <_>
          <_>
            <feature>
              <rects>
                <_>
                  0 3 24 4 -1.</_>
                <_>
                  6 3 12 4 2.</_></rects>
              <tilted>0</tilted></feature>
            <threshold>0.0682327970862389</threshold>
            <left_val>-0.5358232855796814</left_val>
            <right_val>0.7583333849906921</right_val></_></_>
        <_>
          <_>
            <feature>
              <rects>
                <_>
                  15 8 3 2 -1.</_>
                <_>
                  15 9 3 1 2.</_></rects>
              <tilted>0</tilted></feature>
            <threshold>2.1256168838590384e-003</threshold>
            <left_val>-0.2945907115936279</left_val>
            <right_val>0.4878791868686676</right_val></_></_>
        <_>
          <_>
            <feature>
              <rects>
                <_>
                  7 6 9 4 -1.</_>
                <_>
                  10 6 3 4 3.</_></rects>
              <tilted>0</tilted></feature>
            <threshold>0.0147391995415092</threshold>
            <left_val>-0.6236891746520996</left_val>
            <right_val>0.4961974024772644</right_val></_></_>
        <_>
          <_>
            <feature>
              <rects>
                <_>
                  13 8 6 4 -1.</_>
                <_>
                  13 10 6 2 2.</_></rects>
              <tilted>0</tilted></feature>
            <threshold>3.2272459939122200e-003</threshold>
            <left_val>-0.5448495149612427</left_val>
            <right_val>0.1911175996065140</right_val></_></_>
        <_>
          <_>
            <feature>
              <rects>
                <_>
                  5 8 7 4 -1.</_>
                <_>
                  5 10 7 2 2.</_></rects>
              <tilted>0</tilted></feature>
            <threshold>4.3169981800019741e-003</threshold>
            <left_val>-0.8697369098663330</left_val>
            <right_val>0.3849866092205048</right_val></_></_>
        <_>
          <_>
            <feature>
              <rects>
                <_>
                  12 1 7 8 -1.</_>
                <_>
                  12 3 7 4 2.</_></rects>
              <tilted>0</tilted></feature>
            <threshold>1.8323169788345695e-003</threshold>
            <left_val>-0.6095594167709351</left_val>
            <right_val>0.0818082764744759</right_val></_></_>
        <_>
          <_>
            <feature>
              <rects>
                <_>
                  6 7 4 3 -1.</_>
                <_>
                  6 8 4 1 3.</_></rects>
              <tilted>0</tilted></feature>
            <threshold>-6.0156609833939001e-005</threshold>
            <left_val>0.3217295110225678</left_val>
            <right_val>-0.8748083114624023</right_val></_></_>
        <_>
          <_>
            <feature>
              <rects>
                <_>
                  13 12 6 4 -1.</_>
                <_>
                  13 14 6 2 2.</_></rects>
              <tilted>0</tilted></feature>
            <threshold>-2.1248519260552712e-005</threshold>
            <left_val>0.1293202042579651</left_val>
            <right_val>-0.4392555058002472</right_val></_></_>
        <_>
          <_>
            <feature>
              <rects>
                <_>
                  6 5 6 5 -1.</_>
                <_>
                  9 5 3 5 2.</_></rects>
              <tilted>0</tilted></feature>
            <threshold>2.2336989641189575e-003</threshold>
            <left_val>-0.6829026937484741</left_val>
            <right_val>0.2687628865242004</right_val></_></_>
        <_>
          <_>
            <feature>
              <rects>
                <_>
                  6 5 12 4 -1.</_>
                <_>
                  12 5 6 2 2.</_>
                <_>
                  6 7 6 2 2.</_></rects>
              <tilted>0</tilted></feature>
            <threshold>-1.3559260405600071e-003</threshold>
            <left_val>0.2584002017974854</left_val>
            <right_val>-0.6123132109642029</right_val></_></_>
        <_>
          <_>
            <feature>
              <rects>
                <_>
                  5 12 6 4 -1.</_>
                <_>
                  5 14 6 2 2.</_></rects>
              <tilted>0</tilted></feature>
            <threshold>-1.0525769903324544e-004</threshold>
            <left_val>0.2355941981077194</left_val>
            <right_val>-0.6378822922706604</right_val></_></_>
        <_>
          <_>
            <feature>
              <rects>
                <_>
                  15 7 3 4 -1.</_>
                <_>
                  16 7 1 4 3.</_></rects>
              <tilted>0</tilted></feature>
            <threshold>6.0847019776701927e-003</threshold>
            <left_val>0.0100233098492026</left_val>
            <right_val>-0.8224456906318665</right_val></_></_>
        <_>
          <_>
            <feature>
              <rects>
                <_>
                  6 0 3 11 -1.</_>
                <_>
                  7 0 1 11 3.</_></rects>
              <tilted>0</tilted></feature>
            <threshold>4.4203898869454861e-003</threshold>
            <left_val>0.1566663980484009</left_val>
            <right_val>-0.8072364926338196</right_val></_></_>
        <_>
          <_>
            <feature>
              <rects>
                <_>
                  15 2 3 4 -1.</_>
                <_>
                  16 2 1 4 3.</_></rects>
              <tilted>0</tilted></feature>
            <threshold>2.3647579364478588e-003</threshold>
            <left_val>0.0942693576216698</left_val>
            <right_val>-0.5750657916069031</right_val></_></_>
        <_>
          <_>
            <feature>
              <rects>
                <_>
                  6 2 3 4 -1.</_>
                <_>
                  7 2 1 4 3.</_></rects>
              <tilted>0</tilted></feature>
            <threshold>-1.6390719683840871e-003</threshold>
            <left_val>-0.6343222260475159</left_val>
            <right_val>0.1740640997886658</right_val></_></_>
        <_>
          <_>
            <feature>
              <rects>
                <_>
                  19 7 5 4 -1.</_>
                <_>
                  19 8 5 2 2.</_></rects>
              <tilted>0</tilted></feature>
            <threshold>-5.8849072083830833e-003</threshold>
            <left_val>-0.6101778745651245</left_val>
            <right_val>0.0792864263057709</right_val></_></_>
        <_>
          <_>
            <feature>
              <rects>
                <_>
                  0 7 3 4 -1.</_>
                <_>
                  0 8 3 2 2.</_></rects>
              <tilted>0</tilted></feature>
            <threshold>-4.2110281065106392e-003</threshold>
            <left_val>-0.7096533179283142</left_val>
            <right_val>0.1241798028349876</right_val></_></_></trees>
      <stage_threshold>-1.9140410423278809</stage_threshold>
      <parent>1</parent>
      <next>-1</next></_>
    <_>
      <trees>
        <_>
          <_>
            <feature>
              <rects>
                <_>
                  7 7 1 3 -1.</_>
                <_>
                  7 8 1 1 3.</_></rects>
              <tilted>0</tilted></feature>
            <threshold>-1.7870509764179587e-003</threshold>
            <left_val>0.5645288825035095</left_val>
            <right_val>-0.6428123116493225</right_val></_></_>
        <_>
          <_>
            <feature>
              <rects>
                <_>
                  0 0 24 9 -1.</_>
                <_>
                  8 3 8 3 9.</_></rects>
              <tilted>0</tilted></feature>
            <threshold>0.3873944878578186</threshold>
            <left_val>-0.3838038146495819</left_val>
            <right_val>0.7598332166671753</right_val></_></_>
        <_>
          <_>
            <feature>
              <rects>
                <_>
                  2 9 19 4 -1.</_>
                <_>
                  2 10 19 2 2.</_></rects>
              <tilted>0</tilted></feature>
            <threshold>6.9512990303337574e-003</threshold>
            <left_val>-0.5006027221679688</left_val>
            <right_val>0.3601883947849274</right_val></_></_>
        <_>
          <_>
            <feature>
              <rects>
                <_>
                  8 7 8 2 -1.</_>
                <_>
                  10 7 4 2 2.</_></rects>
              <tilted>0</tilted></feature>
            <threshold>3.6018888931721449e-003</threshold>
            <left_val>-0.5508459806442261</left_val>
            <right_val>0.2550362944602966</right_val></_></_>
        <_>
          <_>
            <feature>
              <rects>
                <_>
                  8 0 5 4 -1.</_>
                <_>
                  7 1 5 2 2.</_></rects>
              <tilted>1</tilted></feature>
            <threshold>3.2165989978238940e-005</threshold>
            <left_val>-0.6193798184394836</left_val>
            <right_val>0.2093497961759567</right_val></_></_>
        <_>
          <_>
            <feature>
              <rects>
                <_>
                  0 17 24 2 -1.</_>
                <_>
                  6 17 12 2 2.</_></rects>
              <tilted>0</tilted></feature>
            <threshold>0.0341877900063992</threshold>
            <left_val>-0.2632617056369782</left_val>
            <right_val>0.5699210762977600</right_val></_></_>
        <_>
          <_>
            <feature>
              <rects>
                <_>
                  6 8 1 6 -1.</_>
                <_>
                  6 11 1 3 2.</_></rects>
              <tilted>0</tilted></feature>
            <threshold>5.7503767311573029e-004</threshold>
            <left_val>-0.6474968194961548</left_val>
            <right_val>0.2158209979534149</right_val></_></_>
        <_>
          <_>
            <feature>
              <rects>
                <_>
                  12 10 5 6 -1.</_>
                <_>
                  12 13 5 3 2.</_></rects>
              <tilted>0</tilted></feature>
            <threshold>-4.0236889617517591e-004</threshold>
            <left_val>0.0587441399693489</left_val>
            <right_val>-0.3709079921245575</right_val></_></_>
        <_>
          <_>
            <feature>
              <rects>
                <_>
                  10 0 3 4 -1.</_>
                <_>
                  11 0 1 4 3.</_></rects>
              <tilted>0</tilted></feature>
            <threshold>-2.4789879098534584e-003</threshold>
            <left_val>-0.8223350048065186</left_val>
            <right_val>0.1435793936252594</right_val></_></_>
        <_>
          <_>
            <feature>
              <rects>
                <_>
                  13 4 5 4 -1.</_>
                <_>
                  13 5 5 2 2.</_></rects>
              <tilted>0</tilted></feature>
            <threshold>3.3509470522403717e-003</threshold>
            <left_val>-0.1167327016592026</left_val>
            <right_val>0.1945267021656036</right_val></_></_>
        <_>
          <_>
            <feature>
              <rects>
                <_>
                  6 7 3 9 -1.</_>
                <_>
                  7 10 1 3 9.</_></rects>
              <tilted>0</tilted></feature>
            <threshold>4.7511542215943336e-003</threshold>
            <left_val>-0.5740209817886353</left_val>
            <right_val>0.2056526988744736</right_val></_></_>
        <_>
          <_>
            <feature>
              <rects>
                <_>
                  15 6 4 1 -1.</_>
                <_>
                  16 7 2 1 2.</_></rects>
              <tilted>1</tilted></feature>
            <threshold>-6.6516140941530466e-004</threshold>
            <left_val>0.0395521707832813</left_val>
            <right_val>-0.1984021067619324</right_val></_></_>
        <_>
          <_>
            <feature>
              <rects>
                <_>
                  7 4 4 7 -1.</_>
                <_>
                  9 4 2 7 2.</_></rects>
              <tilted>0</tilted></feature>
            <threshold>7.1841792669147253e-004</threshold>
            <left_val>-0.6182010769844055</left_val>
            <right_val>0.2095001935958862</right_val></_></_>
        <_>
          <_>
            <feature>
              <rects>
                <_>
                  13 3 10 6 -1.</_>
                <_>
                  13 5 10 2 3.</_></rects>
              <tilted>0</tilted></feature>
            <threshold>-1.6685560112819076e-003</threshold>
            <left_val>0.1297384947538376</left_val>
            <right_val>-0.2214401066303253</right_val></_></_>
        <_>
          <_>
            <feature>
              <rects>
                <_>
                  1 3 10 6 -1.</_>
                <_>
                  1 5 10 2 3.</_></rects>
              <tilted>0</tilted></feature>
            <threshold>3.6595589481294155e-003</threshold>
            <left_val>-0.4856804013252258</left_val>
            <right_val>0.3370288014411926</right_val></_></_>
        <_>
          <_>
            <feature>
              <rects>
                <_>
                  13 8 4 4 -1.</_>
                <_>
                  13 10 4 2 2.</_></rects>
              <tilted>0</tilted></feature>
            <threshold>2.4338900111615658e-003</threshold>
            <left_val>-0.2370519042015076</left_val>
            <right_val>0.0703393220901489</right_val></_></_>
        <_>
          <_>
            <feature>
              <rects>
                <_>
                  7 10 5 3 -1.</_>
                <_>
                  7 11 5 1 3.</_></rects>
              <tilted>0</tilted></feature>
            <threshold>1.3137029782228637e-005</threshold>
            <left_val>-0.5585014224052429</left_val>
            <right_val>0.2490431070327759</right_val></_></_>
        <_>
          <_>
            <feature>
              <rects>
                <_>
                  15 6 4 1 -1.</_>
                <_>
                  16 7 2 1 2.</_></rects>
              <tilted>1</tilted></feature>
            <threshold>1.5948189684422687e-005</threshold>
            <left_val>-0.2874287068843842</left_val>
            <right_val>0.2608003914356232</right_val></_></_>
        <_>
          <_>
            <feature>
              <rects>
                <_>
                  9 6 1 4 -1.</_>
                <_>
                  8 7 1 2 2.</_></rects>
              <tilted>1</tilted></feature>
            <threshold>-5.9206009609624743e-005</threshold>
            <left_val>0.2054259032011032</left_val>
            <right_val>-0.8223838210105896</right_val></_></_>
        <_>
          <_>
            <feature>
              <rects>
                <_>
                  11 0 2 4 -1.</_>
                <_>
                  11 2 2 2 2.</_></rects>
              <tilted>0</tilted></feature>
            <threshold>5.1385688129812479e-004</threshold>
            <left_val>-0.4357419013977051</left_val>
            <right_val>0.2525550127029419</right_val></_></_></trees>
      <stage_threshold>-2.0996050834655762</stage_threshold>
      <parent>2</parent>
      <next>-1</next></_>
    <_>
      <trees>
        <_>
          <_>
            <feature>
              <rects>
                <_>
                  0 3 24 4 -1.</_>
                <_>
                  6 3 12 4 2.</_></rects>
              <tilted>0</tilted></feature>
            <threshold>0.0930968299508095</threshold>
            <left_val>-0.4122087061405182</left_val>
            <right_val>0.6851251125335693</right_val></_></_>
        <_>
          <_>
            <feature>
              <rects>
                <_>
                  16 8 6 4 -1.</_>
                <_>
                  19 8 3 2 2.</_>
                <_>
                  16 10 3 2 2.</_></rects>
              <tilted>0</tilted></feature>
            <threshold>3.0605699867010117e-003</threshold>
            <left_val>-0.3349854946136475</left_val>
            <right_val>0.3699629902839661</right_val></_></_>
        <_>
          <_>
            <feature>
              <rects>
                <_>
                  2 8 6 4 -1.</_>
                <_>
                  2 8 3 2 2.</_>
                <_>
                  5 10 3 2 2.</_></rects>
              <tilted>0</tilted></feature>
            <threshold>4.6032262034714222e-003</threshold>
            <left_val>-0.6179528832435608</left_val>
            <right_val>0.3767569959163666</right_val></_></_>
        <_>
          <_>
            <feature>
              <rects>
                <_>
                  12 0 1 16 -1.</_>
                <_>
                  12 4 1 8 2.</_></rects>
              <tilted>0</tilted></feature>
            <threshold>1.6979709471343085e-005</threshold>
            <left_val>-0.6696503162384033</left_val>
            <right_val>0.2441848963499069</right_val></_></_>
        <_>
          <_>
            <feature>
              <rects>
                <_>
                  6 6 12 16 -1.</_>
                <_>
                  6 10 12 8 2.</_></rects>
              <tilted>0</tilted></feature>
            <threshold>0.0116996401920915</threshold>
            <left_val>-0.7453851103782654</left_val>
            <right_val>0.2303968966007233</right_val></_></_>
        <_>
          <_>
            <feature>
              <rects>
                <_>
                  15 5 4 4 -1.</_>
                <_>
                  16 6 2 4 2.</_></rects>
              <tilted>1</tilted></feature>
            <threshold>-1.5499510336667299e-003</threshold>
            <left_val>0.1677787005901337</left_val>
            <right_val>-0.5520979762077332</right_val></_></_>
        <_>
          <_>
            <feature>
              <rects>
                <_>
                  0 5 10 6 -1.</_>
                <_>
                  0 7 10 2 3.</_></rects>
              <tilted>0</tilted></feature>
            <threshold>-6.4797368831932545e-003</threshold>
            <left_val>0.2717157900333405</left_val>
            <right_val>-0.7190198898315430</right_val></_></_>
        <_>
          <_>
            <feature>
              <rects>
                <_>
                  13 12 6 6 -1.</_>
                <_>
                  13 14 6 2 3.</_></rects>
              <tilted>0</tilted></feature>
            <threshold>-1.8674660241231322e-003</threshold>
            <left_val>0.1533609032630920</left_val>
            <right_val>-0.2102667987346649</right_val></_></_>
        <_>
          <_>
            <feature>
              <rects>
                <_>
                  7 8 6 2 -1.</_>
                <_>
                  10 8 3 2 2.</_></rects>
              <tilted>0</tilted></feature>
            <threshold>4.0344009175896645e-003</threshold>
            <left_val>-0.4975208044052124</left_val>
            <right_val>0.2442442029714584</right_val></_></_>
        <_>
          <_>
            <feature>
              <rects>
                <_>
                  13 13 6 4 -1.</_>
                <_>
                  13 14 6 2 2.</_></rects>
              <tilted>0</tilted></feature>
            <threshold>-0.0105201797559857</threshold>
            <left_val>-0.5153619050979614</left_val>
            <right_val>-0.0133883599191904</right_val></_></_>
        <_>
          <_>
            <feature>
              <rects>
                <_>
                  5 13 6 4 -1.</_>
                <_>
                  5 14 6 2 2.</_></rects>
              <tilted>0</tilted></feature>
            <threshold>-1.8449010894983076e-005</threshold>
            <left_val>0.2998529076576233</left_val>
            <right_val>-0.4766967892646790</right_val></_></_>
        <_>
          <_>
            <feature>
              <rects>
                <_>
                  13 0 2 1 -1.</_>
                <_>
                  13 0 1 1 2.</_></rects>
              <tilted>1</tilted></feature>
            <threshold>-1.3729700185649563e-005</threshold>
            <left_val>0.1931163072586060</left_val>
            <right_val>-0.3385609984397888</right_val></_></_>
        <_>
          <_>
            <feature>
              <rects>
                <_>
                  7 6 1 4 -1.</_>
                <_>
                  7 8 1 2 2.</_></rects>
              <tilted>0</tilted></feature>
            <threshold>-1.6367199350497685e-005</threshold>
            <left_val>0.2147936969995499</left_val>
            <right_val>-0.4192475974559784</right_val></_></_>
        <_>
          <_>
            <feature>
              <rects>
                <_>
                  13 11 8 2 -1.</_>
                <_>
                  13 12 8 1 2.</_></rects>
              <tilted>0</tilted></feature>
            <threshold>-6.7326982389204204e-005</threshold>
            <left_val>0.0937015265226364</left_val>
            <right_val>-0.1239959001541138</right_val></_></_>
        <_>
          <_>
            <feature>
              <rects>
                <_>
                  6 0 2 3 -1.</_>
                <_>
                  5 1 2 1 3.</_></rects>
              <tilted>1</tilted></feature>
            <threshold>-3.3126410562545061e-003</threshold>
            <left_val>-0.6840494275093079</left_val>
            <right_val>0.1247468963265419</right_val></_></_>
        <_>
          <_>
            <feature>
              <rects>
                <_>
                  13 11 8 2 -1.</_>
                <_>
                  13 12 8 1 2.</_></rects>
              <tilted>0</tilted></feature>
            <threshold>-7.5996499508619308e-003</threshold>
            <left_val>-0.3664866983890533</left_val>
            <right_val>0.0183221697807312</right_val></_></_>
        <_>
          <_>
            <feature>
              <rects>
                <_>
                  3 11 8 2 -1.</_>
                <_>
                  3 12 8 1 2.</_></rects>
              <tilted>0</tilted></feature>
            <threshold>-1.4683520021208096e-005</threshold>
            <left_val>0.2529526948928833</left_val>
            <right_val>-0.3284519910812378</right_val></_></_>
        <_>
          <_>
            <feature>
              <rects>
                <_>
                  15 2 2 5 -1.</_>
                <_>
                  15 2 1 5 2.</_></rects>
              <tilted>0</tilted></feature>
            <threshold>4.2294519953429699e-003</threshold>
            <left_val>0.0482082813978195</left_val>
            <right_val>-0.4721445143222809</right_val></_></_>
        <_>
          <_>
            <feature>
              <rects>
                <_>
                  7 2 2 5 -1.</_>
                <_>
                  8 2 1 5 2.</_></rects>
              <tilted>0</tilted></feature>
            <threshold>1.3812259567203000e-005</threshold>
            <left_val>-0.3679318130016327</left_val>
            <right_val>0.2191686034202576</right_val></_></_>
        <_>
          <_>
            <feature>
              <rects>
                <_>
                  8 17 8 6 -1.</_>
                <_>
                  8 20 8 3 2.</_></rects>
              <tilted>0</tilted></feature>
            <threshold>-0.0240862704813480</threshold>
            <left_val>0.4118781089782715</left_val>
            <right_val>-0.1989858001470566</right_val></_></_>
        <_>
          <_>
            <feature>
              <rects>
                <_>
                  7 5 3 3 -1.</_>
                <_>
                  8 5 1 3 3.</_></rects>
              <tilted>0</tilted></feature>
            <threshold>1.5871149953454733e-003</threshold>
            <left_val>0.1179366037249565</left_val>
            <right_val>-0.6628003120422363</right_val></_></_>
        <_>
          <_>
            <feature>
              <rects>
                <_>
                  22 7 2 3 -1.</_>
                <_>
                  22 8 2 1 3.</_></rects>
              <tilted>0</tilted></feature>
            <threshold>2.2882618941366673e-003</threshold>
            <left_val>0.0743285268545151</left_val>
            <right_val>-0.6013535261154175</right_val></_></_>
        <_>
          <_>
            <feature>
              <rects>
                <_>
                  0 7 2 3 -1.</_>
                <_>
                  0 8 2 1 3.</_></rects>
              <tilted>0</tilted></feature>
            <threshold>-2.4250980932265520e-003</threshold>
            <left_val>-0.6837667226791382</left_val>
            <right_val>0.1107473969459534</right_val></_></_>
        <_>
          <_>
            <feature>
              <rects>
                <_>
                  15 9 3 1 -1.</_>
                <_>
                  16 10 1 1 3.</_></rects>
              <tilted>1</tilted></feature>
            <threshold>2.9760519973933697e-003</threshold>
            <left_val>0.0452694818377495</left_val>
            <right_val>-0.3652769029140472</right_val></_></_>
        <_>
          <_>
            <feature>
              <rects>
                <_>
                  12 5 6 8 -1.</_>
                <_>
                  12 5 3 8 2.</_></rects>
              <tilted>1</tilted></feature>
            <threshold>-0.0462148301303387</threshold>
            <left_val>-0.6161733269691467</left_val>
            <right_val>0.0992452874779701</right_val></_></_></trees>
      <stage_threshold>-1.8872159719467163</stage_threshold>
      <parent>3</parent>
      <next>-1</next></_>
    <_>
      <trees>
        <_>
          <_>
            <feature>
              <rects>
                <_>
                  0 2 24 17 -1.</_>
                <_>
                  6 2 12 17 2.</_></rects>
              <tilted>0</tilted></feature>
            <threshold>0.2113042026758194</threshold>
            <left_val>-0.4605312943458557</left_val>
            <right_val>0.5668938755989075</right_val></_></_>
        <_>
          <_>
            <feature>
              <rects>
                <_>
                  14 5 8 4 -1.</_>
                <_>
                  18 5 4 2 2.</_>
                <_>
                  14 7 4 2 2.</_></rects>
              <tilted>0</tilted></feature>
            <threshold>-6.2531018629670143e-003</threshold>
            <left_val>0.4393033981323242</left_val>
            <right_val>-0.3481312990188599</right_val></_></_>
        <_>
          <_>
            <feature>
              <rects>
                <_>
                  7 8 2 2 -1.</_>
                <_>
                  7 9 2 1 2.</_></rects>
              <tilted>0</tilted></feature>
            <threshold>1.4023080002516508e-003</threshold>
            <left_val>-0.5744010806083679</left_val>
            <right_val>0.3243671953678131</right_val></_></_>
        <_>
          <_>
            <feature>
              <rects>
                <_>
                  15 6 4 5 -1.</_>
                <_>
                  16 7 2 5 2.</_></rects>
              <tilted>1</tilted></feature>
            <threshold>-1.1091700289398432e-003</threshold>
            <left_val>0.2625176012516022</left_val>
            <right_val>-0.2505621910095215</right_val></_></_>
        <_>
          <_>
            <feature>
              <rects>
                <_>
                  7 0 8 8 -1.</_>
                <_>
                  7 2 8 4 2.</_></rects>
              <tilted>0</tilted></feature>
            <threshold>0.0185003895312548</threshold>
            <left_val>-0.4446136057376862</left_val>
            <right_val>0.3260298073291779</right_val></_></_>
        <_>
          <_>
            <feature>
              <rects>
                <_>
                  12 2 6 5 -1.</_>
                <_>
                  14 4 2 5 3.</_></rects>
              <tilted>1</tilted></feature>
            <threshold>0.0463751889765263</threshold>
            <left_val>0.0181524902582169</left_val>
            <right_val>-0.5207666754722595</right_val></_></_>
        <_>
          <_>
            <feature>
              <rects>
                <_>
                  9 7 6 2 -1.</_>
                <_>
                  11 7 2 2 3.</_></rects>
              <tilted>0</tilted></feature>
            <threshold>3.7638449575752020e-003</threshold>
            <left_val>-0.4264540076255798</left_val>
            <right_val>0.3319525122642517</right_val></_></_>
        <_>
          <_>
            <feature>
              <rects>
                <_>
                  15 7 3 5 -1.</_>
                <_>
                  16 8 1 5 3.</_></rects>
              <tilted>1</tilted></feature>
            <threshold>-0.0159119497984648</threshold>
            <left_val>-0.5584921240806580</left_val>
            <right_val>-0.0220868401229382</right_val></_></_>
        <_>
          <_>
            <feature>
              <rects>
                <_>
                  9 7 5 3 -1.</_>
                <_>
                  8 8 5 1 3.</_></rects>
              <tilted>1</tilted></feature>
            <threshold>-1.5347399748861790e-003</threshold>
            <left_val>0.2981239855289459</left_val>
            <right_val>-0.3360356986522675</right_val></_></_>
        <_>
          <_>
            <feature>
              <rects>
                <_>
                  12 12 6 4 -1.</_>
                <_>
                  12 14 6 2 2.</_></rects>
              <tilted>0</tilted></feature>
            <threshold>-1.9539950881153345e-003</threshold>
            <left_val>0.1659629940986633</left_val>
            <right_val>-0.2680402994155884</right_val></_></_>
        <_>
          <_>
            <feature>
              <rects>
                <_>
                  0 9 14 2 -1.</_>
                <_>
                  0 10 14 1 2.</_></rects>
              <tilted>0</tilted></feature>
            <threshold>1.0101849911734462e-003</threshold>
            <left_val>-0.6642444133758545</left_val>
            <right_val>0.1299237012863159</right_val></_></_>
        <_>
          <_>
            <feature>
              <rects>
                <_>
                  16 12 2 2 -1.</_>
                <_>
                  16 13 2 1 2.</_></rects>
              <tilted>0</tilted></feature>
            <threshold>-4.7409529797732830e-003</threshold>
            <left_val>-0.8741819262504578</left_val>
            <right_val>1.0048210388049483e-003</right_val></_></_>
        <_>
          <_>
            <feature>
              <rects>
                <_>
                  6 12 2 2 -1.</_>
                <_>
                  6 13 2 1 2.</_></rects>
              <tilted>0</tilted></feature>
            <threshold>-1.3092149856674951e-005</threshold>
            <left_val>0.2135055959224701</left_val>
            <right_val>-0.4447191953659058</right_val></_></_>
        <_>
          <_>
            <feature>
              <rects>
                <_>
                  5 17 14 4 -1.</_>
                <_>
                  5 19 14 2 2.</_></rects>
              <tilted>0</tilted></feature>
            <threshold>-8.2203056663274765e-003</threshold>
            <left_val>0.3087171018123627</left_val>
            <right_val>-0.3061282038688660</right_val></_></_>
        <_>
          <_>
            <feature>
              <rects>
                <_>
                  0 6 4 6 -1.</_>
                <_>
                  0 8 4 2 3.</_></rects>
              <tilted>0</tilted></feature>
            <threshold>-7.4769500643014908e-003</threshold>
            <left_val>-0.5425735712051392</left_val>
            <right_val>0.1724849939346314</right_val></_></_>
        <_>
          <_>
            <feature>
              <rects>
                <_>
                  16 6 1 4 -1.</_>
                <_>
                  16 8 1 2 2.</_></rects>
              <tilted>0</tilted></feature>
            <threshold>4.1485211113467813e-004</threshold>
            <left_val>-0.1332270950078964</left_val>
            <right_val>0.1468155980110169</right_val></_></_>
        <_>
          <_>
            <feature>
              <rects>
                <_>
                  7 6 1 4 -1.</_>
                <_>
                  7 8 1 2 2.</_></rects>
              <tilted>0</tilted></feature>
            <threshold>1.1548380134627223e-003</threshold>
            <left_val>0.1490229964256287</left_val>
            <right_val>-0.6037049293518066</right_val></_></_>
        <_>
          <_>
            <feature>
              <rects>
                <_>
                  14 2 3 5 -1.</_>
                <_>
                  15 2 1 5 3.</_></rects>
              <tilted>0</tilted></feature>
            <threshold>4.8095188103616238e-003</threshold>
            <left_val>0.0369830206036568</left_val>
            <right_val>-0.7042796015739441</right_val></_></_>
        <_>
          <_>
            <feature>
              <rects>
                <_>
                  7 2 3 5 -1.</_>
                <_>
                  8 2 1 5 3.</_></rects>
              <tilted>0</tilted></feature>
            <threshold>-3.7062061019241810e-003</threshold>
            <left_val>-0.8429303169250488</left_val>
            <right_val>0.0749181509017944</right_val></_></_>
        <_>
          <_>
            <feature>
              <rects>
                <_>
                  12 14 4 3 -1.</_>
                <_>
                  12 15 4 1 3.</_></rects>
              <tilted>0</tilted></feature>
            <threshold>-2.7250070124864578e-003</threshold>
            <left_val>0.2606151103973389</left_val>
            <right_val>-0.1354427039623261</right_val></_></_>
        <_>
          <_>
            <feature>
              <rects>
                <_>
                  11 3 4 4 -1.</_>
                <_>
                  10 4 4 2 2.</_></rects>
              <tilted>1</tilted></feature>
            <threshold>2.0299460738897324e-003</threshold>
            <left_val>-0.3671531081199646</left_val>
            <right_val>0.1931249052286148</right_val></_></_>
        <_>
          <_>
            <feature>
              <rects>
                <_>
                  11 11 7 6 -1.</_>
                <_>
                  11 14 7 3 2.</_></rects>
              <tilted>0</tilted></feature>
            <threshold>-0.0409610606729984</threshold>
            <left_val>-0.5776063203811646</left_val>
            <right_val>0.0403329804539680</right_val></_></_></trees>
      <stage_threshold>-1.6968729496002197</stage_threshold>
      <parent>4</parent>
      <next>-1</next></_>
    <_>
      <trees>
        <_>
          <_>
            <feature>
              <rects>
                <_>
                  0 0 24 9 -1.</_>
                <_>
                  8 3 8 3 9.</_></rects>
              <tilted>0</tilted></feature>
            <threshold>0.4195347130298615</threshold>
            <left_val>-0.3545058071613312</left_val>
            <right_val>0.5996295213699341</right_val></_></_>
        <_>
          <_>
            <feature>
              <rects>
                <_>
                  16 8 1 2 -1.</_>
                <_>
                  16 9 1 1 2.</_></rects>
              <tilted>0</tilted></feature>
            <threshold>7.0322508690878749e-004</threshold>
            <left_val>-0.2235118001699448</left_val>
            <right_val>0.3331617116928101</right_val></_></_>
        <_>
          <_>
            <feature>
              <rects>
                <_>
                  7 8 1 2 -1.</_>
                <_>
                  7 9 1 1 2.</_></rects>
              <tilted>0</tilted></feature>
            <threshold>1.0366369970142841e-003</threshold>
            <left_val>-0.4888049960136414</left_val>
            <right_val>0.3302103877067566</right_val></_></_>
        <_>
          <_>
            <feature>
              <rects>
                <_>
                  20 6 3 7 -1.</_>
                <_>
                  21 7 1 7 3.</_></rects>
              <tilted>1</tilted></feature>
            <threshold>3.7274509668350220e-003</threshold>
            <left_val>-0.1857541054487228</left_val>
            <right_val>0.2006527036428452</right_val></_></_>
        <_>
          <_>
            <feature>
              <rects>
                <_>
                  4 6 7 3 -1.</_>
                <_>
                  3 7 7 1 3.</_></rects>
              <tilted>1</tilted></feature>
            <threshold>4.4366419315338135e-003</threshold>
            <left_val>-0.4135406017303467</left_val>
            <right_val>0.2645317018032074</right_val></_></_>
        <_>
          <_>
            <feature>
              <rects>
                <_>
                  9 7 6 4 -1.</_>
                <_>
                  11 7 2 4 3.</_></rects>
              <tilted>0</tilted></feature>
            <threshold>9.0764602646231651e-003</threshold>
            <left_val>-0.2961832880973816</left_val>
            <right_val>0.3345994055271149</right_val></_></_>
        <_>
          <_>
            <feature>
              <rects>
                <_>
                  4 1 7 9 -1.</_>
                <_>
                  4 4 7 3 3.</_></rects>
              <tilted>0</tilted></feature>
            <threshold>0.0137567203491926</threshold>
            <left_val>-0.4429233074188232</left_val>
            <right_val>0.2082431018352509</right_val></_></_>
        <_>
          <_>
            <feature>
              <rects>
                <_>
                  18 10 3 3 -1.</_>
                <_>
                  18 11 3 1 3.</_></rects>
              <tilted>0</tilted></feature>
            <threshold>-1.9413910340517759e-003</threshold>
            <left_val>-0.5734331011772156</left_val>
            <right_val>0.1148015037178993</right_val></_></_>
        <_>
          <_>
            <feature>
              <rects>
                <_>
                  9 0 3 5 -1.</_>
                <_>
                  10 0 1 5 3.</_></rects>
              <tilted>0</tilted></feature>
            <threshold>-2.5159129872918129e-003</threshold>
            <left_val>-0.7176502943038940</left_val>
            <right_val>0.0911214202642441</right_val></_></_>
        <_>
          <_>
            <feature>
              <rects>
                <_>
                  13 15 8 2 -1.</_>
                <_>
                  17 15 4 1 2.</_>
                <_>
                  13 16 4 1 2.</_></rects>
              <tilted>0</tilted></feature>
            <threshold>1.3953309971839190e-003</threshold>
            <left_val>-0.1233263984322548</left_val>
            <right_val>0.1664731949567795</right_val></_></_>
        <_>
          <_>
            <feature>
              <rects>
                <_>
                  8 0 3 7 -1.</_>
                <_>
                  9 0 1 7 3.</_></rects>
              <tilted>0</tilted></feature>
            <threshold>-3.0802208930253983e-003</threshold>
            <left_val>-0.7340530157089233</left_val>
            <right_val>0.1095532029867172</right_val></_></_>
        <_>
          <_>
            <feature>
              <rects>
                <_>
                  12 9 10 2 -1.</_>
                <_>
                  12 10 10 1 2.</_></rects>
              <tilted>0</tilted></feature>
            <threshold>2.2191209718585014e-003</threshold>
            <left_val>-0.2022704035043716</left_val>
            <right_val>0.1376166045665741</right_val></_></_>
        <_>
          <_>
            <feature>
              <rects>
                <_>
                  2 8 8 4 -1.</_>
                <_>
                  2 10 8 2 2.</_></rects>
              <tilted>0</tilted></feature>
            <threshold>9.6742939203977585e-003</threshold>
            <left_val>-0.5181882977485657</left_val>
            <right_val>0.1439214944839478</right_val></_></_>
        <_>
          <_>
            <feature>
              <rects>
                <_>
                  12 6 2 10 -1.</_>
                <_>
                  12 11 2 5 2.</_></rects>
              <tilted>0</tilted></feature>
            <threshold>0.0111433397978544</threshold>
            <left_val>0.1082701981067658</left_val>
            <right_val>-0.4524131119251251</right_val></_></_>
        <_>
          <_>
            <feature>
              <rects>
                <_>
                  0 8 7 4 -1.</_>
                <_>
                  0 9 7 2 2.</_></rects>
              <tilted>0</tilted></feature>
            <threshold>0.0119337001815438</threshold>
            <left_val>0.0938714966177940</left_val>
            <right_val>-0.7593101263046265</right_val></_></_>
        <_>
          <_>
            <feature>
              <rects>
                <_>
                  11 2 3 6 -1.</_>
                <_>
                  12 2 1 6 3.</_></rects>
              <tilted>0</tilted></feature>
            <threshold>8.0542033538222313e-003</threshold>
            <left_val>0.0196683499962091</left_val>
            <right_val>-0.7666708230972290</right_val></_></_>
        <_>
          <_>
            <feature>
              <rects>
                <_>
                  8 15 6 6 -1.</_>
                <_>
                  8 17 6 2 3.</_></rects>
              <tilted>0</tilted></feature>
            <threshold>0.0117064099758863</threshold>
            <left_val>-0.2125464975833893</left_val>
            <right_val>0.3350518941879273</right_val></_></_>
        <_>
          <_>
            <feature>
              <rects>
                <_>
                  15 0 3 1 -1.</_>
                <_>
                  16 1 1 1 3.</_></rects>
              <tilted>1</tilted></feature>
            <threshold>-2.1447930485010147e-003</threshold>
            <left_val>-0.5446845293045044</left_val>
            <right_val>0.1076494976878166</right_val></_></_>
        <_>
          <_>
            <feature>
              <rects>
                <_>
                  7 7 10 12 -1.</_>
                <_>
                  7 10 10 6 2.</_></rects>
              <tilted>0</tilted></feature>
            <threshold>-0.0142482602968812</threshold>
            <left_val>-0.7698143124580383</left_val>
            <right_val>0.0845857188105583</right_val></_></_>
        <_>
          <_>
            <feature>
              <rects>
                <_>
                  13 4 4 6 -1.</_>
                <_>
                  13 4 2 6 2.</_></rects>
              <tilted>0</tilted></feature>
            <threshold>0.0205782502889633</threshold>
            <left_val>0.0142749603837729</left_val>
            <right_val>-0.5395308136940002</right_val></_></_>
        <_>
          <_>
            <feature>
              <rects>
                <_>
                  8 8 4 8 -1.</_>
                <_>
                  8 12 4 4 2.</_></rects>
              <tilted>0</tilted></feature>
            <threshold>8.2511566579341888e-003</threshold>
            <left_val>0.1692887991666794</left_val>
            <right_val>-0.4113827943801880</right_val></_></_>
        <_>
          <_>
            <feature>
              <rects>
                <_>
                  15 0 3 1 -1.</_>
                <_>
                  16 1 1 1 3.</_></rects>
              <tilted>1</tilted></feature>
            <threshold>5.8326618745923042e-003</threshold>
            <left_val>0.0175203792750835</left_val>
            <right_val>-0.7562968134880066</right_val></_></_>
        <_>
          <_>
            <feature>
              <rects>
                <_>
                  9 0 1 3 -1.</_>
                <_>
                  8 1 1 1 3.</_></rects>
              <tilted>1</tilted></feature>
            <threshold>-2.4603069759905338e-003</threshold>
            <left_val>-0.7102388739585877</left_val>
            <right_val>0.0977087169885635</right_val></_></_>
        <_>
          <_>
            <feature>
              <rects>
                <_>
                  16 13 8 4 -1.</_>
                <_>
                  16 14 8 2 2.</_></rects>
              <tilted>0</tilted></feature>
            <threshold>-0.0112460600212216</threshold>
            <left_val>-0.6625788807868958</left_val>
            <right_val>0.0311867501586676</right_val></_></_>
        <_>
          <_>
            <feature>
              <rects>
                <_>
                  0 3 6 4 -1.</_>
                <_>
                  0 4 6 2 2.</_></rects>
              <tilted>0</tilted></feature>
            <threshold>7.7346768230199814e-003</threshold>
            <left_val>0.0841566622257233</left_val>
            <right_val>-0.7007169723510742</right_val></_></_></trees>
      <stage_threshold>-1.5623420476913452</stage_threshold>
      <parent>5</parent>
      <next>-1</next></_>
    <_>
      <trees>
        <_>
          <_>
            <feature>
              <rects>
                <_>
                  5 0 14 4 -1.</_>
                <_>
                  5 2 14 2 2.</_></rects>
              <tilted>0</tilted></feature>
            <threshold>0.0224626008421183</threshold>
            <left_val>-0.4739787876605988</left_val>
            <right_val>0.4087019860744476</right_val></_></_>
        <_>
          <_>
            <feature>
              <rects>
                <_>
                  3 18 18 1 -1.</_>
                <_>
                  9 18 6 1 3.</_></rects>
              <tilted>0</tilted></feature>
            <threshold>0.0143786203116179</threshold>
            <left_val>-0.3088541030883789</left_val>
            <right_val>0.5516692996025085</right_val></_></_>
        <_>
          <_>
            <feature>
              <rects>
                <_>
                  8 4 8 6 -1.</_>
                <_>
                  10 4 4 6 2.</_></rects>
              <tilted>0</tilted></feature>
            <threshold>7.4657518416643143e-003</threshold>
            <left_val>-0.5884029269218445</left_val>
            <right_val>0.2532348036766052</right_val></_></_>
        <_>
          <_>
            <feature>
              <rects>
                <_>
                  15 7 3 3 -1.</_>
                <_>
                  16 8 1 1 9.</_></rects>
              <tilted>0</tilted></feature>
            <threshold>-5.5369418114423752e-003</threshold>
            <left_val>0.2712453007698059</left_val>
            <right_val>-0.0813402086496353</right_val></_></_>
        <_>
          <_>
            <feature>
              <rects>
                <_>
                  1 8 13 2 -1.</_>
                <_>
                  1 9 13 1 2.</_></rects>
              <tilted>0</tilted></feature>
            <threshold>4.3118959292769432e-003</threshold>
            <left_val>-0.5331922769546509</left_val>
            <right_val>0.1716686934232712</right_val></_></_>
        <_>
          <_>
            <feature>
              <rects>
                <_>
                  16 6 6 4 -1.</_>
                <_>
                  19 6 3 2 2.</_>
                <_>
                  16 8 3 2 2.</_></rects>
              <tilted>0</tilted></feature>
            <threshold>-5.4173548705875874e-003</threshold>
            <left_val>0.1481285989284515</left_val>
            <right_val>-0.0557912588119507</right_val></_></_>
        <_>
          <_>
            <feature>
              <rects>
                <_>
                  6 12 4 4 -1.</_>
                <_>
                  6 14 4 2 2.</_></rects>
              <tilted>0</tilted></feature>
            <threshold>-7.1795767871662974e-004</threshold>
            <left_val>0.1607757061719894</left_val>
            <right_val>-0.5515850782394409</right_val></_></_>
        <_>
          <_>
            <feature>
              <rects>
                <_>
                  16 6 6 4 -1.</_>
                <_>
                  19 6 3 2 2.</_>
                <_>
                  16 8 3 2 2.</_></rects>
              <tilted>0</tilted></feature>
            <threshold>2.6575750671327114e-003</threshold>
            <left_val>-0.0560567192733288</left_val>
            <right_val>0.1502432972192764</right_val></_></_>
        <_>
          <_>
            <feature>
              <rects>
                <_>
                  2 6 6 4 -1.</_>
                <_>
                  2 6 3 2 2.</_>
                <_>
                  5 8 3 2 2.</_></rects>
              <tilted>0</tilted></feature>
            <threshold>-2.6207379996776581e-003</threshold>
            <left_val>0.2554886937141419</left_val>
            <right_val>-0.3731069862842560</right_val></_></_>
        <_>
          <_>
            <feature>
              <rects>
                <_>
                  20 6 3 3 -1.</_>
                <_>
                  20 7 3 1 3.</_></rects>
              <tilted>0</tilted></feature>
            <threshold>3.0388829763978720e-003</threshold>
            <left_val>0.0700001865625381</left_val>
            <right_val>-0.5991349220275879</right_val></_></_>
        <_>
          <_>
            <feature>
              <rects>
                <_>
                  11 3 1 2 -1.</_>
                <_>
                  11 3 1 1 2.</_></rects>
              <tilted>1</tilted></feature>
            <threshold>1.6861440381035209e-003</threshold>
            <left_val>0.0923514366149902</left_val>
            <right_val>-0.6801649928092957</right_val></_></_>
        <_>
          <_>
            <feature>
              <rects>
                <_>
                  17 3 4 7 -1.</_>
                <_>
                  18 4 2 7 2.</_></rects>
              <tilted>1</tilted></feature>
            <threshold>-2.7243921067565680e-003</threshold>
            <left_val>0.1750435978174210</left_val>
            <right_val>-0.2391252964735031</right_val></_></_>
        <_>
          <_>
            <feature>
              <rects>
                <_>
                  7 3 7 4 -1.</_>
                <_>
                  6 4 7 2 2.</_></rects>
              <tilted>1</tilted></feature>
            <threshold>-2.0023540128022432e-003</threshold>
            <left_val>0.1512255966663361</left_val>
            <right_val>-0.4837558865547180</right_val></_></_>
        <_>
          <_>
            <feature>
              <rects>
                <_>
                  11 9 3 2 -1.</_>
                <_>
                  11 10 3 1 2.</_></rects>
              <tilted>0</tilted></feature>
            <threshold>-1.2371350312605500e-003</threshold>
            <left_val>-0.4989776015281677</left_val>
            <right_val>0.0795791223645210</right_val></_></_>
        <_>
          <_>
            <feature>
              <rects>
                <_>
                  1 19 20 4 -1.</_>
                <_>
                  6 19 10 4 2.</_></rects>
              <tilted>0</tilted></feature>
            <threshold>-0.0438209697604179</threshold>
            <left_val>0.5241923928260803</left_val>
            <right_val>-0.1384941935539246</right_val></_></_>
        <_>
          <_>
            <feature>
              <rects>
                <_>
                  18 3 6 13 -1.</_>
                <_>
                  18 3 3 13 2.</_></rects>
              <tilted>0</tilted></feature>
            <threshold>0.0280843693763018</threshold>
            <left_val>-0.1966845989227295</left_val>
            <right_val>0.3892078101634979</right_val></_></_>
        <_>
          <_>
            <feature>
              <rects>
                <_>
                  0 2 6 14 -1.</_>
                <_>
                  3 2 3 14 2.</_></rects>
              <tilted>0</tilted></feature>
            <threshold>0.0417633801698685</threshold>
            <left_val>-0.1643701046705246</left_val>
            <right_val>0.4284381866455078</right_val></_></_>
        <_>
          <_>
            <feature>
              <rects>
                <_>
                  18 0 3 4 -1.</_>
                <_>
                  19 1 1 4 3.</_></rects>
              <tilted>1</tilted></feature>
            <threshold>0.0107515500858426</threshold>
            <left_val>0.0487342700362206</left_val>
            <right_val>-0.7367706894874573</right_val></_></_>
        <_>
          <_>
            <feature>
              <rects>
                <_>
                  6 0 3 3 -1.</_>
                <_>
                  5 1 3 1 3.</_></rects>
              <tilted>1</tilted></feature>
            <threshold>5.6092068552970886e-003</threshold>
            <left_val>0.1047710031270981</left_val>
            <right_val>-0.6050981879234314</right_val></_></_>
        <_>
          <_>
            <feature>
              <rects>
                <_>
                  12 14 4 3 -1.</_>
                <_>
                  12 15 4 1 3.</_></rects>
              <tilted>0</tilted></feature>
            <threshold>-2.8204140253365040e-003</threshold>
            <left_val>0.1958331018686295</left_val>
            <right_val>-0.1227094009518623</right_val></_></_>
        <_>
          <_>
            <feature>
              <rects>
                <_>
                  1 9 10 2 -1.</_>
                <_>
                  1 10 10 1 2.</_></rects>
              <tilted>0</tilted></feature>
            <threshold>6.8676751106977463e-004</threshold>
            <left_val>-0.6567441225051880</left_val>
            <right_val>0.0924004688858986</right_val></_></_>
        <_>
          <_>
            <feature>
              <rects>
                <_>
                  14 6 4 4 -1.</_>
                <_>
                  14 6 2 4 2.</_></rects>
              <tilted>1</tilted></feature>
            <threshold>-0.0244290307164192</threshold>
            <left_val>-0.6441913247108460</left_val>
            <right_val>0.0338798910379410</right_val></_></_>
        <_>
          <_>
            <feature>
              <rects>
                <_>
                  0 8 5 6 -1.</_>
                <_>
                  0 10 5 2 3.</_></rects>
              <tilted>0</tilted></feature>
            <threshold>0.0214510597288609</threshold>
            <left_val>0.0840248912572861</left_val>
            <right_val>-0.6817446947097778</right_val></_></_>
        <_>
          <_>
            <feature>
              <rects>
                <_>
                  17 12 2 2 -1.</_>
                <_>
                  17 13 2 1 2.</_></rects>
              <tilted>0</tilted></feature>
            <threshold>-1.2990250070288312e-005</threshold>
            <left_val>0.1088199988007546</left_val>
            <right_val>-0.2001681029796600</right_val></_></_>
        <_>
          <_>
            <feature>
              <rects>
                <_>
                  1 13 16 6 -1.</_>
                <_>
                  1 15 16 2 3.</_></rects>
              <tilted>0</tilted></feature>
            <threshold>-0.0500118881464005</threshold>
            <left_val>-0.7548456192016602</left_val>
            <right_val>0.0748778805136681</right_val></_></_>
        <_>
          <_>
            <feature>
              <rects>
                <_>
                  12 14 4 3 -1.</_>
                <_>
                  12 15 4 1 3.</_></rects>
              <tilted>0</tilted></feature>
            <threshold>2.0229169167578220e-003</threshold>
            <left_val>-0.0925398766994476</left_val>
            <right_val>0.2427169978618622</right_val></_></_>
        <_>
          <_>
            <feature>
              <rects>
                <_>
                  8 14 4 3 -1.</_>
                <_>
                  8 15 4 1 3.</_></rects>
              <tilted>0</tilted></feature>
            <threshold>-2.9537829104810953e-003</threshold>
            <left_val>0.3912302851676941</left_val>
            <right_val>-0.2230501025915146</right_val></_></_></trees>
      <stage_threshold>-1.6069380044937134</stage_threshold>
      <parent>6</parent>
      <next>-1</next></_>
    <_>
      <trees>
        <_>
          <_>
            <feature>
              <rects>
                <_>
                  6 7 3 3 -1.</_>
                <_>
                  7 8 1 1 9.</_></rects>
              <tilted>0</tilted></feature>
            <threshold>-7.6471851207315922e-003</threshold>
            <left_val>0.3352799117565155</left_val>
            <right_val>-0.5230563282966614</right_val></_></_>
        <_>
          <_>
            <feature>
              <rects>
                <_>
                  2 3 20 3 -1.</_>
                <_>
                  7 3 10 3 2.</_></rects>
              <tilted>0</tilted></feature>
            <threshold>0.0407566688954830</threshold>
            <left_val>-0.4146048128604889</left_val>
            <right_val>0.3958855867385864</right_val></_></_>
        <_>
          <_>
            <feature>
              <rects>
                <_>
                  5 15 6 4 -1.</_>
                <_>
                  5 15 3 2 2.</_>
                <_>
                  8 17 3 2 2.</_></rects>
              <tilted>0</tilted></feature>
            <threshold>3.4224409610033035e-003</threshold>
            <left_val>-0.3006389141082764</left_val>
            <right_val>0.4267022907733917</right_val></_></_>
        <_>
          <_>
            <feature>
              <rects>
                <_>
                  16 12 4 2 -1.</_>
                <_>
                  16 13 4 1 2.</_></rects>
              <tilted>0</tilted></feature>
            <threshold>-3.6969988286728039e-005</threshold>
            <left_val>0.2072543948888779</left_val>
            <right_val>-0.2564992010593414</right_val></_></_>
        <_>
          <_>
            <feature>
              <rects>
                <_>
                  9 6 2 3 -1.</_>
                <_>
                  10 6 1 3 2.</_></rects>
              <tilted>0</tilted></feature>
            <threshold>7.2354561416432261e-004</threshold>
            <left_val>-0.5453978776931763</left_val>
            <right_val>0.1899089068174362</right_val></_></_>
        <_>
          <_>
            <feature>
              <rects>
                <_>
                  16 12 4 2 -1.</_>
                <_>
                  16 13 4 1 2.</_></rects>
              <tilted>0</tilted></feature>
            <threshold>-6.8598440848290920e-003</threshold>
            <left_val>-0.7151417136192322</left_val>
            <right_val>5.3598731756210327e-003</right_val></_></_>
        <_>
          <_>
            <feature>
              <rects>
                <_>
                  4 12 4 2 -1.</_>
                <_>
                  4 13 4 1 2.</_></rects>
              <tilted>0</tilted></feature>
            <threshold>-3.8008869159966707e-004</threshold>
            <left_val>0.2337522953748703</left_val>
            <right_val>-0.4879199862480164</right_val></_></_>
        <_>
          <_>
            <feature>
              <rects>
                <_>
                  4 7 16 12 -1.</_>
                <_>
                  4 10 16 6 2.</_></rects>
              <tilted>0</tilted></feature>
            <threshold>0.0235433503985405</threshold>
            <left_val>-0.5583673715591431</left_val>
            <right_val>0.1024231016635895</right_val></_></_>
        <_>
          <_>
            <feature>
              <rects>
                <_>
                  7 4 3 4 -1.</_>
                <_>
                  7 5 3 2 2.</_></rects>
              <tilted>0</tilted></feature>
            <threshold>2.1916490513831377e-003</threshold>
            <left_val>-0.3336254060268402</left_val>
            <right_val>0.2326795011758804</right_val></_></_>
        <_>
          <_>
            <feature>
              <rects>
                <_>
                  15 8 3 1 -1.</_>
                <_>
                  16 9 1 1 3.</_></rects>
              <tilted>1</tilted></feature>
            <threshold>3.6874650977551937e-003</threshold>
            <left_val>0.0522068887948990</left_val>
            <right_val>-0.3982917070388794</right_val></_></_>
        <_>
          <_>
            <feature>
              <rects>
                <_>
                  9 8 1 3 -1.</_>
                <_>
                  8 9 1 1 3.</_></rects>
              <tilted>1</tilted></feature>
            <threshold>3.4428508952260017e-003</threshold>
            <left_val>0.1045548021793366</left_val>
            <right_val>-0.7084078192710877</right_val></_></_>
        <_>
          <_>
            <feature>
              <rects>
                <_>
                  11 10 11 8 -1.</_>
                <_>
                  11 12 11 4 2.</_></rects>
              <tilted>0</tilted></feature>
            <threshold>0.0122938696295023</threshold>
            <left_val>0.0509175583720207</left_val>
            <right_val>-0.2098471969366074</right_val></_></_>
        <_>
          <_>
            <feature>
              <rects>
                <_>
                  6 0 3 3 -1.</_>
                <_>
                  5 1 3 1 3.</_></rects>
              <tilted>1</tilted></feature>
            <threshold>-4.3872240930795670e-003</threshold>
            <left_val>-0.7702981233596802</left_val>
            <right_val>0.0885661691427231</right_val></_></_>
        <_>
          <_>
            <feature>
              <rects>
                <_>
                  11 10 11 8 -1.</_>
                <_>
                  11 12 11 4 2.</_></rects>
              <tilted>0</tilted></feature>
            <threshold>-0.0775780007243156</threshold>
            <left_val>-0.6707534193992615</left_val>
            <right_val>-6.4526540227234364e-003</right_val></_></_>
        <_>
          <_>
            <feature>
              <rects>
                <_>
                  2 10 11 8 -1.</_>
                <_>
                  2 12 11 4 2.</_></rects>
              <tilted>0</tilted></feature>
            <threshold>0.0145287299528718</threshold>
            <left_val>0.1482775062322617</left_val>
            <right_val>-0.5291162133216858</right_val></_></_>
        <_>
          <_>
            <feature>
              <rects>
                <_>
                  14 9 2 1 -1.</_>
                <_>
                  14 9 1 1 2.</_></rects>
              <tilted>1</tilted></feature>
            <threshold>-3.3584790799068287e-005</threshold>
            <left_val>0.0778800472617149</left_val>
            <right_val>-0.1291553974151611</right_val></_></_>
        <_>
          <_>
            <feature>
              <rects>
                <_>
                  10 9 1 2 -1.</_>
                <_>
                  10 9 1 1 2.</_></rects>
              <tilted>1</tilted></feature>
            <threshold>-1.3891150592826307e-004</threshold>
            <left_val>0.1587184965610504</left_val>
            <right_val>-0.4322035014629364</right_val></_></_>
        <_>
          <_>
            <feature>
              <rects>
                <_>
                  14 6 4 4 -1.</_>
                <_>
                  14 6 2 4 2.</_></rects>
              <tilted>1</tilted></feature>
            <threshold>-0.0257208608090878</threshold>
            <left_val>-0.6027628779411316</left_val>
            <right_val>9.2927552759647369e-003</right_val></_></_>
        <_>
          <_>
            <feature>
              <rects>
                <_>
                  10 6 4 4 -1.</_>
                <_>
                  10 6 4 2 2.</_></rects>
              <tilted>1</tilted></feature>
            <threshold>-0.0193931404501200</threshold>
            <left_val>-0.7525398731231690</left_val>
            <right_val>0.0841418877243996</right_val></_></_>
        <_>
          <_>
            <feature>
              <rects>
                <_>
                  8 4 9 12 -1.</_>
                <_>
                  8 10 9 6 2.</_></rects>
              <tilted>0</tilted></feature>
            <threshold>-0.0562919490039349</threshold>
            <left_val>-0.7521389722824097</left_val>
            <right_val>0.0659528002142906</right_val></_></_>
        <_>
          <_>
            <feature>
              <rects>
                <_>
                  9 18 5 6 -1.</_>
                <_>
                  9 20 5 2 3.</_></rects>
              <tilted>0</tilted></feature>
            <threshold>-3.6640109028667212e-003</threshold>
            <left_val>0.2398191988468170</left_val>
            <right_val>-0.2653096020221710</right_val></_></_>
        <_>
          <_>
            <feature>
              <rects>
                <_>
                  14 4 3 4 -1.</_>
                <_>
                  15 4 1 4 3.</_></rects>
              <tilted>0</tilted></feature>
            <threshold>1.4024779666215181e-003</threshold>
            <left_val>0.0840202867984772</left_val>
            <right_val>-0.3683071136474609</right_val></_></_>
        <_>
          <_>
            <feature>
              <rects>
                <_>
                  8 1 8 6 -1.</_>
                <_>
                  8 3 8 2 3.</_></rects>
              <tilted>0</tilted></feature>
            <threshold>6.1927298083901405e-003</threshold>
            <left_val>-0.2990449070930481</left_val>
            <right_val>0.1988513022661209</right_val></_></_>
        <_>
          <_>
            <feature>
              <rects>
                <_>
                  14 4 3 4 -1.</_>
                <_>
                  15 4 1 4 3.</_></rects>
              <tilted>0</tilted></feature>
            <threshold>-1.8232869915664196e-003</threshold>
            <left_val>-0.3420229852199554</left_val>
            <right_val>0.0852765664458275</right_val></_></_>
        <_>
          <_>
            <feature>
              <rects>
                <_>
                  7 4 3 4 -1.</_>
                <_>
                  8 4 1 4 3.</_></rects>
              <tilted>0</tilted></feature>
            <threshold>2.0119210239499807e-003</threshold>
            <left_val>0.0961253866553307</left_val>
            <right_val>-0.6023650169372559</right_val></_></_>
        <_>
          <_>
            <feature>
              <rects>
                <_>
                  14 3 4 11 -1.</_>
                <_>
                  15 4 2 11 2.</_></rects>
              <tilted>1</tilted></feature>
            <threshold>6.6610891371965408e-003</threshold>
            <left_val>-0.1152679026126862</left_val>
            <right_val>0.0731147229671478</right_val></_></_>
        <_>
          <_>
            <feature>
              <rects>
                <_>
                  10 12 3 3 -1.</_>
                <_>
                  10 13 3 1 3.</_></rects>
              <tilted>0</tilted></feature>
            <threshold>2.8248240705579519e-003</threshold>
            <left_val>-0.1426659971475601</left_val>
            <right_val>0.4077734947204590</right_val></_></_>
        <_>
          <_>
            <feature>
              <rects>
                <_>
                  20 1 4 3 -1.</_>
                <_>
                  20 2 4 1 3.</_></rects>
              <tilted>0</tilted></feature>
            <threshold>4.3085929937660694e-003</threshold>
            <left_val>0.0795006006956100</left_val>
            <right_val>-0.5269799232482910</right_val></_></_>
        <_>
          <_>
            <feature>
              <rects>
                <_>
                  4 0 4 2 -1.</_>
                <_>
                  4 0 4 1 2.</_></rects>
              <tilted>1</tilted></feature>
            <threshold>6.3972361385822296e-003</threshold>
            <left_val>0.0793776884675026</left_val>
            <right_val>-0.6420418024063110</right_val></_></_>
        <_>
          <_>
            <feature>
              <rects>
                <_>
                  17 8 3 2 -1.</_>
                <_>
                  18 8 1 2 3.</_></rects>
              <tilted>0</tilted></feature>
            <threshold>-2.5777250993996859e-003</threshold>
            <left_val>-0.4486283957958221</left_val>
            <right_val>0.0310030896216631</right_val></_></_>
        <_>
          <_>
            <feature>
              <rects>
                <_>
                  6 7 12 10 -1.</_>
                <_>
                  6 7 6 5 2.</_>
                <_>
                  12 12 6 5 2.</_></rects>
              <tilted>0</tilted></feature>
            <threshold>-0.0208434201776981</threshold>
            <left_val>-0.4175733923912048</left_val>
            <right_val>0.1332965046167374</right_val></_></_></trees>
      <stage_threshold>-1.5854879617691040</stage_threshold>
      <parent>7</parent>
      <next>-1</next></_>
    <_>
      <trees>
        <_>
          <_>
            <feature>
              <rects>
                <_>
                  0 1 24 19 -1.</_>
                <_>
                  6 1 12 19 2.</_></rects>
              <tilted>0</tilted></feature>
            <threshold>0.3419457077980042</threshold>
            <left_val>-0.3136802911758423</left_val>
            <right_val>0.5443302989006043</right_val></_></_>
        <_>
          <_>
            <feature>
              <rects>
                <_>
                  13 7 5 3 -1.</_>
                <_>
                  13 8 5 1 3.</_></rects>
              <tilted>0</tilted></feature>
            <threshold>-5.8224108070135117e-003</threshold>
            <left_val>0.3397499918937683</left_val>
            <right_val>-0.1823472976684570</right_val></_></_>
        <_>
          <_>
            <feature>
              <rects>
                <_>
                  6 7 5 3 -1.</_>
                <_>
                  6 8 5 1 3.</_></rects>
              <tilted>0</tilted></feature>
            <threshold>-5.1658269949257374e-003</threshold>
            <left_val>0.2446172982454300</left_val>
            <right_val>-0.5073013901710510</right_val></_></_>
        <_>
          <_>
            <feature>
              <rects>
                <_>
                  12 7 6 8 -1.</_>
                <_>
                  15 7 3 4 2.</_>
                <_>
                  12 11 3 4 2.</_></rects>
              <tilted>0</tilted></feature>
            <threshold>-4.7627151943743229e-003</threshold>
            <left_val>0.2386261969804764</left_val>
            <right_val>-0.2784721851348877</right_val></_></_>
        <_>
          <_>
            <feature>
              <rects>
                <_>
                  0 0 12 4 -1.</_>
                <_>
                  0 0 6 2 2.</_>
                <_>
                  6 2 6 2 2.</_></rects>
              <tilted>0</tilted></feature>
            <threshold>0.0118569498881698</threshold>
            <left_val>-0.3000510931015015</left_val>
            <right_val>0.3186177909374237</right_val></_></_>
        <_>
          <_>
            <feature>
              <rects>
                <_>
                  16 9 2 2 -1.</_>
                <_>
                  16 9 1 2 2.</_></rects>
              <tilted>1</tilted></feature>
            <threshold>-7.2027482092380524e-003</threshold>
            <left_val>-0.5235397815704346</left_val>
            <right_val>0.0531876794993877</right_val></_></_>
        <_>
          <_>
            <feature>
              <rects>
                <_>
                  10 7 4 4 -1.</_>
                <_>
                  11 7 2 4 2.</_></rects>
              <tilted>0</tilted></feature>
            <threshold>3.9590969681739807e-003</threshold>
            <left_val>-0.2618097960948944</left_val>
            <right_val>0.3688344955444336</right_val></_></_>
        <_>
          <_>
            <feature>
              <rects>
                <_>
                  12 8 6 6 -1.</_>
                <_>
                  15 8 3 3 2.</_>
                <_>
                  12 11 3 3 2.</_></rects>
              <tilted>0</tilted></feature>
            <threshold>1.5702809905633330e-003</threshold>
            <left_val>-0.0671941936016083</left_val>
            <right_val>0.0870089530944824</right_val></_></_>
        <_>
          <_>
            <feature>
              <rects>
                <_>
                  6 8 6 6 -1.</_>
                <_>
                  6 8 3 3 2.</_>
                <_>
                  9 11 3 3 2.</_></rects>
              <tilted>0</tilted></feature>
            <threshold>-4.8476238735020161e-003</threshold>
            <left_val>0.1994161009788513</left_val>
            <right_val>-0.4319714903831482</right_val></_></_>
        <_>
          <_>
            <feature>
              <rects>
                <_>
                  13 4 3 1 -1.</_>
                <_>
                  14 4 1 1 3.</_></rects>
              <tilted>0</tilted></feature>
            <threshold>-4.0583079680800438e-004</threshold>
            <left_val>-0.4139325916767120</left_val>
            <right_val>0.1040349975228310</right_val></_></_>
        <_>
          <_>
            <feature>
              <rects>
                <_>
                  8 4 3 1 -1.</_>
                <_>
                  9 4 1 1 3.</_></rects>
              <tilted>0</tilted></feature>
            <threshold>6.7428569309413433e-004</threshold>
            <left_val>0.1217091977596283</left_val>
            <right_val>-0.5933077931404114</right_val></_></_>
        <_>
          <_>
            <feature>
              <rects>
                <_>
                  7 17 12 6 -1.</_>
                <_>
                  7 19 12 2 3.</_></rects>
              <tilted>0</tilted></feature>
            <threshold>-0.0152971800416708</threshold>
            <left_val>0.2641873955726624</left_val>
            <right_val>-0.2177927047014237</right_val></_></_>
        <_>
          <_>
            <feature>
              <rects>
                <_>
                  6 12 11 4 -1.</_>
                <_>
                  6 14 11 2 2.</_></rects>
              <tilted>0</tilted></feature>
            <threshold>-7.1917107561603189e-004</threshold>
            <left_val>0.1350017040967941</left_val>
            <right_val>-0.4949803054332733</right_val></_></_>
        <_>
          <_>
            <feature>
              <rects>
                <_>
                  13 4 3 1 -1.</_>
                <_>
                  14 4 1 1 3.</_></rects>
              <tilted>0</tilted></feature>
            <threshold>4.8399780644103885e-004</threshold>
            <left_val>0.1030644997954369</left_val>
            <right_val>-0.4217056035995483</right_val></_></_>
        <_>
          <_>
            <feature>
              <rects>
                <_>
                  6 5 3 4 -1.</_>
                <_>
                  7 5 1 4 3.</_></rects>
              <tilted>0</tilted></feature>
            <threshold>-3.5165229928679764e-004</threshold>
            <left_val>0.1836522966623306</left_val>
            <right_val>-0.3528346121311188</right_val></_></_>
        <_>
          <_>
            <feature>
              <rects>
                <_>
                  15 4 3 2 -1.</_>
                <_>
                  15 5 3 1 2.</_></rects>
              <tilted>0</tilted></feature>
            <threshold>3.4256349317729473e-003</threshold>
            <left_val>0.0267279203981161</left_val>
            <right_val>-0.2762986123561859</right_val></_></_>
        <_>
          <_>
            <feature>
              <rects>
                <_>
                  6 4 3 2 -1.</_>
                <_>
                  6 5 3 1 2.</_></rects>
              <tilted>0</tilted></feature>
            <threshold>-5.4996361723169684e-004</threshold>
            <left_val>-0.3997207880020142</left_val>
            <right_val>0.1593358069658279</right_val></_></_>
        <_>
          <_>
            <feature>
              <rects>
                <_>
                  20 4 4 4 -1.</_>
                <_>
                  20 5 4 2 2.</_></rects>
              <tilted>0</tilted></feature>
            <threshold>5.9084859676659107e-003</threshold>
            <left_val>0.0645746886730194</left_val>
            <right_val>-0.6512854099273682</right_val></_></_>
        <_>
          <_>
            <feature>
              <rects>
                <_>
                  0 4 4 3 -1.</_>
                <_>
                  0 5 4 1 3.</_></rects>
              <tilted>0</tilted></feature>
            <threshold>3.7653890904039145e-003</threshold>
            <left_val>0.0826105475425720</left_val>
            <right_val>-0.6453223824501038</right_val></_></_>
        <_>
          <_>
            <feature>
              <rects>
                <_>
                  18 9 1 3 -1.</_>
                <_>
                  18 10 1 1 3.</_></rects>
              <tilted>0</tilted></feature>
            <threshold>-2.0318309543654323e-004</threshold>
            <left_val>-0.1741375029087067</left_val>
            <right_val>0.0506589412689209</right_val></_></_>
        <_>
          <_>
            <feature>
              <rects>
                <_>
                  5 9 1 3 -1.</_>
                <_>
                  5 10 1 1 3.</_></rects>
              <tilted>0</tilted></feature>
            <threshold>2.7415680233389139e-004</threshold>
            <left_val>-0.3180767893791199</left_val>
            <right_val>0.1778738945722580</right_val></_></_>
        <_>
          <_>
            <feature>
              <rects>
                <_>
                  16 8 2 3 -1.</_>
                <_>
                  16 8 1 3 2.</_></rects>
              <tilted>1</tilted></feature>
            <threshold>-9.8905982449650764e-003</threshold>
            <left_val>-0.5587540864944458</left_val>
            <right_val>0.0157069601118565</right_val></_></_>
        <_>
          <_>
            <feature>
              <rects>
                <_>
                  8 8 3 2 -1.</_>
                <_>
                  8 8 3 1 2.</_></rects>
              <tilted>1</tilted></feature>
            <threshold>-0.0120203401893377</threshold>
            <left_val>-0.8435646295547485</left_val>
            <right_val>0.0606634393334389</right_val></_></_>
        <_>
          <_>
            <feature>
              <rects>
                <_>
                  14 4 6 4 -1.</_>
                <_>
                  16 6 2 4 3.</_></rects>
              <tilted>1</tilted></feature>
            <threshold>-0.0116548901423812</threshold>
            <left_val>0.1373904049396515</left_val>
            <right_val>-0.1770047992467880</right_val></_></_>
        <_>
          <_>
            <feature>
              <rects>
                <_>
                  9 9 2 2 -1.</_>
                <_>
                  9 9 2 1 2.</_></rects>
              <tilted>1</tilted></feature>
            <threshold>1.9677159434650093e-004</threshold>
            <left_val>0.1374884992837906</left_val>
            <right_val>-0.4424574077129364</right_val></_></_>
        <_>
          <_>
            <feature>
              <rects>
                <_>
                  17 12 2 6 -1.</_>
                <_>
                  17 12 2 3 2.</_></rects>
              <tilted>1</tilted></feature>
            <threshold>0.0151997404173017</threshold>
            <left_val>0.0299467109143734</left_val>
            <right_val>-0.1999119967222214</right_val></_></_>
        <_>
          <_>
            <feature>
              <rects>
                <_>
                  8 11 1 2 -1.</_>
                <_>
                  8 12 1 1 2.</_></rects>
              <tilted>0</tilted></feature>
            <threshold>-1.2293649888306390e-005</threshold>
            <left_val>0.1879341006278992</left_val>
            <right_val>-0.2694819867610931</right_val></_></_>
        <_>
          <_>
            <feature>
              <rects>
                <_>
                  20 8 4 3 -1.</_>
                <_>
                  20 9 4 1 3.</_></rects>
              <tilted>0</tilted></feature>
            <threshold>-3.2725920900702477e-003</threshold>
            <left_val>-0.4509192109107971</left_val>
            <right_val>0.0678565427660942</right_val></_></_>
        <_>
          <_>
            <feature>
              <rects>
                <_>
                  4 1 15 3 -1.</_>
                <_>
                  9 6 5 3 3.</_></rects>
              <tilted>1</tilted></feature>
            <threshold>0.1052436977624893</threshold>
            <left_val>0.0741022080183029</left_val>
            <right_val>-0.6752926111221314</right_val></_></_>
        <_>
          <_>
            <feature>
              <rects>
                <_>
                  20 8 4 3 -1.</_>
                <_>
                  20 9 4 1 3.</_></rects>
              <tilted>0</tilted></feature>
            <threshold>2.6545240543782711e-003</threshold>
            <left_val>0.0659247711300850</left_val>
            <right_val>-0.3449606001377106</right_val></_></_>
        <_>
          <_>
            <feature>
              <rects>
                <_>
                  0 8 4 3 -1.</_>
                <_>
                  0 9 4 1 3.</_></rects>
              <tilted>0</tilted></feature>
            <threshold>-2.7161859907209873e-003</threshold>
            <left_val>-0.5405418872833252</left_val>
            <right_val>0.0997113883495331</right_val></_></_>
        <_>
          <_>
            <feature>
              <rects>
                <_>
                  12 5 6 7 -1.</_>
                <_>
                  12 5 3 7 2.</_></rects>
              <tilted>0</tilted></feature>
            <threshold>0.0489748604595661</threshold>
            <left_val>8.2463016733527184e-003</left_val>
            <right_val>-0.4419108033180237</right_val></_></_>
        <_>
          <_>
            <feature>
              <rects>
                <_>
                  6 5 6 7 -1.</_>
                <_>
                  9 5 3 7 2.</_></rects>
              <tilted>0</tilted></feature>
            <threshold>2.6061621028929949e-003</threshold>
            <left_val>-0.5069578886032105</left_val>
            <right_val>0.1051964014768601</right_val></_></_>
        <_>
          <_>
            <feature>
              <rects>
                <_>
                  10 8 6 2 -1.</_>
                <_>
                  12 8 2 2 3.</_></rects>
              <tilted>0</tilted></feature>
            <threshold>-2.9555479995906353e-003</threshold>
            <left_val>0.2762246131896973</left_val>
            <right_val>-0.0959337279200554</right_val></_></_>
        <_>
          <_>
            <feature>
              <rects>
                <_>
                  9 8 4 3 -1.</_>
                <_>
                  10 8 2 3 2.</_></rects>
              <tilted>0</tilted></feature>
            <threshold>-1.5330479945987463e-003</threshold>
            <left_val>0.4839147925376892</left_val>
            <right_val>-0.1207175999879837</right_val></_></_>
        <_>
          <_>
            <feature>
              <rects>
                <_>
                  12 3 3 2 -1.</_>
                <_>
                  13 3 1 2 3.</_></rects>
              <tilted>0</tilted></feature>
            <threshold>-2.6844360399991274e-003</threshold>
            <left_val>-0.6783447861671448</left_val>
            <right_val>0.0543475486338139</right_val></_></_>
        <_>
          <_>
            <feature>
              <rects>
                <_>
                  8 0 3 5 -1.</_>
                <_>
                  9 0 1 5 3.</_></rects>
              <tilted>0</tilted></feature>
            <threshold>-1.1385789839550853e-003</threshold>
            <left_val>-0.4500122070312500</left_val>
            <right_val>0.0945002734661102</right_val></_></_></trees>
      <stage_threshold>-1.4892369508743286</stage_threshold>
      <parent>8</parent>
      <next>-1</next></_>
    <_>
      <trees>
        <_>
          <_>
            <feature>
              <rects>
                <_>
                  0 0 24 9 -1.</_>
                <_>
                  8 3 8 3 9.</_></rects>
              <tilted>0</tilted></feature>
            <threshold>0.4854561090469360</threshold>
            <left_val>-0.2792491912841797</left_val>
            <right_val>0.6060342788696289</right_val></_></_>
        <_>
          <_>
            <feature>
              <rects>
                <_>
                  16 7 1 3 -1.</_>
                <_>
                  16 8 1 1 3.</_></rects>
              <tilted>0</tilted></feature>
            <threshold>-1.5797050436958671e-003</threshold>
            <left_val>0.3213905990123749</left_val>
            <right_val>-0.1369103044271469</right_val></_></_>
        <_>
          <_>
            <feature>
              <rects>
                <_>
                  7 7 2 2 -1.</_>
                <_>
                  7 7 1 1 2.</_>
                <_>
                  8 8 1 1 2.</_></rects>
              <tilted>0</tilted></feature>
            <threshold>5.7659519370645285e-004</threshold>
            <left_val>-0.3037551045417786</left_val>
            <right_val>0.4431105852127075</right_val></_></_>
        <_>
          <_>
            <feature>
              <rects>
                <_>
                  13 14 3 3 -1.</_>
                <_>
                  13 15 3 1 3.</_></rects>
              <tilted>0</tilted></feature>
            <threshold>-2.3221320006996393e-003</threshold>
            <left_val>0.2299246042966843</left_val>
            <right_val>-0.1460639983415604</right_val></_></_>
        <_>
          <_>
            <feature>
              <rects>
                <_>
                  4 8 2 6 -1.</_>
                <_>
                  4 8 1 3 2.</_>
                <_>
                  5 11 1 3 2.</_></rects>
              <tilted>0</tilted></feature>
            <threshold>1.0735359974205494e-003</threshold>
            <left_val>-0.3603501021862030</left_val>
            <right_val>0.2410273998975754</right_val></_></_>
        <_>
          <_>
            <feature>
              <rects>
                <_>
                  16 0 4 8 -1.</_>
                <_>
                  17 1 2 8 2.</_></rects>
              <tilted>1</tilted></feature>
            <threshold>2.7452649082988501e-003</threshold>
            <left_val>-0.1938778012990952</left_val>
            <right_val>0.1183129027485848</right_val></_></_>
        <_>
          <_>
            <feature>
              <rects>
                <_>
                  5 2 10 4 -1.</_>
                <_>
                  4 3 10 2 2.</_></rects>
              <tilted>1</tilted></feature>
            <threshold>-1.3894709991291165e-004</threshold>
            <left_val>0.1436720043420792</left_val>
            <right_val>-0.5096153020858765</right_val></_></_>
        <_>
          <_>
            <feature>
              <rects>
                <_>
                  15 8 3 2 -1.</_>
                <_>
                  16 9 1 2 3.</_></rects>
              <tilted>1</tilted></feature>
            <threshold>7.1783168241381645e-003</threshold>
            <left_val>0.0185019597411156</left_val>
            <right_val>-0.4176147878170013</right_val></_></_>
        <_>
          <_>
            <feature>
              <rects>
                <_>
                  6 8 8 2 -1.</_>
                <_>
                  6 9 8 1 2.</_></rects>
              <tilted>0</tilted></feature>
            <threshold>9.8285148851573467e-004</threshold>
            <left_val>-0.5512238740921021</left_val>
            <right_val>0.1282147020101547</right_val></_></_>
        <_>
          <_>
            <feature>
              <rects>
                <_>
                  16 2 8 10 -1.</_>
                <_>
                  16 2 4 10 2.</_></rects>
              <tilted>0</tilted></feature>
