<?xml version="1.0"?>
<opencv_storage>
<myfacedetector type_id="opencv-haar-classifier">
  <size>
    24 24</size>
  <stages>
    <_>
      <trees>
        <_>
          <_>
            <feature>
              <rects>
                <_>
                  5 8 4 4 -1.</_>
                <_>
                  5 10 4 2 2.</_></rects>
              <tilted>0</tilted></feature>
            <threshold>6.7199799232184887e-003</threshold>
            <left_val>-0.8699281215667725</left_val>
            <right_val>0.7766144275665283</right_val></_></_>
        <_>
          <_>
            <feature>
              <rects>
                <_>
                  2 0 21 9 -1.</_>
                <_>
                  9 3 7 3 9.</_></rects>
              <tilted>0</tilted></feature>
            <threshold>0.2030148059129715</threshold>
            <left_val>-0.5940718054771423</left_val>
            <right_val>0.6940879225730896</right_val></_></_>
        <_>
          <_>
            <feature>
              <rects>
                <_>
                  7 8 9 1 -1.</_>
                <_>
                  10 8 3 1 3.</_></rects>
              <tilted>0</tilted></feature>
            <threshold>2.7105999179184437e-003</threshold>
            <left_val>-0.7132890224456787</left_val>
            <right_val>0.5360592007637024</right_val></_></_>
        <_>
          <_>
            <feature>
              <rects>
                <_>
                  4 12 16 4 -1.</_>
                <_>
                  4 14 16 2 2.</_></rects>
              <tilted>0</tilted></feature>
            <threshold>-4.2315102182328701e-003</threshold>
            <left_val>0.4688994884490967</left_val>
            <right_val>-0.7285497784614563</right_val></_></_>
        <_>
          <_>
            <feature>
              <rects>
                <_>
                  6 5 3 6 -1.</_>
                <_>
                  6 7 3 2 3.</_></rects>
              <tilted>0</tilted></feature>
            <threshold>-3.4287159796804190e-003</threshold>
            <left_val>0.4461264014244080</left_val>
            <right_val>-0.6193228960037231</right_val></_></_>
        <_>
          <_>
            <feature>
              <rects>
                <_>
                  5 16 15 6 -1.</_>
                <_>
                  5 19 15 3 2.</_></rects>
              <tilted>0</tilted></feature>
            <threshold>-0.0114106303080916</threshold>
            <left_val>0.4649196863174439</left_val>
            <right_val>-0.4671519100666046</right_val></_></_></trees>
      <stage_threshold>-1.9947930574417114</stage_threshold>
      <parent>-1</parent>
      <next>-1</next></_>
    <_>
      <trees>
        <_>
          <_>
            <feature>
              <rects>
                <_>
                  7 8 1 4 -1.</_>
                <_>
                  7 10 1 2 2.</_></rects>
              <tilted>0</tilted></feature>
            <threshold>2.3502919357270002e-003</threshold>
            <left_val>-0.8394274115562439</left_val>
            <right_val>0.6294143795967102</right_val></_></_>
        <_>
          <_>
            <feature>
              <rects>
                <_>
                  3 0 21 9 -1.</_>
                <_>
                  10 3 7 3 9.</_></rects>
              <tilted>0</tilted></feature>
            <threshold>0.1636061966419220</threshold>
            <left_val>-0.6629297733306885</left_val>
            <right_val>0.5800406932830811</right_val></_></_>
        <_>
          <_>
            <feature>
              <rects>
                <_>
                  3 8 16 8 -1.</_>
                <_>
                  3 10 16 4 2.</_></rects>
              <tilted>0</tilted></feature>
            <threshold>0.0137122003361583</threshold>
            <left_val>-0.8715490102767944</left_val>
            <right_val>0.3737694919109345</right_val></_></_>
        <_>
          <_>
            <feature>
              <rects>
                <_>
                  14 0 6 6 -1.</_>
                <_>
                  16 2 2 6 3.</_></rects>
              <tilted>1</tilted></feature>
            <threshold>6.6185527248308063e-004</threshold>
            <left_val>-0.7070454955101013</left_val>
            <right_val>0.1805422008037567</right_val></_></_>
        <_>
          <_>
            <feature>
              <rects>
                <_>
                  10 0 7 6 -1.</_>
                <_>
                  8 2 7 2 3.</_></rects>
              <tilted>1</tilted></feature>
            <threshold>9.9538519862107933e-005</threshold>
            <left_val>-0.8706905245780945</left_val>
            <right_val>0.5267555713653565</right_val></_></_>
        <_>
          <_>
            <feature>
              <rects>
                <_>
                  15 6 4 1 -1.</_>
                <_>
                  16 7 2 1 2.</_></rects>
              <tilted>1</tilted></feature>
            <threshold>-6.5462736529298127e-005</threshold>
            <left_val>0.1027716025710106</left_val>
            <right_val>-0.8159664869308472</right_val></_></_>
        <_>
          <_>
            <feature>
              <rects>
                <_>
                  8 6 6 3 -1.</_>
                <_>
                  8 6 3 3 2.</_></rects>
              <tilted>1</tilted></feature>
            <threshold>-8.2982541061937809e-004</threshold>
            <left_val>0.4922335147857666</left_val>
            <right_val>-0.7976797819137573</right_val></_></_>
        <_>
          <_>
            <feature>
              <rects>
                <_>
                  8 3 8 3 -1.</_>
                <_>
                  8 3 4 3 2.</_></rects>
              <tilted>0</tilted></feature>
            <threshold>1.6772939488873817e-005</threshold>
            <left_val>-0.5658503174781799</left_val>
            <right_val>0.5260655879974365</right_val></_></_>
        <_>
          <_>
            <feature>
              <rects>
                <_>
                  6 8 5 2 -1.</_>
                <_>
                  6 9 5 1 2.</_></rects>
              <tilted>0</tilted></feature>
            <threshold>1.8023469601757824e-004</threshold>
            <left_val>-0.7752075791358948</left_val>
            <right_val>0.3157410025596619</right_val></_></_>
        <_>
          <_>
            <feature>
              <rects>
                <_>
                  1 8 22 16 -1.</_>
                <_>
                  1 16 22 8 2.</_></rects>
              <tilted>0</tilted></feature>
            <threshold>-0.0391684398055077</threshold>
            <left_val>0.3593449890613556</left_val>
            <right_val>-0.7992463707923889</right_val></_></_>
        <_>
          <_>
            <feature>
              <rects>
                <_>
                  0 9 11 2 -1.</_>
                <_>
                  0 10 11 1 2.</_></rects>
              <tilted>0</tilted></feature>
            <threshold>6.0306157683953643e-004</threshold>
            <left_val>-0.6956732273101807</left_val>
            <right_val>0.3306007981300354</right_val></_></_>
        <_>
          <_>
            <feature>
              <rects>
                <_>
                  15 6 4 1 -1.</_>
                <_>
                  16 7 2 1 2.</_></rects>
              <tilted>1</tilted></feature>
            <threshold>5.4162279411684722e-005</threshold>
            <left_val>-0.6001374125480652</left_val>
            <right_val>0.5655525922775269</right_val></_></_>
        <_>
          <_>
            <feature>
              <rects>
                <_>
                  9 6 1 4 -1.</_>
                <_>
                  8 7 1 2 2.</_></rects>
              <tilted>1</tilted></feature>
            <threshold>-1.0423680214444175e-004</threshold>
            <left_val>0.3632763028144836</left_val>
            <right_val>-0.8823171854019165</right_val></_></_>
        <_>
          <_>
            <feature>
              <rects>
                <_>
                  12 12 3 4 -1.</_>
                <_>
                  12 12 3 2 2.</_></rects>
              <tilted>1</tilted></feature>
            <threshold>3.1025710632093251e-004</threshold>
            <left_val>-0.4879829883575440</left_val>
            <right_val>0.1653705984354019</right_val></_></_>
        <_>
          <_>
            <feature>
              <rects>
                <_>
                  5 15 7 4 -1.</_>
                <_>
                  5 16 7 2 2.</_></rects>
              <tilted>0</tilted></feature>
            <threshold>2.7923050220124424e-004</threshold>
            <left_val>-0.6330189704895020</left_val>
            <right_val>0.4977523088455200</right_val></_></_>
        <_>
          <_>
            <feature>
              <rects>
                <_>
                  15 9 2 1 -1.</_>
                <_>
                  15 9 1 1 2.</_></rects>
              <tilted>1</tilted></feature>
            <threshold>-4.8540870920987800e-005</threshold>
            <left_val>0.3737506866455078</left_val>
            <right_val>-0.7093194127082825</right_val></_></_>
        <_>
          <_>
            <feature>
              <rects>
                <_>
                  3 1 18 2 -1.</_>
                <_>
                  3 2 18 1 2.</_></rects>
              <tilted>0</tilted></feature>
            <threshold>1.0904380178544670e-004</threshold>
            <left_val>-0.5585362911224365</left_val>
            <right_val>0.4407312870025635</right_val></_></_></trees>
      <stage_threshold>-2.9038798809051514</stage_threshold>
      <parent>0</parent>
      <next>-1</next></_>
    <_>
      <trees>
        <_>
          <_>
            <feature>
              <rects>
                <_>
                  1 2 20 5 -1.</_>
                <_>
                  6 2 10 5 2.</_></rects>
              <tilted>0</tilted></feature>
            <threshold>0.0481924600899220</threshold>
            <left_val>-0.5620251893997192</left_val>
            <right_val>0.6770067811012268</right_val></_></_>
        <_>
          <_>
            <feature>
              <rects>
                <_>
                  11 8 6 1 -1.</_>
                <_>
                  11 8 3 1 2.</_></rects>
              <tilted>0</tilted></feature>
            <threshold>1.8909249920397997e-003</threshold>
            <left_val>-0.4636993110179901</left_val>
            <right_val>0.4176574945449829</right_val></_></_>
        <_>
          <_>
            <feature>
              <rects>
                <_>
                  6 8 3 4 -1.</_>
                <_>
                  6 10 3 2 2.</_></rects>
              <tilted>0</tilted></feature>
            <threshold>4.6880468726158142e-003</threshold>
            <left_val>-0.8166577816009522</left_val>
            <right_val>0.3625490069389343</right_val></_></_>
        <_>
          <_>
            <feature>
              <rects>
                <_>
                  13 1 5 8 -1.</_>
                <_>
                  13 3 5 4 2.</_></rects>
              <tilted>0</tilted></feature>
            <threshold>6.2331007793545723e-003</threshold>
            <left_val>-0.4604845941066742</left_val>
            <right_val>0.2568801045417786</right_val></_></_>
        <_>
          <_>
            <feature>
              <rects>
                <_>
                  7 8 6 1 -1.</_>
                <_>
                  10 8 3 1 2.</_></rects>
              <tilted>0</tilted></feature>
            <threshold>2.6859568897634745e-003</threshold>
            <left_val>-0.5838487744331360</left_val>
            <right_val>0.3590107858181000</right_val></_></_>
        <_>
          <_>
            <feature>
              <rects>
                <_>
                  1 6 22 12 -1.</_>
                <_>
                  1 10 22 4 3.</_></rects>
              <tilted>0</tilted></feature>
            <threshold>0.0114124501124024</threshold>
            <left_val>-0.8175057172775269</left_val>
            <right_val>0.1982218027114868</right_val></_></_>
        <_>
          <_>
            <feature>
              <rects>
                <_>
                  6 7 3 3 -1.</_>
                <_>
                  7 7 1 3 3.</_></rects>
              <tilted>0</tilted></feature>
            <threshold>-2.7317779313307256e-005</threshold>
            <left_val>0.1950812041759491</left_val>
            <right_val>-0.7111815214157105</right_val></_></_>
        <_>
          <_>
            <feature>
              <rects>
                <_>
                  13 9 8 2 -1.</_>
                <_>
                  13 10 8 1 2.</_></rects>
              <tilted>0</tilted></feature>
            <threshold>1.3666200175066479e-005</threshold>
            <left_val>-0.2807196080684662</left_val>
            <right_val>0.1394886970520020</right_val></_></_>
        <_>
          <_>
            <feature>
              <rects>
                <_>
                  3 9 8 2 -1.</_>
                <_>
                  3 10 8 1 2.</_></rects>
              <tilted>0</tilted></feature>
            <threshold>1.5561030522803776e-005</threshold>
            <left_val>-0.7593201994895935</left_val>
            <right_val>0.2065031975507736</right_val></_></_>
        <_>
          <_>
            <feature>
              <rects>
                <_>
                  11 0 4 16 -1.</_>
                <_>
                  11 4 4 8 2.</_></rects>
              <tilted>0</tilted></feature>
            <threshold>2.3190679494291544e-003</threshold>
            <left_val>-0.4888980090618134</left_val>
            <right_val>0.2052492052316666</right_val></_></_>
        <_>
          <_>
            <feature>
              <rects>
                <_>
                  1 7 13 3 -1.</_>
                <_>
                  1 8 13 1 3.</_></rects>
              <tilted>0</tilted></feature>
            <threshold>-6.7582652263808995e-005</threshold>
            <left_val>0.2613981068134308</left_val>
            <right_val>-0.6849437952041626</right_val></_></_>
        <_>
          <_>
            <feature>
              <rects>
                <_>
                  12 10 5 2 -1.</_>
                <_>
                  12 11 5 1 2.</_></rects>
              <tilted>0</tilted></feature>
            <threshold>1.5890009308350272e-005</threshold>
            <left_val>-0.2086959928274155</left_val>
            <right_val>0.1342243999242783</right_val></_></_>
        <_>
          <_>
            <feature>
              <rects>
                <_>
                  6 9 6 3 -1.</_>
                <_>
                  8 11 2 3 3.</_></rects>
              <tilted>1</tilted></feature>
            <threshold>1.7989730622502975e-005</threshold>
            <left_val>-0.5106804966926575</left_val>
            <right_val>0.2661854028701782</right_val></_></_>
        <_>
          <_>
            <feature>
              <rects>
                <_>
                  0 18 24 6 -1.</_>
                <_>
                  8 20 8 2 9.</_></rects>
              <tilted>0</tilted></feature>
            <threshold>-8.2041006535291672e-003</threshold>
            <left_val>0.3353930115699768</left_val>
            <right_val>-0.5019242167472839</right_val></_></_>
        <_>
          <_>
            <feature>
              <rects>
                <_>
                  0 15 24 4 -1.</_>
                <_>
                  6 15 12 4 2.</_></rects>
              <tilted>0</tilted></feature>
            <threshold>0.0339197702705860</threshold>
            <left_val>-0.2883568108081818</left_val>
            <right_val>0.5692738890647888</right_val></_></_>
        <_>
          <_>
            <feature>
              <rects>
                <_>
                  15 2 3 4 -1.</_>
                <_>
                  16 3 1 4 3.</_></rects>
              <tilted>1</tilted></feature>
            <threshold>-7.8119250247254968e-005</threshold>
            <left_val>0.2317271977663040</left_val>
            <right_val>-0.3054805099964142</right_val></_></_>
        <_>
          <_>
            <feature>
              <rects>
                <_>
                  9 2 4 3 -1.</_>
                <_>
                  8 3 4 1 3.</_></rects>
              <tilted>1</tilted></feature>
            <threshold>1.6898669855436310e-005</threshold>
            <left_val>-0.4830962121486664</left_val>
            <right_val>0.3607524037361145</right_val></_></_>
        <_>
          <_>
            <feature>
              <rects>
                <_>
                  12 10 3 3 -1.</_>
                <_>
                  12 11 3 1 3.</_></rects>
              <tilted>0</tilted></feature>
            <threshold>9.4990937213879079e-005</threshold>
            <left_val>-0.3479040861129761</left_val>
            <right_val>0.1179253980517387</right_val></_></_>
        <_>
          <_>
            <feature>
              <rects>
                <_>
                  6 4 7 3 -1.</_>
                <_>
                  5 5 7 1 3.</_></rects>
              <tilted>1</tilted></feature>
            <threshold>-1.2065099872415885e-004</threshold>
            <left_val>0.3218815922737122</left_val>
            <right_val>-0.5803403854370117</right_val></_></_>
        <_>
          <_>
            <feature>
              <rects>
                <_>
                  12 10 3 3 -1.</_>
                <_>
                  12 11 3 1 3.</_></rects>
              <tilted>0</tilted></feature>
            <threshold>-3.1316380045609549e-005</threshold>
            <left_val>0.4176613986492157</left_val>
            <right_val>-0.2860498130321503</right_val></_></_>
        <_>
          <_>
            <feature>
              <rects>
                <_>
                  9 10 3 3 -1.</_>
                <_>
                  9 11 3 1 3.</_></rects>
              <tilted>0</tilted></feature>
            <threshold>1.6184400010388345e-005</threshold>
            <left_val>-0.4646568894386292</left_val>
            <right_val>0.3731004893779755</right_val></_></_>
        <_>
          <_>
            <feature>
              <rects>
                <_>
                  14 13 5 4 -1.</_>
                <_>
                  14 14 5 2 2.</_></rects>
              <tilted>0</tilted></feature>
            <threshold>-2.9269850347191095e-004</threshold>
            <left_val>0.1245184019207954</left_val>
            <right_val>-0.2370011955499649</right_val></_></_>
        <_>
          <_>
            <feature>
              <rects>
                <_>
                  0 15 20 6 -1.</_>
                <_>
                  0 18 20 3 2.</_></rects>
              <tilted>0</tilted></feature>
            <threshold>-3.3185369102284312e-004</threshold>
            <left_val>0.2995490133762360</left_val>
            <right_val>-0.4887739121913910</right_val></_></_>
        <_>
          <_>
            <feature>
              <rects>
                <_>
                  21 6 1 16 -1.</_>
                <_>
                  17 10 1 8 2.</_></rects>
              <tilted>1</tilted></feature>
            <threshold>-1.6591829480603337e-003</threshold>
            <left_val>0.2943030893802643</left_val>
            <right_val>-0.1406230926513672</right_val></_></_>
        <_>
          <_>
            <feature>
              <rects>
                <_>
                  5 12 5 6 -1.</_>
                <_>
                  5 14 5 2 3.</_></rects>
              <tilted>0</tilted></feature>
            <threshold>-1.5199930203380063e-005</threshold>
            <left_val>0.3033446967601776</left_val>
            <right_val>-0.3594225049018860</right_val></_></_>
        <_>
          <_>
            <feature>
              <rects>
                <_>
                  14 4 3 2 -1.</_>
                <_>
                  15 4 1 2 3.</_></rects>
              <tilted>0</tilted></feature>
            <threshold>2.2001960314810276e-003</threshold>
            <left_val>0.0784884765744209</left_val>
            <right_val>-0.7350463867187500</right_val></_></_>
        <_>
          <_>
            <feature>
              <rects>
                <_>
                  7 4 3 2 -1.</_>
                <_>
                  8 4 1 2 3.</_></rects>
              <tilted>0</tilted></feature>
            <threshold>1.2166439555585384e-003</threshold>
            <left_val>0.1822343021631241</left_val>
            <right_val>-0.7495617866516113</right_val></_></_></trees>
      <stage_threshold>-2.3357670307159424</stage_threshold>
      <parent>1</parent>
      <next>-1</next></_>
    <_>
      <trees>
        <_>
          <_>
            <feature>
              <rects>
                <_>
                  0 0 24 9 -1.</_>
                <_>
                  8 3 8 3 9.</_></rects>
              <tilted>0</tilted></feature>
            <threshold>0.3487366139888763</threshold>
            <left_val>-0.4550513029098511</left_val>
            <right_val>0.7690281867980957</right_val></_></_>
        <_>
          <_>
            <feature>
              <rects>
                <_>
                  14 7 4 3 -1.</_>
                <_>
                  14 8 4 1 3.</_></rects>
              <tilted>0</tilted></feature>
            <threshold>-4.2015681974589825e-003</threshold>
            <left_val>0.4657922983169556</left_val>
            <right_val>-0.1956360042095184</right_val></_></_>
        <_>
          <_>
            <feature>
              <rects>
                <_>
                  7 7 1 3 -1.</_>
                <_>
                  7 8 1 1 3.</_></rects>
              <tilted>0</tilted></feature>
            <threshold>-2.0538470707833767e-003</threshold>
            <left_val>0.5394694805145264</left_val>
            <right_val>-0.4804376065731049</right_val></_></_>
        <_>
          <_>
            <feature>
              <rects>
                <_>
                  8 4 9 6 -1.</_>
                <_>
                  11 4 3 6 3.</_></rects>
              <tilted>0</tilted></feature>
            <threshold>9.1388570144772530e-003</threshold>
            <left_val>-0.3857412040233612</left_val>
            <right_val>0.1999983936548233</right_val></_></_>
        <_>
          <_>
            <feature>
              <rects>
                <_>
                  4 7 14 9 -1.</_>
                <_>
                  4 10 14 3 3.</_></rects>
              <tilted>0</tilted></feature>
            <threshold>0.0453323610126972</threshold>
            <left_val>-0.4542121887207031</left_val>
            <right_val>0.2756510972976685</right_val></_></_>
        <_>
          <_>
            <feature>
              <rects>
                <_>
                  12 6 6 5 -1.</_>
                <_>
                  12 6 3 5 2.</_></rects>
              <tilted>0</tilted></feature>
            <threshold>0.0429495796561241</threshold>
            <left_val>5.4985298775136471e-003</left_val>
            <right_val>-0.7344505786895752</right_val></_></_>
        <_>
          <_>
            <feature>
              <rects>
                <_>
                  10 0 3 4 -1.</_>
                <_>
                  11 0 1 4 3.</_></rects>
              <tilted>0</tilted></feature>
            <threshold>-2.1242939401417971e-003</threshold>
            <left_val>-0.7235879898071289</left_val>
            <right_val>0.1793987005949020</right_val></_></_>
        <_>
          <_>
            <feature>
              <rects>
                <_>
                  11 0 3 5 -1.</_>
                <_>
                  12 0 1 5 3.</_></rects>
              <tilted>0</tilted></feature>
            <threshold>-2.8599319048225880e-003</threshold>
            <left_val>-0.6860514879226685</left_val>
            <right_val>0.1077945008873940</right_val></_></_>
        <_>
          <_>
            <feature>
              <rects>
                <_>
                  7 6 8 4 -1.</_>
                <_>
                  9 6 4 4 2.</_></rects>
              <tilted>0</tilted></feature>
            <threshold>3.9679710753262043e-003</threshold>
            <left_val>-0.5134981274604797</left_val>
            <right_val>0.2170515954494476</right_val></_></_>
        <_>
          <_>
            <feature>
              <rects>
                <_>
                  10 1 4 3 -1.</_>
                <_>
                  11 1 2 3 2.</_></rects>
              <tilted>0</tilted></feature>
            <threshold>2.6717160362750292e-003</threshold>
            <left_val>0.1328850984573364</left_val>
            <right_val>-0.7508816719055176</right_val></_></_>
        <_>
          <_>
            <feature>
              <rects>
                <_>
                  6 3 6 6 -1.</_>
                <_>
                  6 5 6 2 3.</_></rects>
              <tilted>0</tilted></feature>
            <threshold>3.9751310832798481e-003</threshold>
            <left_val>-0.3927178978919983</left_val>
            <right_val>0.2274075001478195</right_val></_></_>
        <_>
          <_>
            <feature>
              <rects>
                <_>
                  15 1 3 8 -1.</_>
                <_>
                  16 1 1 8 3.</_></rects>
              <tilted>0</tilted></feature>
            <threshold>3.5042050294578075e-003</threshold>
            <left_val>0.0908080935478210</left_val>
            <right_val>-0.5403264760971069</right_val></_></_>
        <_>
          <_>
            <feature>
              <rects>
                <_>
                  6 1 3 8 -1.</_>
                <_>
                  7 1 1 8 3.</_></rects>
              <tilted>0</tilted></feature>
            <threshold>-5.6365528143942356e-003</threshold>
            <left_val>-0.7263838052749634</left_val>
            <right_val>0.1381870061159134</right_val></_></_>
        <_>
          <_>
            <feature>
              <rects>
                <_>
                  14 9 10 2 -1.</_>
                <_>
                  19 9 5 1 2.</_>
                <_>
                  14 10 5 1 2.</_></rects>
              <tilted>0</tilted></feature>
            <threshold>2.2753390949219465e-003</threshold>
            <left_val>-0.0742265731096268</left_val>
            <right_val>0.0702869221568108</right_val></_></_>
        <_>
          <_>
            <feature>
              <rects>
                <_>
                  8 9 2 1 -1.</_>
                <_>
                  8 9 1 1 2.</_></rects>
              <tilted>1</tilted></feature>
            <threshold>-1.1077959788963199e-004</threshold>
            <left_val>0.1649857014417648</left_val>
            <right_val>-0.5580772161483765</right_val></_></_>
        <_>
          <_>
            <feature>
              <rects>
                <_>
                  15 5 3 3 -1.</_>
                <_>
                  16 5 1 3 3.</_></rects>
              <tilted>0</tilted></feature>
            <threshold>-2.9039869550615549e-003</threshold>
            <left_val>-0.5009260773658752</left_val>
            <right_val>0.0481245592236519</right_val></_></_>
        <_>
          <_>
            <feature>
              <rects>
                <_>
                  6 5 3 3 -1.</_>
                <_>
                  7 5 1 3 3.</_></rects>
              <tilted>0</tilted></feature>
            <threshold>1.9542078953236341e-003</threshold>
            <left_val>0.1198763996362686</left_val>
            <right_val>-0.7283980250358582</right_val></_></_>
        <_>
          <_>
            <feature>
              <rects>
                <_>
                  22 6 2 4 -1.</_>
                <_>
                  22 7 2 2 2.</_></rects>
              <tilted>0</tilted></feature>
            <threshold>-3.3272400032728910e-003</threshold>
            <left_val>-0.6755164861679077</left_val>
            <right_val>0.0821695625782013</right_val></_></_></trees>
      <stage_threshold>-1.7372790575027466</stage_threshold>
      <parent>2</parent>
      <next>-1</next></_>
    <_>
      <trees>
        <_>
          <_>
            <feature>
              <rects>
                <_>
                  7 7 1 3 -1.</_>
                <_>
                  7 8 1 1 3.</_></rects>
              <tilted>0</tilted></feature>
            <threshold>-1.6761180013418198e-003</threshold>
            <left_val>0.4696384072303772</left_val>
            <right_val>-0.6298902034759522</right_val></_></_>
        <_>
          <_>
            <feature>
              <rects>
                <_>
                  5 0 14 4 -1.</_>
                <_>
                  5 2 14 2 2.</_></rects>
              <tilted>0</tilted></feature>
            <threshold>0.0235006902366877</threshold>
            <left_val>-0.4728815853595734</left_val>
            <right_val>0.5440533161163330</right_val></_></_>
        <_>
          <_>
            <feature>
              <rects>
                <_>
                  7 6 9 4 -1.</_>
                <_>
                  10 6 3 4 3.</_></rects>
              <tilted>0</tilted></feature>
            <threshold>0.0128344800323248</threshold>
            <left_val>-0.5960711836814880</left_val>
            <right_val>0.3608644008636475</right_val></_></_>
        <_>
          <_>
            <feature>
              <rects>
                <_>
                  19 7 3 5 -1.</_>
                <_>
                  20 8 1 5 3.</_></rects>
              <tilted>1</tilted></feature>
            <threshold>8.5758697241544724e-004</threshold>
            <left_val>-0.3145515024662018</left_val>
            <right_val>0.2030327022075653</right_val></_></_>
        <_>
          <_>
            <feature>
              <rects>
                <_>
                  5 7 5 3 -1.</_>
                <_>
                  4 8 5 1 3.</_></rects>
              <tilted>1</tilted></feature>
            <threshold>4.7729718498885632e-003</threshold>
            <left_val>-0.4369693100452423</left_val>
            <right_val>0.3837049901485443</right_val></_></_>
        <_>
          <_>
            <feature>
              <rects>
                <_>
                  10 9 11 2 -1.</_>
                <_>
                  10 10 11 1 2.</_></rects>
              <tilted>0</tilted></feature>
            <threshold>4.4978311052545905e-004</threshold>
            <left_val>-0.3871518075466156</left_val>
            <right_val>0.0674457773566246</right_val></_></_>
        <_>
          <_>
            <feature>
              <rects>
                <_>
                  6 6 4 6 -1.</_>
                <_>
                  6 8 4 2 3.</_></rects>
              <tilted>0</tilted></feature>
            <threshold>-3.9436798542737961e-003</threshold>
            <left_val>0.1718681007623673</left_val>
            <right_val>-0.7319074273109436</right_val></_></_>
        <_>
          <_>
            <feature>
              <rects>
                <_>
                  0 2 24 17 -1.</_>
                <_>
                  6 2 12 17 2.</_></rects>
              <tilted>0</tilted></feature>
            <threshold>0.2468784004449844</threshold>
            <left_val>-0.2260411977767944</left_val>
            <right_val>0.6175683140754700</right_val></_></_>
        <_>
          <_>
            <feature>
              <rects>
                <_>
                  6 12 5 6 -1.</_>
                <_>
                  6 14 5 2 3.</_></rects>
              <tilted>0</tilted></feature>
            <threshold>-2.0991110068280250e-004</threshold>
            <left_val>0.2326361984014511</left_val>
            <right_val>-0.4301029145717621</right_val></_></_>
        <_>
          <_>
            <feature>
              <rects>
                <_>
                  18 1 6 10 -1.</_>
                <_>
                  20 3 2 10 3.</_></rects>
              <tilted>1</tilted></feature>
            <threshold>-8.4974430501461029e-004</threshold>
            <left_val>0.2036716043949127</left_val>
            <right_val>-0.2488172948360443</right_val></_></_>
        <_>
          <_>
            <feature>
              <rects>
                <_>
                  0 5 4 6 -1.</_>
                <_>
                  0 7 4 2 3.</_></rects>
              <tilted>0</tilted></feature>
            <threshold>-0.0160732995718718</threshold>
            <left_val>-0.6977337002754211</left_val>
            <right_val>0.1103954017162323</right_val></_></_>
        <_>
          <_>
            <feature>
              <rects>
                <_>
                  17 9 5 2 -1.</_>
                <_>
                  17 10 5 1 2.</_></rects>
              <tilted>0</tilted></feature>
            <threshold>-1.4576899957319256e-005</threshold>
            <left_val>0.1180410012602806</left_val>
            <right_val>-0.0894336104393005</right_val></_></_>
        <_>
          <_>
            <feature>
              <rects>
                <_>
                  2 9 5 2 -1.</_>
                <_>
                  2 10 5 1 2.</_></rects>
              <tilted>0</tilted></feature>
            <threshold>1.9782189338002354e-004</threshold>
            <left_val>-0.5354620814323425</left_val>
            <right_val>0.1759274005889893</right_val></_></_>
        <_>
          <_>
            <feature>
              <rects>
                <_>
                  9 11 6 6 -1.</_>
                <_>
                  9 14 6 3 2.</_></rects>
              <tilted>0</tilted></feature>
            <threshold>-1.1905330466106534e-003</threshold>
            <left_val>0.1611353009939194</left_val>
            <right_val>-0.4562787115573883</right_val></_></_>
        <_>
          <_>
            <feature>
              <rects>
                <_>
                  4 15 15 8 -1.</_>
                <_>
                  4 19 15 4 2.</_></rects>
              <tilted>0</tilted></feature>
            <threshold>-0.0238145701587200</threshold>
            <left_val>0.2830154001712799</left_val>
            <right_val>-0.2943176925182343</right_val></_></_>
        <_>
          <_>
            <feature>
              <rects>
                <_>
                  15 4 2 2 -1.</_>
                <_>
                  15 5 2 1 2.</_></rects>
              <tilted>0</tilted></feature>
            <threshold>1.4218449905456509e-005</threshold>
            <left_val>-0.1914999037981033</left_val>
            <right_val>0.1944998949766159</right_val></_></_>
        <_>
          <_>
            <feature>
              <rects>
                <_>
                  6 11 7 4 -1.</_>
                <_>
                  6 12 7 2 2.</_></rects>
              <tilted>0</tilted></feature>
            <threshold>-4.4231620267964900e-004</threshold>
            <left_val>0.3290711045265198</left_val>
            <right_val>-0.2323797941207886</right_val></_></_>
        <_>
          <_>
            <feature>
              <rects>
                <_>
                  15 4 2 2 -1.</_>
                <_>
                  15 5 2 1 2.</_></rects>
              <tilted>0</tilted></feature>
            <threshold>-1.2175910342193674e-005</threshold>
            <left_val>0.1213399022817612</left_val>
            <right_val>-0.0915700569748878</right_val></_></_>
        <_>
          <_>
            <feature>
              <rects>
                <_>
                  7 4 2 2 -1.</_>
                <_>
                  7 5 2 1 2.</_></rects>
              <tilted>0</tilted></feature>
            <threshold>-1.0788609506562352e-003</threshold>
            <left_val>-0.5876880288124085</left_val>
            <right_val>0.1311751008033752</right_val></_></_>
        <_>
          <_>
            <feature>
              <rects>
                <_>
                  15 7 3 3 -1.</_>
                <_>
                  16 7 1 3 3.</_></rects>
              <tilted>0</tilted></feature>
            <threshold>-4.4169151224195957e-003</threshold>
            <left_val>-0.6539260149002075</left_val>
            <right_val>0.0274056792259216</right_val></_></_>
        <_>
          <_>
            <feature>
              <rects>
                <_>
                  6 7 3 3 -1.</_>
                <_>
                  7 7 1 3 3.</_></rects>
              <tilted>0</tilted></feature>
            <threshold>-1.5985790014383383e-005</threshold>
            <left_val>0.1797730028629303</left_val>
            <right_val>-0.3995212912559509</right_val></_></_>
        <_>
          <_>
            <feature>
              <rects>
                <_>
                  20 7 4 3 -1.</_>
                <_>
                  20 8 4 1 3.</_></rects>
              <tilted>0</tilted></feature>
            <threshold>-2.5835949927568436e-003</threshold>
            <left_val>-0.4387871026992798</left_val>
            <right_val>0.0925172418355942</right_val></_></_>
        <_>
          <_>
            <feature>
              <rects>
                <_>
                  7 8 6 5 -1.</_>
                <_>
                  9 8 2 5 3.</_></rects>
              <tilted>0</tilted></feature>
            <threshold>-7.0286379195749760e-003</threshold>
            <left_val>0.4013862013816834</left_val>
            <right_val>-0.1689499020576477</right_val></_></_>
        <_>
          <_>
            <feature>
              <rects>
                <_>
                  13 4 2 1 -1.</_>
                <_>
                  13 4 1 1 2.</_></rects>
              <tilted>0</tilted></feature>
            <threshold>9.0541457757353783e-004</threshold>
            <left_val>0.0732678771018982</left_val>
            <right_val>-0.4052588045597076</right_val></_></_>
        <_>
          <_>
            <feature>
              <rects>
                <_>
                  10 2 1 3 -1.</_>
                <_>
                  9 3 1 1 3.</_></rects>
              <tilted>1</tilted></feature>
            <threshold>-2.4774360936135054e-003</threshold>
            <left_val>-0.7212759256362915</left_val>
            <right_val>0.0976968929171562</right_val></_></_></trees>
      <stage_threshold>-1.7996929883956909</stage_threshold>
      <parent>3</parent>
      <next>-1</next></_></stages></myfacedetector>
</opencv_storage>
